{"learner":{"attributes":{},"feature_names":[],"feature_types":[],"gradient_booster":{"model":{"cats":{"enc":[],"feature_segments":[],"sorted_idx":[]},"gbtree_model_param":{"num_parallel_tree":"1","num_trees":"500"},"iteration_indptr":[0,1,2,3,4,5,6,7,8,9,10,11,12,13,14,15,16,17,18,19,20,21,22,23,24,25,26,27,28,29,30,31,32,33,34,35,36,37,38,39,40,41,42,43,44,45,46,47,48,49,50,51,52,53,54,55,56,57,58,59,60,61,62,63,64,65,66,67,68,69,70,71,72,73,74,75,76,77,78,79,80,81,82,83,84,85,86,87,88,89,90,91,92,93,94,95,96,97,98,99,100,101,102,103,104,105,106,107,108,109,110,111,112,113,114,115,116,117,118,119,120,121,122,123,124,125,126,127,128,129,130,131,132,133,134,135,136,137,138,139,140,141,142,143,144,145,146,147,148,149,150,151,152,153,154,155,156,157,158,159,160,161,162,163,164,165,166,167,168,169,170,171,172,173,174,175,176,177,178,179,180,181,182,183,184,185,186,187,188,189,190,191,192,193,194,195,196,197,198,199,200,201,202,203,204,205,206,207,208,209,210,211,212,213,214,215,216,217,218,219,220,221,222,223,224,225,226,227,228,229,230,231,232,233,234,235,236,237,238,239,240,241,242,243,244,245,246,247,248,249,250,251,252,253,254,255,256,257,258,259,260,261,262,263,264,265,266,267,268,269,270,271,272,273,274,275,276,277,278,279,280,281,282,283,284,285,286,287,288,289,290,291,292,293,294,295,296,297,298,299,300,301,302,303,304,305,306,307,308,309,310,311,312,313,314,315,316,317,318,319,320,321,322,323,324,325,326,327,328,329,330,331,332,333,334,335,336,337,338,339,340,341,342,343,344,345,346,347,348,349,350,351,352,353,354,355,356,357,358,359,360,361,362,363,364,365,366,367,368,369,370,371,372,373,374,375,376,377,378,379,380,381,382,383,384,385,386,387,388,389,390,391,392,393,394,395,396,397,398,399,400,401,402,403,404,405,406,407,408,409,410,411,412,413,414,415,416,417,418,419,420,421,422,423,424,425,426,427,428,429,430,431,432,433,434,435,436,437,438,439,440,441,442,443,444,445,446,447,448,449,450,451,452,453,454,455,456,457,458,459,460,461,462,463,464,465,466,467,468,469,470,471,472,473,474,475,476,477,478,479,480,481,482,483,484,485,486,487,488,489,490,491,492,493,494,495,496,497,498,499,500],"tree_info":[0,0,0,0,0,0,0,0,0,0,0,0,0,0,0,0,0,0,0,0,0,0,0,0,0,0,0,0,0,0,0,0,0,0,0,0,0,0,0,0,0,0,0,0,0,0,0,0,0,0,0,0,0,0,0,0,0,0,0,0,0,0,0,0,0,0,0,0,0,0,0,0,0,0,0,0,0,0,0,0,0,0,0,0,0,0,0,0,0,0,0,0,0,0,0,0,0,0,0,0,0,0,0,0,0,0,0,0,0,0,0,0,0,0,0,0,0,0,0,0,0,0,0,0,0,0,0,0,0,0,0,0,0,0,0,0,0,0,0,0,0,0,0,0,0,0,0,0,0,0,0,0,0,0,0,0,0,0,0,0,0,0,0,0,0,0,0,0,0,0,0,0,0,0,0,0,0,0,0,0,0,0,0,0,0,0,0,0,0,0,0,0,0,0,0,0,0,0,0,0,0,0,0,0,0,0,0,0,0,0,0,0,0,0,0,0,0,0,0,0,0,0,0,0,0,0,0,0,0,0,0,0,0,0,0,0,0,0,0,0,0,0,0,0,0,0,0,0,0,0,0,0,0,0,0,0,0,0,0,0,0,0,0,0,0,0,0,0,0,0,0,0,0,0,0,0,0,0,0,0,0,0,0,0,0,0,0,0,0,0,0,0,0,0,0,0,0,0,0,0,0,0,0,0,0,0,0,0,0,0,0,0,0,0,0,0,0,0,0,0,0,0,0,0,0,0,0,0,0,0,0,0,0,0,0,0,0,0,0,0,0,0,0,0,0,0,0,0,0,0,0,0,0,0,0,0,0,0,0,0,0,0,0,0,0,0,0,0,0,0,0,0,0,0,0,0,0,0,0,0,0,0,0,0,0,0,0,0,0,0,0,0,0,0,0,0,0,0,0,0,0,0,0,0,0,0,0,0,0,0,0,0,0,0,0,0,0,0,0,0,0,0,0,0,0,0,0,0,0,0,0,0,0,0,0,0,0,0,0,0,0,0,0,0,0,0,0,0,0,0,0,0,0,0,0,0,0,0,0,0,0,0,0,0,0,0,0,0,0,0,0,0,0,0,0,0,0,0,0,0,0,0,0,0,0,0,0,0,0,0,0,0,0,0,0,0,0,0,0,0],"trees":[{"base_weights":[5.7034064E-5,-3.3239907E-1,1.23548515E-1,-2.1876397E-3,-4.4355336E-1,4.2241457E-1,3.654087E-2,-9.448115E-2,8.1773967E-1,-5.439802E-1,2.3518777E-1,8.4627235E-1,3.4693444E-1,-3.2546502E-1,1.9163118E-1,-9.671569E-1,-1.6419703E-2,5.0331928E-2,1.2678756E0,-3.00719E-1,-6.976661E-1,-1.8321817E-1,4.833232E-1,1.0942883E0,-5.8043E-2,3.7963733E-1,-4.0774268E-1,-4.3111342E-1,4.2355265E-3,6.3615784E-2,6.3551986E-1,-7.331699E-2,-4.5744973E-1,-2.3710884E-1,3.16272E-1,-2.1774929E-2,2.6065722E-2,3.1338897E-2,8.278036E-2,-4.0043306E-1,2.521945E-1,-7.7252537E-1,-1.30315E-1,-5.064085E-1,5.9566873E-1,7.5524795E-1,-8.4972344E-2,1.2066746E0,-1.4549339E-2,3.1338897E-2,-4.8029113E-1,-6.478651E-2,4.433452E-1,2.978457E-1,-9.3676853E-1,-4.7899738E-1,4.5176205E-1,4.0045986E-1,-2.7904525E-1,-2.8747046E-2,4.3150395E-1,-3.0997935E-1,7.409117E-1,1.0237032E-2,-5.5613108E-2,1.27686905E-2,-2.4493532E-2,-5.8843647E-3,3.394386E-2,-1.1504388E-3,-2.9055536E-2,7.032633E-2,-8.929299E-3,-4.185162E-2,-3.6143262E-3,5.1344264E-2,-1.3950474E-2,2.039288E-2,-3.8150694E-2,6.3284114E-2,-2.154954E-3,-1.0495535E-2,4.435427E-2,-4.8345044E-2,2.1959614E-2,7.405939E-2,3.0466659E-2,-5.5173684E-2,1.5258302E-2,2.5284326E-2,-1.8011335E-2,1.2375694E-2,2.829573E-2,-1.7906845E-2,4.3645546E-2,-5.966998E-3,-6.549777E-2,-2.0574667E-2,-4.800162E-2,-7.158655E-3,5.126057E-2,6.8141304E-2,7.177794E-3,1.08973095E-2,-3.279781E-2,4.540389E-3,-1.52985295E-2,3.2559123E-2,-1.2474316E-2,-4.769985E-2,1.455611E-2,-1.3643478E-2,3.984799E-2],"categories":[],"categories_nodes":[],"categories_segments":[],"categories_sizes":[],"default_left":[0,0,0,0,0,0,0,0,0,0,0,0,0,0,0,0,0,0,0,0,0,0,0,0,0,0,0,0,0,0,0,0,0,0,0,0,0,0,0,0,0,0,0,0,0,0,0,0,0,0,0,0,0,0,0,0,0,0,0,0,0,0,0,0,0,0,0,0,0,0,0,0,0,0,0,0,0,0,0,0,0,0,0,0,0,0,0,0,0,0,0,0,0,0,0,0,0,0,0,0,0,0,0,0,0,0,0,0,0,0,0,0,0],"id":0,"left_children":[1,3,5,7,9,11,13,15,17,19,21,23,25,27,29,31,33,35,37,39,41,43,45,47,49,51,53,55,57,59,61,-1,63,65,67,-1,-1,-1,-1,69,71,73,75,77,79,81,83,85,-1,-1,87,89,91,93,95,97,99,101,103,105,107,109,111,-1,-1,-1,-1,-1,-1,-1,-1,-1,-1,-1,-1,-1,-1,-1,-1,-1,-1,-1,-1,-1,-1,-1,-1,-1,-1,-1,-1,-1,-1,-1,-1,-1,-1,-1,-1,-1,-1,-1,-1,-1,-1,-1,-1,-1,-1,-1,-1,-1,-1],"loss_changes":[1.1174446E2,2.700943E1,5.156095E1,1.4145753E1,3.773336E1,1.3896584E1,8.644965E1,1.1396057E1,6.3331137E0,1.7658707E1,7.5541344E0,1.5130245E1,9.568871E0,1.6127972E1,6.115698E1,2.6355143E0,1.1536566E1,2.0915375E0,1.6645012E0,1.0485882E1,1.2275681E1,7.149033E0,7.144252E0,8.6151085E0,4.6880064E0,1.0439285E1,6.390951E0,1.5012428E1,1.2786356E1,2.8531597E1,2.4293411E1,0E0,3.9417846E0,1.1932915E1,9.978049E0,0E0,0E0,0E0,0E0,1.082963E1,1.4893345E1,1.1545654E1,6.3328867E0,5.0108485E0,3.7530918E0,4.1876698E0,7.6274757E0,6.8929825E0,0E0,0E0,5.3469257E0,8.0229645E0,7.4774475E0,3.2388093E0,2.6238127E0,1.0265221E1,6.5156727E0,1.1419388E1,1.2592017E1,2.2277044E1,2.5406261E1,9.9387245E0,1.26152725E1,0E0,0E0,0E0,0E0,0E0,0E0,0E0,0E0,0E0,0E0,0E0,0E0,0E0,0E0,0E0,0E0,0E0,0E0,0E0,0E0,0E0,0E0,0E0,0E0,0E0,0E0,0E0,0E0,0E0,0E0,0E0,0E0,0E0,0E0,0E0,0E0,0E0,0E0,0E0,0E0,0E0,0E0,0E0,0E0,0E0,0E0,0E0,0E0,0E0,0E0],"parents":[2147483647,0,0,1,1,2,2,3,3,4,4,5,5,6,6,7,7,8,8,9,9,10,10,11,11,12,12,13,13,14,14,15,15,16,16,17,17,18,18,19,19,20,20,21,21,22,22,23,23,24,24,25,25,26,26,27,27,28,28,29,29,30,30,32,32,33,33,34,34,39,39,40,40,41,41,42,42,43,43,44,44,45,45,46,46,47,47,50,50,51,51,52,52,53,53,54,54,55,55,56,56,57,57,58,58,59,59,60,60,61,61,62,62],"right_children":[2,4,6,8,10,12,14,16,18,20,22,24,26,28,30,32,34,36,38,40,42,44,46,48,50,52,54,56,58,60,62,-1,64,66,68,-1,-1,-1,-1,70,72,74,76,78,80,82,84,86,-1,-1,88,90,92,94,96,98,100,102,104,106,108,110,112,-1,-1,-1,-1,-1,-1,-1,-1,-1,-1,-1,-1,-1,-1,-1,-1,-1,-1,-1,-1,-1,-1,-1,-1,-1,-1,-1,-1,-1,-1,-1,-1,-1,-1,-1,-1,-1,-1,-1,-1,-1,-1,-1,-1,-1,-1,-1,-1,-1,-1],"split_conditions":[7.0621828E-3,-1.7361455E-1,-1.7361455E-1,9.5208335E-1,4.781339E0,-2.2474868E0,3E0,1.9354839E-2,1.8539634E-1,-1.1029179E-1,2.0283874E-2,9.611111E-1,1.4285715E0,2E0,1.553455E0,1.3694717E-2,7.5566286E-1,1.963784E0,0E0,9.388889E-1,1E0,9.8423845E-1,6.5273243E-1,-2.828419E-1,-3.7097938E0,5.4545455E-2,5.9683E-1,1.7267537E0,-7.866935E-2,1E0,4.8903827E-2,-7.331699E-2,1.1789182E-1,-4.6401014E0,-1.2619575E0,-2.1774929E-2,2.6065722E-2,3.1338897E-2,8.278036E-2,-1.0101526E0,-1.2384195E0,1.3993285E0,-3.1437278E-1,-6.198339E-1,7.158399E-4,-1.7559524E0,-1.4452617E-1,3.0555555E-1,-1.4549339E-2,3.1338897E-2,-3.4060916E-1,-4.0388784E-1,-3.9062674E0,-2.9256222E-1,-5.2584253E-2,9.75E-1,4.2646214E-2,-4.5586452E-1,0E0,3.5897437E-1,4.8174173E-1,-3.697415E-1,0E0,1.0237032E-2,-5.5613108E-2,1.27686905E-2,-2.4493532E-2,-5.8843647E-3,3.394386E-2,-1.1504388E-3,-2.9055536E-2,7.032633E-2,-8.929299E-3,-4.185162E-2,-3.6143262E-3,5.1344264E-2,-1.3950474E-2,2.039288E-2,-3.8150694E-2,6.3284114E-2,-2.154954E-3,-1.0495535E-2,4.435427E-2,-4.8345044E-2,2.1959614E-2,7.405939E-2,3.0466659E-2,-5.5173684E-2,1.5258302E-2,2.5284326E-2,-1.8011335E-2,1.2375694E-2,2.829573E-2,-1.7906845E-2,4.3645546E-2,-5.966998E-3,-6.549777E-2,-2.0574667E-2,-4.800162E-2,-7.158655E-3,5.126057E-2,6.8141304E-2,7.177794E-3,1.08973095E-2,-3.279781E-2,4.540389E-3,-1.52985295E-2,3.2559123E-2,-1.2474316E-2,-4.769985E-2,1.455611E-2,-1.3643478E-2,3.984799E-2],"split_indices":[56,127,127,102,135,131,135,62,61,59,15,102,89,67,14,15,93,52,126,102,118,93,14,34,131,61,132,0,8,118,15,0,102,37,60,0,0,0,0,89,131,93,131,90,8,60,92,61,0,0,57,34,37,24,1,102,15,28,90,62,4,89,10,0,0,0,0,0,0,0,0,0,0,0,0,0,0,0,0,0,0,0,0,0,0,0,0,0,0,0,0,0,0,0,0,0,0,0,0,0,0,0,0,0,0,0,0,0,0,0,0,0,0],"split_type":[0,0,0,0,0,0,0,0,0,0,0,0,0,0,0,0,0,0,0,0,0,0,0,0,0,0,0,0,0,0,0,0,0,0,0,0,0,0,0,0,0,0,0,0,0,0,0,0,0,0,0,0,0,0,0,0,0,0,0,0,0,0,0,0,0,0,0,0,0,0,0,0,0,0,0,0,0,0,0,0,0,0,0,0,0,0,0,0,0,0,0,0,0,0,0,0,0,0,0,0,0,0,0,0,0,0,0,0,0,0,0,0,0],"sum_hessian":[2.7202988E3,7.3610394E2,1.9841948E3,1.8586502E2,5.502389E2,4.4627222E2,1.5379227E3,1.6796509E2,1.789993E1,4.7962003E2,7.06189E1,6.5714806E1,3.805574E2,4.6073926E2,1.0771833E3,1.2750634E1,1.5521445E2,7.110931E0,1.0788999E1,1.8709103E2,2.92529E2,2.6236883E1,4.4382015E1,5.1492947E1,1.4221862E1,3.653547E2,1.520268E1,3.4892603E2,1.11813255E2,8.371282E2,2.400552E2,5.3944993E0,7.3561354E0,9.366812E1,6.1546333E1,3.4328632E0,3.6780677E0,5.149295E0,5.6397038E0,1.5889252E2,2.8198519E1,2.5795514E2,3.4573837E1,1.8880747E1,7.3561354E0,2.991495E1,1.4467066E1,4.781488E1,3.6780677E0,5.149295E0,9.072567E0,4.560804E1,3.1974667E2,6.6205215E0,8.582158E0,3.315165E2,1.740952E1,4.6588856E1,6.5224396E1,6.696535E2,1.6747469E2,2.3784838E1,2.1627037E2,3.9232721E0,3.4328632E0,3.1631382E1,6.203674E1,2.8198519E1,3.3347813E1,5.1983356E1,1.06909164E2,7.110931E0,2.1087587E1,2.3588673E2,2.2068405E1,3.1876585E0,3.1386177E1,3.9232721E0,1.4957475E1,3.1876585E0,4.1684766E0,3.4328632E0,2.6482086E1,5.149295E0,9.317771E0,3.1631382E1,1.6183498E1,4.90409E0,4.1684766E0,1.520268E1,3.040536E1,1.2456389E2,1.9518279E2,3.1876585E0,3.4328632E0,3.1876585E0,5.3944993E0,2.92529E2,3.898752E1,8.827362E0,8.582158E0,8.827362E0,3.7761494E1,2.8198519E1,3.702588E1,4.680954E2,2.015581E2,1.2677073E2,4.070395E1,1.12794075E1,1.250543E1,1.1034203E1,2.0523618E2],"tree_param":{"num_deleted":"0","num_feature":"138","num_nodes":"113","size_leaf_vector":"1"}},{"base_weights":[-1.4829353E-3,-3.2406455E-1,1.22813076E-1,-3.597248E-2,-4.2242777E-1,-1.6143613E-1,2.5832558E-1,2.9769647E-1,-1.9204032E-1,-5.10842E-1,1.4922453E-1,-2.2868727E-1,5.103873E-1,2.9189438E-1,-8.9432293E-1,-2.6045885E-2,6.358985E-1,-4.4547558E-1,1.7964955E-1,-1.1890585E-1,-5.7186645E-1,3.2795683E-1,-5.5812246E-1,2.4383694E-1,-3.3687574E-1,-1.3177751E-1,1.153583E0,2.35044E-1,8.2240605E-1,-1.1114743E0,-0E0,-4.4854057E-1,5.6094164E-1,8.581655E-2,4.072256E-2,-5.698016E-1,4.6028566E-1,-2.6036188E-1,6.130278E-1,-4.429288E-1,7.534829E-1,-9.7737515E-1,-5.14299E-1,-1.9409728E-1,5.304437E-1,-9.387126E-1,8.830569E-4,1.002234E0,2.3063164E-2,-2.6469302E-1,-8.1052965E-1,4.2544803E-1,-5.6236017E-1,1.4381771E0,-3.5811309E-3,1.7926301E-1,5.0452733E-1,8.840213E-1,-3.427662E-2,-9.71161E-3,-1.2644857E0,4.4298876E-2,-5.3676773E-2,-3.5849094E-5,-4.921002E-2,5.642262E-2,-1.6509576E-2,-2.3820965E-2,2.7546762E-2,-5.0346434E-2,-1.4483561E-2,-9.959412E-3,7.282036E-2,2.562447E-3,-5.172925E-2,5.3525377E-2,-2.8962249E-2,-3.351682E-2,7.226683E-3,7.8084394E-2,2.2145442E-3,-5.496337E-2,1.54732345E-2,-4.297009E-2,-2.1319894E-2,-2.6102275E-2,3.4786504E-2,3.7430037E-2,-2.1608213E-2,-6.2271472E-2,-1.8831102E-2,-1.31789325E-2,6.414113E-2,1.0244654E-2,-2.2155777E-2,-1.5257965E-2,2.8870849E-2,-1.4448506E-2,-5.0862323E-2,6.1412025E-2,-1.7137E-2,4.9258103E-3,-5.056965E-2,8.3794184E-2,4.2539444E-3,2.1728257E-2,4.259451E-3,5.7262894E-2,2.0407267E-2,3.0566687E-2,6.379622E-2,-7.0294134E-2,-1.4938599E-2],"categories":[],"categories_nodes":[],"categories_segments":[],"categories_sizes":[],"default_left":[0,0,0,0,0,0,0,0,0,0,0,0,0,0,0,0,0,0,0,0,0,0,0,0,0,0,0,0,0,0,0,0,0,0,0,0,0,0,0,0,0,0,0,0,0,0,0,0,0,0,0,0,0,0,0,0,0,0,0,0,0,0,0,0,0,0,0,0,0,0,0,0,0,0,0,0,0,0,0,0,0,0,0,0,0,0,0,0,0,0,0,0,0,0,0,0,0,0,0,0,0,0,0,0,0,0,0,0,0,0,0,0,0],"id":1,"left_children":[1,3,5,7,9,11,13,15,17,19,21,23,25,27,29,31,33,35,37,39,41,43,45,47,49,51,53,55,57,59,61,63,65,-1,67,69,71,73,75,77,79,81,83,85,87,89,-1,91,93,95,97,99,101,103,-1,105,107,109,-1,-1,111,-1,-1,-1,-1,-1,-1,-1,-1,-1,-1,-1,-1,-1,-1,-1,-1,-1,-1,-1,-1,-1,-1,-1,-1,-1,-1,-1,-1,-1,-1,-1,-1,-1,-1,-1,-1,-1,-1,-1,-1,-1,-1,-1,-1,-1,-1,-1,-1,-1,-1,-1,-1],"loss_changes":[1.0975123E2,2.151603E1,7.613924E1,1.0209325E1,2.878357E1,2.8917238E1,5.198149E1,6.9074984E0,1.270822E1,1.1622406E1,9.845131E0,2.9784838E1,2.4307327E1,3.8945198E1,7.479458E0,8.345138E0,1.949522E1,9.280704E0,1.0642375E1,1.9445951E1,9.268082E0,6.6797E0,3.5512881E0,1.8060999E1,1.585709E1,7.4413915E0,1.0447216E1,1.7531471E1,1.2274521E1,3.9141083E0,8.882024E0,4.6163063E0,7.544236E0,0E0,5.778796E0,8.257887E0,7.057416E0,6.8517876E0,1.5949398E1,6.8417406E0,1.0447136E1,8.497292E0,1.0863655E1,5.567168E0,9.806157E0,1.0205431E0,0E0,9.09376E0,7.293616E0,1.4199181E1,6.2504044E0,8.851997E0,5.3641624E0,7.358822E0,0E0,2.337291E1,1.1787643E1,1.1957008E1,0E0,0E0,2.9620857E0,0E0,0E0,0E0,0E0,0E0,0E0,0E0,0E0,0E0,0E0,0E0,0E0,0E0,0E0,0E0,0E0,0E0,0E0,0E0,0E0,0E0,0E0,0E0,0E0,0E0,0E0,0E0,0E0,0E0,0E0,0E0,0E0,0E0,0E0,0E0,0E0,0E0,0E0,0E0,0E0,0E0,0E0,0E0,0E0,0E0,0E0,0E0,0E0,0E0,0E0,0E0,0E0],"parents":[2147483647,0,0,1,1,2,2,3,3,4,4,5,5,6,6,7,7,8,8,9,9,10,10,11,11,12,12,13,13,14,14,15,15,16,16,17,17,18,18,19,19,20,20,21,21,22,22,23,23,24,24,25,25,26,26,27,27,28,28,29,29,30,30,31,31,32,32,34,34,35,35,36,36,37,37,38,38,39,39,40,40,41,41,42,42,43,43,44,44,45,45,47,47,48,48,49,49,50,50,51,51,52,52,53,53,55,55,56,56,57,57,60,60],"right_children":[2,4,6,8,10,12,14,16,18,20,22,24,26,28,30,32,34,36,38,40,42,44,46,48,50,52,54,56,58,60,62,64,66,-1,68,70,72,74,76,78,80,82,84,86,88,90,-1,92,94,96,98,100,102,104,-1,106,108,110,-1,-1,112,-1,-1,-1,-1,-1,-1,-1,-1,-1,-1,-1,-1,-1,-1,-1,-1,-1,-1,-1,-1,-1,-1,-1,-1,-1,-1,-1,-1,-1,-1,-1,-1,-1,-1,-1,-1,-1,-1,-1,-1,-1,-1,-1,-1,-1,-1,-1,-1,-1,-1,-1,-1],"split_conditions":[7.175838E-3,-1.7361455E-1,1.479529E0,-4.8613048E0,4.781339E0,3.3433402E0,1E0,1.0818308E-1,7.5566286E-1,5.214E-1,-5.3731346E-1,8.347641E-1,1.3155398E0,2.0458317E0,4.7435555E0,9.520285E-2,-1.6216049E-1,9.5208335E-1,4.589052E0,3.2880544E-3,1.0401041E-2,1.814457E-2,1E0,-3.1590343E-1,5.0931674E-1,-4.0817782E-1,3.6697248E-1,4.940386E-1,1E0,-7.801167E-1,3.739367E-1,-6.8521535E-1,1.1208792E0,8.581655E-2,6.3644224E-1,0E0,5.796775E-1,4.070513E-1,3.153195E-2,5.163E-1,-5.490711E-1,1.3993285E0,-1.8168052E0,1.67311E-1,1.858505E0,1.0957004E-1,8.830569E-4,-1.2010307E0,9.458333E-1,4.6079154E0,-8.3421636E-1,2.1509434E-1,9.893918E-1,1.5603898E0,-3.5811309E-3,-1.5730354E0,5.27575E-1,1.9727321E0,-3.427662E-2,-9.71161E-3,1.2000585E0,4.4298876E-2,-5.3676773E-2,-3.5849094E-5,-4.921002E-2,5.642262E-2,-1.6509576E-2,-2.3820965E-2,2.7546762E-2,-5.0346434E-2,-1.4483561E-2,-9.959412E-3,7.282036E-2,2.562447E-3,-5.172925E-2,5.3525377E-2,-2.8962249E-2,-3.351682E-2,7.226683E-3,7.8084394E-2,2.2145442E-3,-5.496337E-2,1.54732345E-2,-4.297009E-2,-2.1319894E-2,-2.6102275E-2,3.4786504E-2,3.7430037E-2,-2.1608213E-2,-6.2271472E-2,-1.8831102E-2,-1.31789325E-2,6.414113E-2,1.0244654E-2,-2.2155777E-2,-1.5257965E-2,2.8870849E-2,-1.4448506E-2,-5.0862323E-2,6.1412025E-2,-1.7137E-2,4.9258103E-3,-5.056965E-2,8.3794184E-2,4.2539444E-3,2.1728257E-2,4.259451E-3,5.7262894E-2,2.0407267E-2,3.0566687E-2,6.379622E-2,-7.0294134E-2,-1.4938599E-2],"split_indices":[56,127,134,37,135,135,113,102,93,54,60,135,43,14,7,24,1,102,37,11,15,15,65,3,61,36,57,58,114,34,2,5,55,0,26,88,36,61,8,54,130,93,5,57,16,102,0,24,102,43,16,62,14,33,0,130,2,134,0,0,16,0,0,0,0,0,0,0,0,0,0,0,0,0,0,0,0,0,0,0,0,0,0,0,0,0,0,0,0,0,0,0,0,0,0,0,0,0,0,0,0,0,0,0,0,0,0,0,0,0,0,0,0],"split_type":[0,0,0,0,0,0,0,0,0,0,0,0,0,0,0,0,0,0,0,0,0,0,0,0,0,0,0,0,0,0,0,0,0,0,0,0,0,0,0,0,0,0,0,0,0,0,0,0,0,0,0,0,0,0,0,0,0,0,0,0,0,0,0,0,0,0,0,0,0,0,0,0,0,0,0,0,0,0,0,0,0,0,0,0,0,0,0,0,0,0,0,0,0,0,0,0,0,0,0,0,0,0,0,0,0,0,0,0,0,0,0,0,0],"sum_hessian":[2.7347437E3,7.604273E2,1.9743163E3,1.941555E2,5.6627185E2,6.3707245E2,1.3372438E3,6.1379505E1,1.3277599E2,4.9066476E2,7.560707E1,5.798377E2,5.723471E1,1.300211E3,3.703276E1,3.168065E1,2.9698854E1,7.898851E1,5.378748E1,6.672207E1,4.239427E2,6.0897285E1,1.4709784E1,1.0761966E2,4.7221808E2,2.8960388E1,2.8274323E1,1.1758381E3,1.243729E2,2.967779E1,7.354973E0,1.8657677E1,1.3022973E1,9.820247E0,1.9878607E1,6.987825E1,9.110265E0,2.6773088E1,2.7014389E1,4.909434E1,1.762773E1,5.050034E1,3.7344235E2,1.6892475E1,4.400481E1,8.581084E0,6.1287E0,2.3364807E1,8.425485E1,4.1130673E2,6.0911327E1,1.2527711E1,1.6432678E1,2.2869846E1,5.4044766E0,9.758756E2,1.9996251E2,1.19951675E2,4.421221E0,4.6608424E0,2.5016947E1,4.1680694E0,3.1869035E0,1.0809073E1,7.8486037E0,7.862017E0,5.1609554E0,9.807822E0,1.0070785E1,2.6138763E1,4.3739487E1,5.902326E0,3.2079387E0,1.966352E1,7.109568E0,1.9657667E1,7.3567214E0,3.5414494E1,1.367985E1,7.611027E0,1.0016703E1,4.6334873E1,4.165465E0,7.379724E1,2.996451E2,1.2727442E1,4.165033E0,3.6140457E1,7.8643503E0,4.6500616E0,3.9310224E0,4.1857896E0,1.9179018E1,6.1170643E1,2.308421E1,3.9316995E2,1.8136791E1,1.8107254E1,4.2804073E1,5.89669E0,6.631021E0,6.8738303E0,9.558847E0,1.9186745E1,3.6831024E0,2.6150623E2,7.143694E2,2.4587717E1,1.753748E2,7.2394455E1,4.7557224E1,2.1333946E1,3.683E0],"tree_param":{"num_deleted":"0","num_feature":"138","num_nodes":"113","size_leaf_vector":"1"}},{"base_weights":[-2.5786792E-3,-3.5779467E-1,1.0564967E-1,-3.835553E-2,-4.6978515E-1,1.39025E-1,-6.6583294E-1,-9.265272E-2,6.8202905E-2,-5.5795056E-1,2.427535E-1,1.73387E-1,-4.8815608E-1,2.6137063E-1,-7.689382E-1,-4.842808E-1,2.3736803E-2,-6.2136257E-1,-1.546317E-1,-4.0167642E-1,4.8418432E-1,1.05935834E-1,4.8373777E-1,3.977206E-2,-5.640048E-1,4.5482256E-2,-3.199957E-2,-3.5546333E-1,-9.2446995E-1,3.5950836E-2,-6.950823E-1,-4.401644E-1,1.8151958E-1,-7.9338E-1,-4.491112E-1,-8.736397E-1,1.4746861E-1,1.8792853E-2,-9.030842E-1,1.0694529E0,-4.4255696E-2,3.2377207E-1,2.8597958E-2,1.7204955E-1,6.5553737E-1,-6.932588E-1,-1.6609918E-1,-8.518208E-1,6.203914E-1,-1.2964599E0,-5.36372E-1,3.221522E-2,-3.4875035E-2,-5.2385032E-2,-2.3185308E-3,-5.058835E-2,-4.2467164E-3,-4.0840863E-5,3.4136113E-2,-3.243914E-2,-5.476541E-2,3.897455E-2,-2.4376046E-2,1.1559942E-2,-5.8184143E-2,-7.876254E-3,7.3106095E-2,-6.3996874E-2,-5.493338E-3,-6.910898E-3,6.688425E-2,-4.3173004E-2,1.9027682E-2,-5.225045E-3,1.9658657E-2,-1.1969218E-2,6.4892457E-3,3.265271E-2,-1.2975678E-2,4.578368E-2,1.5961256E-2,-1.3168327E-2,-4.7240548E-2,-2.78343E-2,4.1151106E-2,-8.832072E-4,-5.6869496E-2,-1.6562216E-2,6.444909E-2,-1.693875E-2,-7.011127E-2,1.3877608E-2,-4.379638E-2],"categories":[],"categories_nodes":[],"categories_segments":[],"categories_sizes":[],"default_left":[0,0,0,0,0,0,0,0,0,0,0,0,0,0,0,0,0,0,0,0,0,0,0,0,0,0,0,0,0,0,0,0,0,0,0,0,0,0,0,0,0,0,0,0,0,0,0,0,0,0,0,0,0,0,0,0,0,0,0,0,0,0,0,0,0,0,0,0,0,0,0,0,0,0,0,0,0,0,0,0,0,0,0,0,0,0,0,0,0,0,0,0,0],"id":2,"left_children":[1,3,5,7,9,11,13,15,-1,17,19,21,23,25,27,29,31,33,35,37,39,41,43,-1,45,-1,-1,47,49,51,53,55,57,59,61,63,65,-1,67,69,71,73,75,77,79,81,83,85,87,89,91,-1,-1,-1,-1,-1,-1,-1,-1,-1,-1,-1,-1,-1,-1,-1,-1,-1,-1,-1,-1,-1,-1,-1,-1,-1,-1,-1,-1,-1,-1,-1,-1,-1,-1,-1,-1,-1,-1,-1,-1,-1,-1],"loss_changes":[1.04638466E2,2.267231E1,5.373796E1,1.2664956E1,2.9715218E1,4.3154625E1,8.523773E0,7.4024167E0,0E0,1.0542145E1,8.349581E0,3.9599903E1,1.0550171E1,6.0482526E0,4.573578E0,4.1661825E0,9.201756E0,1.0231369E1,1.29022E1,6.124863E0,1.2105998E1,2.6233997E1,1.791066E1,0E0,4.882841E0,0E0,0E0,1.1779834E1,7.211567E0,5.5886593E0,5.933831E0,6.271552E0,8.670718E0,6.9423294E0,8.997601E0,5.983468E0,1.7173096E1,0E0,2.5039034E0,6.288679E0,7.7496657E0,1.2204281E1,3.1273834E1,2.5474276E1,1.8605522E1,7.6444016E0,1.0376508E1,3.6411667E0,5.820293E0,2.1642838E0,8.3903885E0,0E0,0E0,0E0,0E0,0E0,0E0,0E0,0E0,0E0,0E0,0E0,0E0,0E0,0E0,0E0,0E0,0E0,0E0,0E0,0E0,0E0,0E0,0E0,0E0,0E0,0E0,0E0,0E0,0E0,0E0,0E0,0E0,0E0,0E0,0E0,0E0,0E0,0E0,0E0,0E0,0E0,0E0],"parents":[2147483647,0,0,1,1,2,2,3,3,4,4,5,5,6,6,7,7,9,9,10,10,11,11,12,12,13,13,14,14,15,15,16,16,17,17,18,18,19,19,20,20,21,21,22,22,24,24,27,27,28,28,29,29,30,30,31,31,32,32,33,33,34,34,35,35,36,36,38,38,39,39,40,40,41,41,42,42,43,43,44,44,45,45,46,46,47,47,48,48,49,49,50,50],"right_children":[2,4,6,8,10,12,14,16,-1,18,20,22,24,26,28,30,32,34,36,38,40,42,44,-1,46,-1,-1,48,50,52,54,56,58,60,62,64,66,-1,68,70,72,74,76,78,80,82,84,86,88,90,92,-1,-1,-1,-1,-1,-1,-1,-1,-1,-1,-1,-1,-1,-1,-1,-1,-1,-1,-1,-1,-1,-1,-1,-1,-1,-1,-1,-1,-1,-1,-1,-1,-1,-1,-1,-1,-1,-1,-1,-1,-1,-1],"split_conditions":[6.7402087E-3,-1.7361455E-1,1E0,9.7152776E-1,5E0,1E0,-2.0848615E-1,9.9699974E-2,6.8202905E-2,9.479167E-1,4.6463244E-2,8.2675315E-2,-4.5213184E0,1.7059639E-1,-2.7047846E-1,1.440678E-1,-3.4312677E0,5.549117E-1,1E0,9.450579E-4,-8.78163E-2,-1.7361455E-1,2.870081E0,3.977206E-2,2.3410827E-2,4.5482256E-2,-3.199957E-2,-4.7211945E-2,3.9399926E-2,1E0,3.7183228E0,-1.9289947E-1,1.8525E-5,2.877352E-3,2.6779496E-3,5.4545455E-2,1.4120976E0,1.8792853E-2,2.847806E-1,-1.2825779E0,-4.276616E-1,2.2625381E-2,2.9552531E0,-3.7849736E-1,1.6712898E-1,-3.8840783E-1,9.305321E-1,1.8636416E0,2.9351968E-2,-1.0025845E-2,1.2977631E-1,3.221522E-2,-3.4875035E-2,-5.2385032E-2,-2.3185308E-3,-5.058835E-2,-4.2467164E-3,-4.0840863E-5,3.4136113E-2,-3.243914E-2,-5.476541E-2,3.897455E-2,-2.4376046E-2,1.1559942E-2,-5.8184143E-2,-7.876254E-3,7.3106095E-2,-6.3996874E-2,-5.493338E-3,-6.910898E-3,6.688425E-2,-4.3173004E-2,1.9027682E-2,-5.225045E-3,1.9658657E-2,-1.1969218E-2,6.4892457E-3,3.265271E-2,-1.2975678E-2,4.578368E-2,1.5961256E-2,-1.3168327E-2,-4.7240548E-2,-2.78343E-2,4.1151106E-2,-8.832072E-4,-5.6869496E-2,-1.6562216E-2,6.444909E-2,-1.693875E-2,-7.011127E-2,1.3877608E-2,-4.379638E-2],"split_indices":[56,127,113,102,135,114,9,62,0,102,102,15,51,102,131,61,6,14,125,6,28,127,135,0,9,0,0,59,131,99,37,4,9,9,11,61,92,0,58,92,92,15,135,127,102,4,92,135,15,9,131,0,0,0,0,0,0,0,0,0,0,0,0,0,0,0,0,0,0,0,0,0,0,0,0,0,0,0,0,0,0,0,0,0,0,0,0,0,0,0,0,0,0],"split_type":[0,0,0,0,0,0,0,0,0,0,0,0,0,0,0,0,0,0,0,0,0,0,0,0,0,0,0,0,0,0,0,0,0,0,0,0,0,0,0,0,0,0,0,0,0,0,0,0,0,0,0,0,0,0,0,0,0,0,0,0,0,0,0,0,0,0,0,0,0,0,0,0,0,0,0,0,0,0,0,0,0,0,0,0,0,0,0,0,0,0,0,0,0],"sum_hessian":[2.7191711E3,6.346864E2,2.0844846E3,1.6533212E2,4.6935428E2,1.9989567E3,8.5528015E1,1.6013733E2,5.1947923E0,4.179917E2,5.1362576E1,1.8959635E3,1.0299307E2,8.308306E0,7.721971E1,3.6160984E1,1.2397635E2,3.6052017E2,5.7471523E1,1.3704483E1,3.7658092E1,1.5588328E3,3.371308E2,5.1434913E0,9.784959E1,4.8917975E0,3.4165082E0,2.2180962E1,5.503875E1,1.052981E1,2.5631176E1,3.0850002E1,9.312635E1,1.782879E2,1.8223227E2,1.6541464E1,4.093006E1,5.3928084E0,8.311674E0,1.7472282E1,2.0185812E1,4.0725244E2,1.1515803E3,1.20712E2,2.164188E2,7.310792E1,2.4741663E1,1.4854809E1,7.3261533E0,2.6775936E1,2.8262812E1,5.896723E0,4.633087E0,1.610683E1,9.5243435E0,1.1007717E1,1.9842285E1,6.887032E1,2.4256023E1,1.2290642E2,5.538149E1,4.8605757E0,1.7737169E2,3.4100256E0,1.3131437E1,3.3875263E1,7.0547976E0,5.133233E0,3.178441E0,3.1957662E0,1.4276516E1,6.620884E0,1.3564928E1,5.652023E1,3.507322E2,3.149956E2,8.365847E2,5.6952873E1,6.3759125E1,1.2089044E2,9.552835E1,2.7889833E1,4.5218086E1,1.8123356E1,6.6183076E0,4.148611E0,1.0706198E1,3.1696444E0,4.156509E0,3.1750505E0,2.3600885E1,8.286924E0,1.9975887E1],"tree_param":{"num_deleted":"0","num_feature":"138","num_nodes":"93","size_leaf_vector":"1"}},{"base_weights":[8.01669E-3,-2.9254416E-1,1.2878577E-1,-3.5277054E-1,2.5281593E-1,-1.5485676E-1,2.6187372E-1,5.7514096E-3,-5.012505E-1,4.2882252E-1,-5.000036E-1,-2.4359521E-1,2.4300401E-1,2.9427066E-1,-8.852423E-1,-8.6139345E-1,5.478256E-2,-3.821878E-1,-7.13166E-1,-4.6786225E-1,5.554029E-1,2.1861196E-2,-1.0383326E0,1.3438076E-2,-3.7761605E-1,4.5168546E-1,-6.5331733E-1,1.9986245E-1,6.369019E-1,-3.3887634E-1,-1.1617677E0,8.7348325E-4,-7.3284835E-2,8.115719E-1,-1.9187925E-2,-4.0652418E-1,4.347178E-2,-7.554187E-1,2.2190917E-2,9.794374E-3,-5.6100577E-2,2.8262287E-1,9.6899104E-1,-6.48737E-2,-1.953387E-2,2.3159431E-1,-2.884827E-1,4.0523656E-2,-4.8890388E-1,2.8620502E-1,1.531034E0,2.5385404E-2,-9.6173453E-1,4.2710754E-1,1.1220507E-1,5.1826274E-1,1.2717264E0,-8.2271594E-1,2.2180295E-2,-1.3021598E0,-1.6758028E-2,6.411278E-2,-4.4376156E-4,-1.9131327E-2,4.700356E-3,-2.9491618E-2,-1.3404228E-2,-5.018297E-2,-2.690483E-2,2.5246268E-2,-3.3165958E-2,2.3306934E-2,8.546993E-2,-1.5622909E-2,2.2625634E-2,-4.3114834E-2,-1.5240827E-3,1.0063776E-2,-4.3182842E-2,-3.5624325E-2,-1.5795402E-2,-3.87873E-2,2.4446344E-2,4.5859027E-3,1.0124405E-1,-6.819381E-2,-1.8357283E-2,2.5122631E-2,-4.869779E-3,-1.07164215E-2,9.272101E-3,4.0828224E-2,1.4418758E-2,2.6974222E-3,7.1786046E-2,-6.516624E-2,-1.1724706E-2,-7.019771E-2,-2.9959014E-2],"categories":[],"categories_nodes":[],"categories_segments":[],"categories_sizes":[],"default_left":[0,0,0,0,0,0,0,0,0,0,0,0,0,0,0,0,0,0,0,0,0,0,0,0,0,0,0,0,0,0,0,0,0,0,0,0,0,0,0,0,0,0,0,0,0,0,0,0,0,0,0,0,0,0,0,0,0,0,0,0,0,0,0,0,0,0,0,0,0,0,0,0,0,0,0,0,0,0,0,0,0,0,0,0,0,0,0,0,0,0,0,0,0,0,0,0,0,0,0],"id":3,"left_children":[1,3,5,7,9,11,13,15,17,19,21,23,25,27,29,31,33,35,37,39,41,-1,43,45,47,49,51,53,55,57,59,-1,-1,61,63,65,-1,67,-1,-1,-1,69,71,-1,-1,73,75,77,79,81,83,-1,85,87,89,91,93,95,-1,97,-1,-1,-1,-1,-1,-1,-1,-1,-1,-1,-1,-1,-1,-1,-1,-1,-1,-1,-1,-1,-1,-1,-1,-1,-1,-1,-1,-1,-1,-1,-1,-1,-1,-1,-1,-1,-1,-1,-1],"loss_changes":[9.8985374E1,2.5769493E1,7.3505615E1,3.755069E1,1.056151E1,2.2012833E1,4.9443398E1,8.771183E0,1.2191315E1,7.5307856E0,8.163815E0,1.7579708E1,2.1540602E1,4.1499664E1,4.979624E0,6.030183E0,1.1125781E1,1.0100689E1,9.058647E0,3.9421675E0,5.9890633E0,0E0,1.0016985E0,1.1600523E1,1.5650185E1,1.5973616E1,8.335979E0,2.0068947E1,2.0089066E1,5.6344795E0,2.154831E0,0E0,0E0,6.9696484E0,7.484861E0,7.7790375E0,0E0,8.584595E0,0E0,0E0,0E0,7.8213983E0,7.156397E0,0E0,0E0,1.2469379E1,1.0801555E1,1.044741E1,9.913895E0,1.7974207E1,8.160509E0,0E0,3.5415344E0,1.1202053E1,1.7551865E1,1.5833153E1,8.347282E0,2.0758734E0,0E0,3.7843704E-1,0E0,0E0,0E0,0E0,0E0,0E0,0E0,0E0,0E0,0E0,0E0,0E0,0E0,0E0,0E0,0E0,0E0,0E0,0E0,0E0,0E0,0E0,0E0,0E0,0E0,0E0,0E0,0E0,0E0,0E0,0E0,0E0,0E0,0E0,0E0,0E0,0E0,0E0,0E0],"parents":[2147483647,0,0,1,1,2,2,3,3,4,4,5,5,6,6,7,7,8,8,9,9,10,10,11,11,12,12,13,13,14,14,15,15,16,16,17,17,18,18,19,19,20,20,22,22,23,23,24,24,25,25,26,26,27,27,28,28,29,29,30,30,33,33,34,34,35,35,37,37,41,41,42,42,45,45,46,46,47,47,48,48,49,49,50,50,52,52,53,53,54,54,55,55,56,56,57,57,59,59],"right_children":[2,4,6,8,10,12,14,16,18,20,22,24,26,28,30,32,34,36,38,40,42,-1,44,46,48,50,52,54,56,58,60,-1,-1,62,64,66,-1,68,-1,-1,-1,70,72,-1,-1,74,76,78,80,82,84,-1,86,88,90,92,94,96,-1,98,-1,-1,-1,-1,-1,-1,-1,-1,-1,-1,-1,-1,-1,-1,-1,-1,-1,-1,-1,-1,-1,-1,-1,-1,-1,-1,-1,-1,-1,-1,-1,-1,-1,-1,-1,-1,-1,-1,-1],"split_conditions":[7.21382E-1,4.781339E0,1.479529E0,-5.9952043E-15,-5.3731346E-1,6.367738E-1,1E0,-6.243845E-1,4.3306828E0,-2.5752888E0,-3.697415E-1,-8.5936934E-1,1.7784026E0,1.5418792E-2,9.74406E-1,-4.9498234E0,-1.0874811E0,1.6846325E0,2.2190766E0,2.0051503E0,-1.0434783E0,2.1861196E-2,2.5793696E-2,4.5200534E0,-3.3333334E-1,3.857066E-2,8.0822045E-1,2.6665695E0,2.933995E0,3.3599716E-2,3.37981E-1,8.7348325E-4,-7.3284835E-2,-3.9125855E0,4.8555693E-1,5.6223846E-3,4.347178E-2,-7.1428573E-1,2.2190917E-2,9.794374E-3,-5.6100577E-2,2.0838103E0,7.1428573E-1,-6.48737E-2,-1.953387E-2,1.4702537E0,-1.1342456E0,3.857066E-2,4.8628923E-1,-4.699518E-3,2.3157177E0,2.5385404E-2,4.252277E0,1.379894E0,-7.170108E-1,-1.2603891E0,-5.283142E-2,1.388889E-1,2.2180295E-2,2.1315951E0,-1.6758028E-2,6.411278E-2,-4.4376156E-4,-1.9131327E-2,4.700356E-3,-2.9491618E-2,-1.3404228E-2,-5.018297E-2,-2.690483E-2,2.5246268E-2,-3.3165958E-2,2.3306934E-2,8.546993E-2,-1.5622909E-2,2.2625634E-2,-4.3114834E-2,-1.5240827E-3,1.0063776E-2,-4.3182842E-2,-3.5624325E-2,-1.5795402E-2,-3.87873E-2,2.4446344E-2,4.5859027E-3,1.0124405E-1,-6.819381E-2,-1.8357283E-2,2.5122631E-2,-4.869779E-3,-1.07164215E-2,9.272101E-3,4.0828224E-2,1.4418758E-2,2.6974222E-3,7.1786046E-2,-6.516624E-2,-1.1724706E-2,-7.019771E-2,-2.9959014E-2],"split_indices":[14,135,134,127,60,24,113,3,7,38,89,50,17,56,14,37,131,28,46,37,60,0,15,37,126,9,24,135,134,15,36,0,0,8,14,56,0,89,0,0,0,46,95,0,0,13,130,9,52,8,38,0,38,89,36,130,9,62,0,5,0,0,0,0,0,0,0,0,0,0,0,0,0,0,0,0,0,0,0,0,0,0,0,0,0,0,0,0,0,0,0,0,0,0,0,0,0,0,0],"split_type":[0,0,0,0,0,0,0,0,0,0,0,0,0,0,0,0,0,0,0,0,0,0,0,0,0,0,0,0,0,0,0,0,0,0,0,0,0,0,0,0,0,0,0,0,0,0,0,0,0,0,0,0,0,0,0,0,0,0,0,0,0,0,0,0,0,0,0,0,0,0,0,0,0,0,0,0,0,0,0,0,0,0,0,0,0,0,0,0,0,0,0,0,0,0,0,0,0,0,0],"sum_hessian":[2.725399E3,7.805574E2,1.9448417E3,7.03413E2,7.714433E1,6.2081665E2,1.324025E3,2.0608498E2,4.9732803E2,6.2982464E1,1.4161867E1,5.0812424E2,1.12692406E2,1.2884667E3,3.5558346E1,1.0033247E1,1.9605173E2,3.2052145E2,1.7680661E2,7.359833E0,5.562263E1,5.16744E0,8.994428E0,1.7419537E2,3.3392886E2,9.190316E1,2.078925E1,1.0116053E3,2.7686142E2,1.2818446E1,2.27399E1,4.4161987E0,5.6170487E0,1.6688868E1,1.7936287E2,3.1514883E2,5.372607E0,1.709954E2,5.8111954E0,3.9249525E0,3.4348803E0,3.467683E1,2.0945799E1,5.5971413E0,3.3972862E0,1.014533E2,7.274207E1,7.013799E1,2.6379086E2,8.0863396E1,1.1039766E1,4.1597204E0,1.6629528E1,2.8019855E2,7.3140674E2,2.3493036E2,4.1931046E1,7.9679375E0,4.8505087E0,1.8843254E1,3.8966465E0,1.0324689E1,6.364178E0,4.2241154E1,1.371217E2,1.338865E2,1.8126233E2,7.791592E1,9.307949E1,2.8541363E1,6.135469E0,1.3524907E1,7.4208913E0,2.9048635E1,7.240467E1,2.1715448E1,5.1026627E1,6.030459E1,9.833402E0,1.1345859E2,1.5033228E2,1.2429896E1,6.8433495E1,3.1748593E0,7.864907E0,9.048029E0,7.5815E0,2.4520714E2,3.4991398E1,1.3338882E2,5.9801794E2,1.0095034E2,1.3398003E2,5.206648E0,3.67244E1,3.622474E0,4.3454633E0,1.5464524E1,3.3787296E0],"tree_param":{"num_deleted":"0","num_feature":"138","num_nodes":"99","size_leaf_vector":"1"}},{"base_weights":[-3.0034047E-3,-1.2832999E-1,2.6830092E-1,1.8410169E-1,-2.255703E-1,-1.7757747E-1,3.9516914E-1,3.1530133E-1,2.4549957E-2,-2.8338566E-1,1.5347376E-1,-2.2415282E-2,-6.0715836E-1,2.3372902E-1,6.062099E-1,1.1802645E-1,5.2894396E-1,3.466546E-1,-1.6427489E-1,1.4369849E-3,-3.951438E-1,2.8032565E-1,-2.9830047E-1,-1.6211663E-1,1.2056253E0,-8.4725535E-1,4.8957187E-1,9.624529E-1,1.7301062E-1,5.054075E-1,1.173445E0,-7.010959E-2,6.47872E-1,5.926054E-1,-4.0092164E-1,-1.3596843E-1,6.89706E-1,-4.926078E-1,1.0909862E-1,-9.5625676E-2,9.08906E-1,-1.7453103E-1,-4.72428E-1,-7.5896937E-1,3.6071944E-1,5.792815E-1,-7.357375E-1,-5.995617E-1,9.342695E-3,5.8818064E-3,1.7012793E0,3.0404297E-1,-1.1152579E0,5.5364978E-2,-1.1772802E-2,-1.55302975E-2,1.1650388E0,9.630839E-2,9.017296E-1,5.6800616E-1,-3.6376855E-1,1.639056E0,8.723987E-1,2.5035549E-2,-1.4876604E-2,-1.9430075E-3,4.0748157E-2,3.954737E-2,1.3559379E-2,1.9525744E-2,-5.629586E-2,-3.2804415E-2,2.1310685E-2,-1.9218726E-2,4.2661857E-2,-9.065365E-3,-4.9694788E-2,1.7130673E-2,-2.4333037E-2,-3.5205208E-2,-1.1343794E-4,6.0474794E-2,5.272058E-3,1.903339E-2,-1.5600842E-2,-2.8778583E-2,-1.2826907E-2,-0E0,-5.5312943E-2,2.5821416E-2,1.3903823E-3,-1.8741785E-2,5.4558408E-2,-4.992481E-2,2.3357369E-2,-3.6076013E-2,2.0546963E-2,-7.905062E-3,2.521122E-2,9.852015E-2,4.5216117E-2,-2.7961452E-2,5.839279E-2,-1.9229902E-2,-6.990892E-2,2.2055205E-2,7.715336E-2,5.661513E-4,3.339324E-2,5.4655343E-2,-5.5421074E-4,-2.2253076E-2,3.0486593E-2,2.9720223E-2,-3.29038E-2,4.0074E-2,9.146215E-2,6.779944E-2,1.6570147E-2],"categories":[],"categories_nodes":[],"categories_segments":[],"categories_sizes":[],"default_left":[0,0,0,0,0,0,0,0,0,0,0,0,0,0,0,0,0,0,0,0,0,0,0,0,0,0,0,0,0,0,0,0,0,0,0,0,0,0,0,0,0,0,0,0,0,0,0,0,0,0,0,0,0,0,0,0,0,0,0,0,0,0,0,0,0,0,0,0,0,0,0,0,0,0,0,0,0,0,0,0,0,0,0,0,0,0,0,0,0,0,0,0,0,0,0,0,0,0,0,0,0,0,0,0,0,0,0,0,0,0,0,0,0,0,0,0,0,0,0],"id":4,"left_children":[1,3,5,7,9,11,13,15,17,19,21,23,25,27,29,31,33,35,37,39,41,43,45,47,49,51,53,55,57,59,61,63,65,67,69,71,73,75,77,79,81,83,85,87,89,91,93,95,97,-1,99,101,103,-1,-1,-1,105,107,109,111,113,115,117,-1,-1,-1,-1,-1,-1,-1,-1,-1,-1,-1,-1,-1,-1,-1,-1,-1,-1,-1,-1,-1,-1,-1,-1,-1,-1,-1,-1,-1,-1,-1,-1,-1,-1,-1,-1,-1,-1,-1,-1,-1,-1,-1,-1,-1,-1,-1,-1,-1,-1,-1,-1,-1,-1,-1,-1],"loss_changes":[9.217951E1,5.640001E1,4.854266E1,9.181278E0,3.1072807E1,1.2603759E1,2.2508461E1,1.0044899E1,1.2254258E1,3.9147827E1,1.0840271E1,2.427546E1,1.3687939E1,1.6531916E1,1.5724251E1,1.2764187E1,7.084362E0,1.2487257E1,1.1466341E1,3.072974E1,1.4901611E1,1.2538081E1,1.6360619E1,9.629461E0,7.407099E0,1.3281551E1,4.641951E0,7.8950253E0,1.9492638E1,1.3650494E1,4.289913E0,1.2395614E1,3.955431E0,6.5931473E0,5.0382485E0,9.564866E0,8.076035E0,8.740942E0,9.862925E0,1.7778858E1,7.884941E0,1.7737339E1,1.4303818E1,2.800756E0,7.056532E0,7.4537396E0,9.429523E0,4.7751026E0,7.774E0,0E0,2.9504776E-2,7.11675E0,6.3324356E0,0E0,0E0,0E0,6.015068E0,1.5458183E1,5.9350586E0,1.0037025E1,5.213192E0,7.333412E-1,6.7436543E0,0E0,0E0,0E0,0E0,0E0,0E0,0E0,0E0,0E0,0E0,0E0,0E0,0E0,0E0,0E0,0E0,0E0,0E0,0E0,0E0,0E0,0E0,0E0,0E0,0E0,0E0,0E0,0E0,0E0,0E0,0E0,0E0,0E0,0E0,0E0,0E0,0E0,0E0,0E0,0E0,0E0,0E0,0E0,0E0,0E0,0E0,0E0,0E0,0E0,0E0,0E0,0E0,0E0,0E0,0E0,0E0],"parents":[2147483647,0,0,1,1,2,2,3,3,4,4,5,5,6,6,7,7,8,8,9,9,10,10,11,11,12,12,13,13,14,14,15,15,16,16,17,17,18,18,19,19,20,20,21,21,22,22,23,23,24,24,25,25,26,26,27,27,28,28,29,29,30,30,31,31,32,32,33,33,34,34,35,35,36,36,37,37,38,38,39,39,40,40,41,41,42,42,43,43,44,44,45,45,46,46,47,47,48,48,50,50,51,51,52,52,56,56,57,57,58,58,59,59,60,60,61,61,62,62],"right_children":[2,4,6,8,10,12,14,16,18,20,22,24,26,28,30,32,34,36,38,40,42,44,46,48,50,52,54,56,58,60,62,64,66,68,70,72,74,76,78,80,82,84,86,88,90,92,94,96,98,-1,100,102,104,-1,-1,-1,106,108,110,112,114,116,118,-1,-1,-1,-1,-1,-1,-1,-1,-1,-1,-1,-1,-1,-1,-1,-1,-1,-1,-1,-1,-1,-1,-1,-1,-1,-1,-1,-1,-1,-1,-1,-1,-1,-1,-1,-1,-1,-1,-1,-1,-1,-1,-1,-1,-1,-1,-1,-1,-1,-1,-1,-1,-1,-1,-1,-1],"split_conditions":[5.125515E-2,1.0183094E0,1.1441798E0,8.9069974E-1,4.867553E0,2.0018708E-2,1.5547505E-2,1E0,-2.865169E-1,-1.0874811E0,6.7233837E-1,8.033343E-1,1.5004042E-1,-1.3053954E0,2.933995E0,4.661021E-1,1.2178041E0,-7.2355956E-2,6.686914E-1,3.4753177E0,-6.198339E-1,-1.8749913E0,1.030001E-1,-2.3629805E-2,7.135114E-1,1.4493759E-1,7.5566286E-1,8.363104E-3,1.0420886E0,9.895833E-1,1.4701803E-1,-3.9373532E-1,1.479529E0,1.4493759E-1,-1.5924601E-1,2.0136108E-1,-9.589716E-1,1.5751423E-1,3.2063658E0,-5.422608E-1,1.4741272E-2,-5.8572394E-1,1.6782247E-1,5.4545455E-2,2.641198E-1,-1.8524916E-1,3.8622476E-2,2.8860028E0,4.651855E0,5.8818064E-3,1.3760437E0,7.5589456E-2,-3.1371614E-1,5.5364978E-2,-1.1772802E-2,-1.55302975E-2,1.592816E-2,1.7142954E0,1.7096052E0,9.873848E-3,8.2675315E-2,-3.2944899E0,1.9412533E0,2.5035549E-2,-1.4876604E-2,-1.9430075E-3,4.0748157E-2,3.954737E-2,1.3559379E-2,1.9525744E-2,-5.629586E-2,-3.2804415E-2,2.1310685E-2,-1.9218726E-2,4.2661857E-2,-9.065365E-3,-4.9694788E-2,1.7130673E-2,-2.4333037E-2,-3.5205208E-2,-1.1343794E-4,6.0474794E-2,5.272058E-3,1.903339E-2,-1.5600842E-2,-2.8778583E-2,-1.2826907E-2,-0E0,-5.5312943E-2,2.5821416E-2,1.3903823E-3,-1.8741785E-2,5.4558408E-2,-4.992481E-2,2.3357369E-2,-3.6076013E-2,2.0546963E-2,-7.905062E-3,2.521122E-2,9.852015E-2,4.5216117E-2,-2.7961452E-2,5.839279E-2,-1.9229902E-2,-6.990892E-2,2.2055205E-2,7.715336E-2,5.661513E-4,3.339324E-2,5.4655343E-2,-5.5421074E-4,-2.2253076E-2,3.0486593E-2,2.9720223E-2,-3.29038E-2,4.0074E-2,9.146215E-2,6.779944E-2,1.6570147E-2],"split_indices":[15,135,134,91,135,56,56,97,131,131,4,36,15,4,134,42,28,93,38,27,90,5,42,9,134,102,93,56,4,102,102,24,134,102,36,27,36,8,132,28,56,34,102,61,28,8,15,131,132,0,36,102,28,0,0,0,6,42,36,11,15,132,132,0,0,0,0,0,0,0,0,0,0,0,0,0,0,0,0,0,0,0,0,0,0,0,0,0,0,0,0,0,0,0,0,0,0,0,0,0,0,0,0,0,0,0,0,0,0,0,0,0,0,0,0,0,0,0,0],"split_type":[0,0,0,0,0,0,0,0,0,0,0,0,0,0,0,0,0,0,0,0,0,0,0,0,0,0,0,0,0,0,0,0,0,0,0,0,0,0,0,0,0,0,0,0,0,0,0,0,0,0,0,0,0,0,0,0,0,0,0,0,0,0,0,0,0,0,0,0,0,0,0,0,0,0,0,0,0,0,0,0,0,0,0,0,0,0,0,0,0,0,0,0,0,0,0,0,0,0,0,0,0,0,0,0,0,0,0,0,0,0,0,0,0,0,0,0,0,0,0],"sum_hessian":[2.7094304E3,1.853923E3,8.5550745E2,4.3959363E2,1.4143293E3,1.89239E2,6.6626843E2,2.4035027E2,1.9924336E2,1.2276005E3,1.8672896E2,1.3996823E2,4.9270767E1,3.789579E2,2.8731055E2,1.2601247E2,1.143378E2,7.352144E1,1.2572193E2,3.45969E2,8.816314E2,1.462616E2,4.0467358E1,1.2652431E2,1.3443932E1,4.0683056E1,8.587711E0,2.7877888E1,3.5108E2,2.4571266E2,4.159788E1,9.349387E1,3.2518593E1,1.0745158E2,6.886225E0,3.0676397E1,4.284504E1,5.6921135E1,6.88008E1,3.1324844E2,3.272055E1,2.29905E2,6.5172644E2,9.806252E0,1.3645534E2,1.3277433E1,2.7189926E1,3.508871E1,9.143559E1,4.658138E0,8.785793E0,7.586216E0,3.309684E1,4.426761E0,4.16095E0,3.686285E0,2.4191603E1,3.1879428E2,3.22857E1,2.296357E2,1.6076967E1,1.4458716E1,2.7139162E1,2.6169123E1,6.732475E1,6.396874E0,2.6121721E1,6.535197E1,4.2099613E1,3.4468827E0,3.4393427E0,1.5939928E1,1.473647E1,5.4020586E0,3.744298E1,3.6077885E1,2.0843248E1,4.9853073E1,1.8947725E1,4.0655064E1,2.7259338E2,2.3353716E1,9.366834E0,4.5136696E1,1.8476831E2,4.395822E2,2.1214421E2,3.4313E0,6.374952E0,9.239085E1,4.4064495E1,4.6613746E0,8.616059E0,2.2523035E1,4.666891E0,3.1653368E1,3.435343E0,6.867707E1,2.2758526E1,5.3733764E0,3.412417E0,3.912752E0,3.673464E0,9.995547E0,2.3101292E1,9.133016E0,1.5058587E1,2.7856842E2,4.0225876E1,2.661726E1,5.668441E0,8.606783E0,2.2102892E2,3.4583166E0,1.261865E1,3.7377558E0,1.0720962E1,1.3436822E1,1.370234E1],"tree_param":{"num_deleted":"0","num_feature":"138","num_nodes":"119","size_leaf_vector":"1"}},{"base_weights":[1.1115695E-2,-3.084478E-1,1.0534094E-1,-3.684829E-1,2.4451868E-1,-1.4162692E-1,2.2249086E-1,-2.6679939E-2,-5.0247276E-1,1.156492E0,3.5375968E-2,-1.5917042E-1,1.1174723E0,2.5047076E-1,-7.428861E-1,-7.626925E-1,4.0652722E-2,6.536279E-1,-5.297259E-1,5.97876E-3,8.0989204E-2,9.8974365E-1,-2.0697379E-1,4.4897905E-1,-1.9460239E-1,1.5660146E-3,8.283372E-2,1.2211251E-1,4.249486E-1,-7.09928E-2,-4.4836822E-1,-5.980525E-2,-5.56191E-3,-1.8612514E-1,3.2819E-1,6.0798105E-2,-1.0307147E-2,-5.903341E-1,-1.581648E-1,1.9944233E-3,6.901387E-2,-9.0868574E-1,5.0300762E-2,1.5140043E-1,1.5308586E0,-2.391529E-1,3.3637768E-1,3.4704626E-1,2.766091E-2,3.7474945E-1,1.0267786E0,2.6664892E-1,-8.893958E-1,-2.8217679E-2,1.133715E-2,2.4670586E-2,-2.1956593E-2,-5.4304767E-2,-2.685718E-2,3.2891646E-2,-1.8095238E-2,-6.9914274E-2,6.775368E-3,-4.0279094E-2,1.7993039E-2,-3.7635107E-2,2.870363E-2,3.982393E-2,9.198766E-2,4.385089E-3,-1.5679836E-2,3.7465442E-2,-1.8213054E-2,2.8762609E-2,8.539938E-3,5.422048E-3,-1.4481488E-2,4.879902E-2,1.6491452E-2,-4.157981E-2,6.149561E-2,-2.230849E-2,5.578165E-2,-2.5093767E-3,-6.7483634E-2],"categories":[],"categories_nodes":[],"categories_segments":[],"categories_sizes":[],"default_left":[0,0,0,0,0,0,0,0,0,0,0,0,0,0,0,0,0,0,0,0,0,0,0,0,0,0,0,0,0,0,0,0,0,0,0,0,0,0,0,0,0,0,0,0,0,0,0,0,0,0,0,0,0,0,0,0,0,0,0,0,0,0,0,0,0,0,0,0,0,0,0,0,0,0,0,0,0,0,0,0,0,0,0,0,0],"id":5,"left_children":[1,3,5,7,9,11,13,15,17,19,21,23,25,27,29,31,33,35,37,-1,-1,39,41,43,45,-1,-1,47,49,-1,51,-1,-1,53,55,-1,-1,57,59,-1,-1,61,63,65,67,69,71,73,75,77,79,81,83,-1,-1,-1,-1,-1,-1,-1,-1,-1,-1,-1,-1,-1,-1,-1,-1,-1,-1,-1,-1,-1,-1,-1,-1,-1,-1,-1,-1,-1,-1,-1,-1],"loss_changes":[8.2459915E1,2.0801807E1,6.124897E1,2.5718887E1,1.1570603E1,1.5124754E1,3.8914146E1,8.023525E0,1.3069084E1,5.0861273E0,1.211383E1,1.4555073E1,5.2871943E0,3.1158127E1,7.2690163E0,3.567813E0,9.677013E0,5.027853E0,8.738899E0,0E0,0E0,3.7406254E0,7.630079E0,1.1568782E1,1.5125597E1,0E0,0E0,1.707759E1,1.7329163E1,0E0,9.7117195E0,0E0,0E0,1.3086383E1,8.523968E0,0E0,0E0,8.20578E0,9.695895E0,0E0,0E0,6.0926294E0,8.52116E0,1.2007969E1,4.8965454E-2,1.4355495E1,1.463427E1,9.398497E0,1.4599035E1,1.4326134E1,1.7963375E1,7.8689528E0,7.045677E0,0E0,0E0,0E0,0E0,0E0,0E0,0E0,0E0,0E0,0E0,0E0,0E0,0E0,0E0,0E0,0E0,0E0,0E0,0E0,0E0,0E0,0E0,0E0,0E0,0E0,0E0,0E0,0E0,0E0,0E0,0E0,0E0],"parents":[2147483647,0,0,1,1,2,2,3,3,4,4,5,5,6,6,7,7,8,8,9,9,10,10,11,11,12,12,13,13,14,14,15,15,16,16,17,17,18,18,21,21,22,22,23,23,24,24,27,27,28,28,30,30,33,33,34,34,37,37,38,38,41,41,42,42,43,43,44,44,45,45,46,46,47,47,48,48,49,49,50,50,51,51,52,52],"right_children":[2,4,6,8,10,12,14,16,18,20,22,24,26,28,30,32,34,36,38,-1,-1,40,42,44,46,-1,-1,48,50,-1,52,-1,-1,54,56,-1,-1,58,60,-1,-1,62,64,66,68,70,72,74,76,78,80,82,84,-1,-1,-1,-1,-1,-1,-1,-1,-1,-1,-1,-1,-1,-1,-1,-1,-1,-1,-1,-1,-1,-1,-1,-1,-1,-1,-1,-1,-1,-1,-1,-1],"split_conditions":[6.7010933E-1,4.781339E0,1.479529E0,-4.4247252E-1,-1.7586255E0,1.3758943E0,1E0,2.1370577E-2,-1.5808485E0,4.6463244E-2,-4.0389496E-1,-8.4294564E-1,-5.526493E-1,1.1579764E0,-1.2287676E0,1.5537801E-2,4.9615037E-1,-2.2411582E0,9.479167E-1,5.97876E-3,8.0989204E-2,-1.0476675E0,9.26493E-1,-4E-1,3.484257E0,1.5660146E-3,8.283372E-2,2.6665695E0,3.5676503E0,-7.09928E-2,1.8970853E-1,-5.980525E-2,-5.56191E-3,1.1002023E0,1.6903108E-1,6.0798105E-2,-1.0307147E-2,3.8958767E-1,-4.9498234E0,1.9944233E-3,6.901387E-2,9.839503E-1,4.5076285E-2,-1.7256988E0,-2.9334152E0,8.347641E-1,3.9558702E0,0E0,4.4677237E-1,-1.3829674E0,9.072725E-3,3.0894224E-2,-2.7047846E-1,-2.8217679E-2,1.133715E-2,2.4670586E-2,-2.1956593E-2,-5.4304767E-2,-2.685718E-2,3.2891646E-2,-1.8095238E-2,-6.9914274E-2,6.775368E-3,-4.0279094E-2,1.7993039E-2,-3.7635107E-2,2.870363E-2,3.982393E-2,9.198766E-2,4.385089E-3,-1.5679836E-2,3.7465442E-2,-1.8213054E-2,2.8762609E-2,8.539938E-3,5.422048E-3,-1.4481488E-2,4.879902E-2,1.6491452E-2,-4.157981E-2,6.149561E-2,-2.230849E-2,5.578165E-2,-2.5093767E-3,-6.7483634E-2],"split_indices":[14,135,134,127,132,58,113,62,34,102,0,2,37,14,26,15,93,46,102,0,0,4,55,60,135,0,0,135,134,0,24,0,0,27,58,0,0,14,37,0,0,0,102,16,132,135,37,90,62,92,13,15,131,0,0,0,0,0,0,0,0,0,0,0,0,0,0,0,0,0,0,0,0,0,0,0,0,0,0,0,0,0,0,0,0],"split_type":[0,0,0,0,0,0,0,0,0,0,0,0,0,0,0,0,0,0,0,0,0,0,0,0,0,0,0,0,0,0,0,0,0,0,0,0,0,0,0,0,0,0,0,0,0,0,0,0,0,0,0,0,0,0,0,0,0,0,0,0,0,0,0,0,0,0,0,0,0,0,0,0,0,0,0,0,0,0,0,0,0,0,0,0,0],"sum_hessian":[2.737131E3,6.225221E2,2.1146091E3,5.620187E2,6.0503403E1,6.8000476E2,1.4346044E3,1.5882014E2,4.0319855E2,1.0352629E1,5.0150776E1,6.716001E2,8.404646E0,1.3950162E3,3.958816E1,1.2570465E1,1.4624968E2,8.67201E0,3.9452652E2,3.6522632E0,6.700365E0,9.615164E0,4.053561E1,3.617656E1,6.354235E2,3.2007332E0,5.203913E0,8.050427E2,5.8997345E2,1.0740315E1,2.8847847E1,6.9542484E0,5.6162167E0,8.1766304E1,6.448338E1,5.0627418E0,3.609269E0,3.3845984E2,5.6066704E1,3.1971827E0,6.417981E0,1.0299801E1,3.0235811E1,2.9339027E1,6.837533E0,5.8691766E2,4.8505875E1,2.3697075E2,5.68072E2,5.4620306E2,4.3770397E1,1.1069705E1,1.7778143E1,4.260822E1,3.9158085E1,5.345961E1,1.1023769E1,3.0731207E1,3.077286E2,1.0658559E1,4.5408142E1,6.8463535E0,3.4534473E0,7.5196977E0,2.2716112E1,9.022451E0,2.0316576E1,3.1798432E0,3.6576896E0,1.0859533E2,4.7832233E2,3.0565145E1,1.7940731E1,1.0203028E2,1.3494046E2,4.5356964E2,1.1450235E2,3.6376343E1,5.0982672E2,3.9596124E0,3.9810783E1,6.2112947E0,4.8584104E0,6.7667813E0,1.1011361E1],"tree_param":{"num_deleted":"0","num_feature":"138","num_nodes":"85","size_leaf_vector":"1"}},{"base_weights":[-9.526621E-3,-1.3887571E-1,2.3107965E-1,1.5744428E-1,-2.3263294E-1,-1.2623334E-1,3.252422E-1,5.133752E-1,6.320272E-2,-2.93162E-1,1.4993827E-1,2.2850083E-2,-5.8632946E-1,1.696099E-1,5.567028E-1,-5.7979547E-3,7.3417807E-1,-2.9549394E-2,3.4284744E-1,-7.865447E-2,-4.0859014E-1,4.3264288E-1,-1.7171921E-1,-8.849856E-2,9.4040984E-1,-8.1594694E-1,5.2298325E-1,1.2404259E-3,3.885783E-1,4.6470973E-1,1.0999074E0,-4.158456E-1,9.42113E-1,9.907748E-1,3.874601E-1,-2.6482412E-1,1.5147728E-1,4.6275628E-1,-3.5797688E-1,-5.621965E-1,6.112701E-3,-1.0240211E0,-3.8373193E-1,-4.1751284E-2,5.1625556E-1,4.063045E-1,-3.77056E-1,2.4004224E-1,-3.5593855E-1,1.3483413E0,-2.8244758E-2,1.8899822E-1,-1.0356878E0,-9.450969E-3,5.7351854E-2,1.6244851E-1,-2.2901759E-1,7.404291E-1,1.9357921E-1,8.314274E-1,3.0281663E-1,1.3687749E0,6.6779613E-1,1.4052202E-2,-5.6000825E-2,7.597194E-2,-0E0,6.122787E-2,8.025036E-3,3.6458247E-3,5.2432448E-2,-2.8847907E-2,-2.987403E-3,-2.116984E-2,1.2889482E-2,3.110677E-2,-1.5957346E-2,-3.6145538E-2,2.6792398E-2,-3.6587965E-2,3.3590145E-2,9.738214E-3,-1.4258075E-2,-6.275316E-2,-2.2498684E-3,-1.3985864E-3,-2.2237968E-2,-2.0501522E-2,3.0813918E-2,4.3394055E-2,-1.7892748E-2,-2.8142536E-2,8.585415E-3,2.8754256E-3,4.7957834E-2,4.2582314E-2,-2.3155369E-2,2.5822887E-2,8.008585E-2,-5.1706325E-2,6.002835E-2,-2.3511505E-2,-6.407222E-2,3.3095423E-2,2.8111445E-4,-6.9574284E-4,-3.4345996E-2,2.6048968E-2,5.521473E-2,-2.1329094E-3,3.416418E-2,-3.7667837E-2,4.5805883E-2,-3.6133423E-2,1.8397262E-2,7.687214E-2,1.1358378E-2,-1.8052107E-2,4.918875E-2],"categories":[],"categories_nodes":[],"categories_segments":[],"categories_sizes":[],"default_left":[0,0,0,0,0,0,0,0,0,0,0,0,0,0,0,0,0,0,0,0,0,0,0,0,0,0,0,0,0,0,0,0,0,0,0,0,0,0,0,0,0,0,0,0,0,0,0,0,0,0,0,0,0,0,0,0,0,0,0,0,0,0,0,0,0,0,0,0,0,0,0,0,0,0,0,0,0,0,0,0,0,0,0,0,0,0,0,0,0,0,0,0,0,0,0,0,0,0,0,0,0,0,0,0,0,0,0,0,0,0,0,0,0,0,0,0,0,0,0],"id":6,"left_children":[1,3,5,7,9,11,13,15,17,19,21,23,25,27,29,31,33,35,37,39,41,43,45,47,49,51,53,55,57,59,61,63,65,67,69,71,73,75,77,79,81,83,85,-1,87,89,91,93,95,97,-1,99,101,-1,-1,103,105,107,109,111,113,115,117,-1,-1,-1,-1,-1,-1,-1,-1,-1,-1,-1,-1,-1,-1,-1,-1,-1,-1,-1,-1,-1,-1,-1,-1,-1,-1,-1,-1,-1,-1,-1,-1,-1,-1,-1,-1,-1,-1,-1,-1,-1,-1,-1,-1,-1,-1,-1,-1,-1,-1,-1,-1,-1,-1,-1,-1],"loss_changes":[8.433201E1,4.9016182E1,3.19318E1,1.4132964E1,3.108123E1,1.3655499E1,2.685685E1,1.0211262E1,8.772456E0,2.8572998E1,1.6781635E1,1.5533678E1,1.28540325E1,1.6560894E1,1.4369713E1,1.092548E1,5.009159E0,1.08451605E1,7.250863E0,1.6717075E1,1.096843E1,1.07953415E1,1.0400347E1,1.1952831E1,1.0946544E1,9.288326E0,4.2590895E0,9.5259285E0,1.3174131E1,1.502496E1,3.84227E0,1.0104942E1,4.5701904E0,6.4428864E0,5.686334E0,6.994659E0,8.870186E0,9.257012E0,4.562288E0,1.3220488E1,1.9092072E1,6.245121E0,1.5668121E1,0E0,8.8624935E0,8.470819E0,6.6987305E0,7.8474064E0,1.0055669E1,1.7636547E0,0E0,1.1259217E1,3.9065666E0,0E0,0E0,1.1780934E1,1.031189E1,4.7848167E0,1.48201885E1,1.1259781E1,1.2359123E1,4.3307953E0,6.4219837E0,0E0,0E0,0E0,0E0,0E0,0E0,0E0,0E0,0E0,0E0,0E0,0E0,0E0,0E0,0E0,0E0,0E0,0E0,0E0,0E0,0E0,0E0,0E0,0E0,0E0,0E0,0E0,0E0,0E0,0E0,0E0,0E0,0E0,0E0,0E0,0E0,0E0,0E0,0E0,0E0,0E0,0E0,0E0,0E0,0E0,0E0,0E0,0E0,0E0,0E0,0E0,0E0,0E0,0E0,0E0,0E0],"parents":[2147483647,0,0,1,1,2,2,3,3,4,4,5,5,6,6,7,7,8,8,9,9,10,10,11,11,12,12,13,13,14,14,15,15,16,16,17,17,18,18,19,19,20,20,21,21,22,22,23,23,24,24,25,25,26,26,27,27,28,28,29,29,30,30,31,31,32,32,33,33,34,34,35,35,36,36,37,37,38,38,39,39,40,40,41,41,42,42,44,44,45,45,46,46,47,47,48,48,49,49,51,51,52,52,55,55,56,56,57,57,58,58,59,59,60,60,61,61,62,62],"right_children":[2,4,6,8,10,12,14,16,18,20,22,24,26,28,30,32,34,36,38,40,42,44,46,48,50,52,54,56,58,60,62,64,66,68,70,72,74,76,78,80,82,84,86,-1,88,90,92,94,96,98,-1,100,102,-1,-1,104,106,108,110,112,114,116,118,-1,-1,-1,-1,-1,-1,-1,-1,-1,-1,-1,-1,-1,-1,-1,-1,-1,-1,-1,-1,-1,-1,-1,-1,-1,-1,-1,-1,-1,-1,-1,-1,-1,-1,-1,-1,-1,-1,-1,-1,-1,-1,-1,-1,-1,-1,-1,-1,-1,-1,-1,-1,-1,-1,-1,-1],"split_conditions":[4.811459E-2,9.462907E-1,1.1324147E0,-1.0548729E0,1E0,2.0018708E-2,1.5418792E-2,-3.6295792E-1,9.298611E-1,-8.380823E-1,3.0940706E-1,8.033343E-1,1.5004042E-1,2.5042138E-1,2.933995E0,1.8169267E-1,1.7494955E-16,-7.2355956E-2,2E0,6.173821E-1,-1.6849215E0,-4.233621E0,-6.198339E-1,-1.6485546E-2,4.3255815E-1,1.4493759E-1,3.648697E-2,3.0167613E0,9.500126E-1,-6.2167287E-1,1.7494955E-16,-2.3234496E0,-4.661224E-1,-5.850371E-1,5.6384325E-1,-5.1282052E-2,-2.6161414E-1,1.7179741E0,2.4650224E-1,9.388889E-1,-1.962373E-1,3.4769498E-2,-4.629257E0,-4.1751284E-2,5.340503E-1,7.5566286E-1,4.8589754E0,-4.4846877E-1,5.7118E-1,1.4372222E0,-2.8244758E-2,7.489598E-2,-3.1371614E-1,-9.450969E-3,5.7351854E-2,-1.1296797E0,3.3783785E-1,9.1231626E-1,1.7142954E0,-2.9896321E0,1.0091393E-2,1.3076191E0,-7.1428573E-1,1.4052202E-2,-5.6000825E-2,7.597194E-2,-0E0,6.122787E-2,8.025036E-3,3.6458247E-3,5.2432448E-2,-2.8847907E-2,-2.987403E-3,-2.116984E-2,1.2889482E-2,3.110677E-2,-1.5957346E-2,-3.6145538E-2,2.6792398E-2,-3.6587965E-2,3.3590145E-2,9.738214E-3,-1.4258075E-2,-6.275316E-2,-2.2498684E-3,-1.3985864E-3,-2.2237968E-2,-2.0501522E-2,3.0813918E-2,4.3394055E-2,-1.7892748E-2,-2.8142536E-2,8.585415E-3,2.8754256E-3,4.7957834E-2,4.2582314E-2,-2.3155369E-2,2.5822887E-2,8.008585E-2,-5.1706325E-2,6.002835E-2,-2.3511505E-2,-6.407222E-2,3.3095423E-2,2.8111445E-4,-6.9574284E-4,-3.4345996E-2,2.6048968E-2,5.521473E-2,-2.1329094E-3,3.416418E-2,-3.7667837E-2,4.5805883E-2,-3.6133423E-2,1.8397262E-2,7.687214E-2,1.1358378E-2,-1.8052107E-2,4.918875E-2],"split_indices":[15,135,134,131,118,56,56,58,102,131,4,36,15,58,134,7,94,93,35,14,33,8,90,33,62,102,7,135,1,58,88,131,58,38,62,33,3,51,1,102,8,26,38,0,14,93,27,33,49,135,0,102,28,0,0,92,62,59,42,16,12,8,89,0,0,0,0,0,0,0,0,0,0,0,0,0,0,0,0,0,0,0,0,0,0,0,0,0,0,0,0,0,0,0,0,0,0,0,0,0,0,0,0,0,0,0,0,0,0,0,0,0,0,0,0,0,0,0,0],"split_type":[0,0,0,0,0,0,0,0,0,0,0,0,0,0,0,0,0,0,0,0,0,0,0,0,0,0,0,0,0,0,0,0,0,0,0,0,0,0,0,0,0,0,0,0,0,0,0,0,0,0,0,0,0,0,0,0,0,0,0,0,0,0,0,0,0,0,0,0,0,0,0,0,0,0,0,0,0,0,0,0,0,0,0,0,0,0,0,0,0,0,0,0,0,0,0,0,0,0,0,0,0,0,0,0,0,0,0,0,0,0,0,0,0,0,0,0,0,0,0],"sum_hessian":[2.707971E3,1.7617167E3,9.462543E2,4.2301877E2,1.338698E3,1.9706413E2,7.491901E2,8.740386E1,3.356149E2,1.1562545E3,1.8244339E2,1.493906E2,4.7673546E1,4.492696E2,2.9992053E2,2.6236023E1,6.116784E1,2.5242703E2,8.318786E1,4.0540753E2,7.50847E2,9.708302E1,8.5360374E1,1.3393208E2,1.5458498E1,3.9791645E1,7.8819003E0,2.5480609E2,1.9446349E2,2.582285E2,4.1692043E1,1.8779276E1,7.456747E0,3.3919167E1,2.7248674E1,1.0980561E2,1.4262143E2,7.144605E1,1.1741806E1,5.9805157E1,3.456024E2,2.7433783E1,7.234132E2,5.377089E0,9.170593E1,2.1990715E1,6.336966E1,5.9978767E1,7.395332E1,1.2296817E1,3.1616814E0,7.0831156E0,3.270853E1,3.932292E0,3.949608E0,1.503041E2,1.04502014E2,6.816272E1,1.2630077E2,7.762966E1,1.8059885E2,2.4221764E1,1.7470282E1,9.669065E0,9.11021E0,4.2307515E0,3.225996E0,2.6002302E1,7.916864E0,1.931946E1,7.929214E0,4.2626045E1,6.7179565E1,2.1646551E1,1.2097488E2,5.9624683E1,1.1821367E1,8.552896E0,3.18891E0,5.3009243E1,6.7959137E0,2.1016075E2,1.3544162E2,2.1884993E1,5.54879E0,1.0637804E2,6.1703516E2,8.538053E0,8.3167885E1,1.3706615E1,8.284101E0,4.7458298E1,1.5911362E1,4.880864E1,1.1170129E1,5.3858094E0,6.856751E1,3.6724384E0,8.624378E0,3.1514392E0,3.9316766E0,1.0914901E1,2.1793629E1,3.4994705E1,1.1530938E2,7.195122E1,3.2550793E1,4.4207493E1,2.3955225E1,8.567779E1,4.0622986E1,3.4776278E0,7.415203E1,1.0090287E1,1.7050856E2,2.0725344E1,3.4964192E0,3.9969573E0,1.3473324E1],"tree_param":{"num_deleted":"0","num_feature":"138","num_nodes":"119","size_leaf_vector":"1"}},{"base_weights":[-2.0802848E-2,-1.8059967E-1,1.2686177E-1,-2.3113358E-1,1.7880021E-1,-2.603934E-1,2.4154882E-1,4.9010266E-2,-3.3395997E-1,3.884923E-1,-2.2187114E-1,4.7026938E-1,-3.0834582E-1,2.7056456E-1,-6.483801E-1,-1.0324582E0,8.583665E-2,-3.4089327E-2,-4.007451E-1,7.616651E-1,2.0586528E-1,-3.6584136E-1,5.487978E-2,-1.4760783E-1,1.1256323E0,-3.585043E-1,4.126147E-1,2.3644383E-1,8.821947E-1,4.0204864E-2,-8.709076E-1,-7.2049744E-2,-3.2626444E-3,3.8814807E-1,-2.4839008E-2,-1.2955004E-1,1.4972422E0,8.3684385E-2,-4.4996908E-1,-1.8620554E-2,9.5405364E-1,-1.7249976E-1,5.689886E-1,5.7595935E-2,-7.227273E-1,1.959808E-2,-3.63094E-2,9.114207E-2,-2.380546E-3,-2.223663E-1,-6.711886E-1,1.064792E0,-6.779009E-1,1.8977675E-1,5.7007045E-1,2.0918813E-1,1.1389685E0,-1.1592401E0,-2.495577E-2,1.0714908E-2,4.995993E-2,-1.0576624E-2,1.1903603E-2,1.4723283E-2,-1.987159E-2,9.2561685E-2,3.7192162E-2,-9.134973E-3,2.969091E-2,-2.6079318E-2,-1.2784064E-2,2.8092816E-2,7.565836E-2,1.6789239E-2,-3.2615166E-2,3.666863E-2,-2.1400383E-2,-2.5818918E-2,2.8867284E-2,-5.6515664E-2,-1.3956934E-2,1.8979766E-3,-2.0910256E-2,-4.818332E-2,-1.4454861E-2,6.702985E-3,8.691879E-2,5.1568327E-3,-6.0882337E-2,2.0411229E-2,4.721482E-3,3.550999E-2,-6.748618E-3,6.62974E-2,-2.2306792E-2,7.444916E-2,1.5572351E-2,-3.1448003E-2,-6.93065E-2,3.865926E-2,-5.9631236E-2],"categories":[],"categories_nodes":[],"categories_segments":[],"categories_sizes":[],"default_left":[0,0,0,0,0,0,0,0,0,0,0,0,0,0,0,0,0,0,0,0,0,0,0,0,0,0,0,0,0,0,0,0,0,0,0,0,0,0,0,0,0,0,0,0,0,0,0,0,0,0,0,0,0,0,0,0,0,0,0,0,0,0,0,0,0,0,0,0,0,0,0,0,0,0,0,0,0,0,0,0,0,0,0,0,0,0,0,0,0,0,0,0,0,0,0,0,0,0,0,0,0],"id":7,"left_children":[1,3,5,7,9,11,13,15,17,19,21,23,25,27,29,31,33,35,37,39,41,43,-1,45,47,49,51,53,55,-1,57,-1,-1,59,61,63,65,67,69,-1,71,73,75,77,79,-1,-1,-1,-1,81,83,85,87,89,91,93,95,97,99,-1,-1,-1,-1,-1,-1,-1,-1,-1,-1,-1,-1,-1,-1,-1,-1,-1,-1,-1,-1,-1,-1,-1,-1,-1,-1,-1,-1,-1,-1,-1,-1,-1,-1,-1,-1,-1,-1,-1,-1,-1,-1],"loss_changes":[6.437789E1,2.3847408E1,6.302189E1,3.316093E1,1.3702585E1,1.1487425E1,2.8397942E1,1.2311504E1,1.6792213E1,7.0239887E0,1.0982064E1,8.457111E0,1.1170385E1,2.18153E1,1.1936247E1,3.774765E0,1.0087119E1,2.2658749E1,1.6473457E1,7.948969E0,1.0201488E1,7.8731933E0,0E0,3.8207788E0,8.455139E0,1.1926704E1,1.5106645E1,1.5481159E1,9.22213E0,0E0,7.332672E0,0E0,0E0,8.240293E0,1.0864782E1,1.677013E1,7.879734E-1,8.859048E0,8.48027E0,0E0,5.4954453E0,9.153005E0,6.5303E0,7.553097E0,4.6213274E0,0E0,0E0,0E0,0E0,1.0291949E1,9.203167E0,7.7729836E0,3.6527362E0,1.8332943E1,1.2276535E1,1.2876741E1,1.090086E1,1.6651592E0,9.2636795E0,0E0,0E0,0E0,0E0,0E0,0E0,0E0,0E0,0E0,0E0,0E0,0E0,0E0,0E0,0E0,0E0,0E0,0E0,0E0,0E0,0E0,0E0,0E0,0E0,0E0,0E0,0E0,0E0,0E0,0E0,0E0,0E0,0E0,0E0,0E0,0E0,0E0,0E0,0E0,0E0,0E0,0E0],"parents":[2147483647,0,0,1,1,2,2,3,3,4,4,5,5,6,6,7,7,8,8,9,9,10,10,11,11,12,12,13,13,14,14,15,15,16,16,17,17,18,18,19,19,20,20,21,21,23,23,24,24,25,25,26,26,27,27,28,28,30,30,33,33,34,34,35,35,36,36,37,37,38,38,40,40,41,41,42,42,43,43,44,44,49,49,50,50,51,51,52,52,53,53,54,54,55,55,56,56,57,57,58,58],"right_children":[2,4,6,8,10,12,14,16,18,20,22,24,26,28,30,32,34,36,38,40,42,44,-1,46,48,50,52,54,56,-1,58,-1,-1,60,62,64,66,68,70,-1,72,74,76,78,80,-1,-1,-1,-1,82,84,86,88,90,92,94,96,98,100,-1,-1,-1,-1,-1,-1,-1,-1,-1,-1,-1,-1,-1,-1,-1,-1,-1,-1,-1,-1,-1,-1,-1,-1,-1,-1,-1,-1,-1,-1,-1,-1,-1,-1,-1,-1,-1,-1,-1,-1,-1,-1],"split_conditions":[9.126669E-3,4.781339E0,1.1324147E0,1.5236621E0,3.7987523E0,-1.6673367E0,1E0,3.7384284E-1,-1.2817227E0,4.0861717E-1,1.593991E0,1E0,4.6079154E0,2.2171686E0,9.74406E-1,8.076407E-2,-1.6621414E-1,-1.97038E-1,5.25045E-1,-2.1846688E0,4.527738E0,6.954627E-1,5.487978E-2,-3.498991E-16,-1.8206098E0,1.5938928E-2,1.0101526E0,1E0,1.7320167E0,4.0204864E-2,4.2453747E0,-7.2049744E-2,-3.2626444E-3,-3.2475382E-1,4.9615037E-1,-1.5678777E0,-3.697415E-1,3.2880544E-3,4.495968E-1,-1.8620554E-2,1.7365722E-2,6.7010933E-1,1E0,3.662286E-2,6.676998E-1,1.959808E-2,-3.63094E-2,9.114207E-2,-2.380546E-3,-2.9240742E-1,4.276616E-1,-4.0010706E-1,1.1871614E0,-4.56635E-1,9.6805555E-1,1.8994695E-2,1.7203766E0,3.5795137E-2,1.6936541E0,1.0714908E-2,4.995993E-2,-1.0576624E-2,1.1903603E-2,1.4723283E-2,-1.987159E-2,9.2561685E-2,3.7192162E-2,-9.134973E-3,2.969091E-2,-2.6079318E-2,-1.2784064E-2,2.8092816E-2,7.565836E-2,1.6789239E-2,-3.2615166E-2,3.666863E-2,-2.1400383E-2,-2.5818918E-2,2.8867284E-2,-5.6515664E-2,-1.3956934E-2,1.8979766E-3,-2.0910256E-2,-4.818332E-2,-1.4454861E-2,6.702985E-3,8.691879E-2,5.1568327E-3,-6.0882337E-2,2.0411229E-2,4.721482E-3,3.550999E-2,-6.748618E-3,6.62974E-2,-2.2306792E-2,7.444916E-2,1.5572351E-2,-3.1448003E-2,-6.93065E-2,3.865926E-2,-5.9631236E-2],"split_indices":[56,135,134,135,37,0,113,14,131,5,42,97,43,24,14,3,59,55,47,5,38,36,0,92,27,56,88,118,134,0,11,0,0,50,93,55,88,11,25,0,36,14,99,36,42,0,0,0,0,0,92,36,16,58,102,6,55,15,134,0,0,0,0,0,0,0,0,0,0,0,0,0,0,0,0,0,0,0,0,0,0,0,0,0,0,0,0,0,0,0,0,0,0,0,0,0,0,0,0,0,0],"split_type":[0,0,0,0,0,0,0,0,0,0,0,0,0,0,0,0,0,0,0,0,0,0,0,0,0,0,0,0,0,0,0,0,0,0,0,0,0,0,0,0,0,0,0,0,0,0,0,0,0,0,0,0,0,0,0,0,0,0,0,0,0,0,0,0,0,0,0,0,0,0,0,0,0,0,0,0,0,0,0,0,0,0,0,0,0,0,0,0,0,0,0,0,0,0,0,0,0,0,0,0,0],"sum_hessian":[2.7261016E3,1.3094839E3,1.4166178E3,1.1486163E3,1.608676E2,3.2318863E2,1.0934292E3,3.0827954E2,8.4033673E2,1.05784874E2,5.508273E1,1.9233324E1,3.039553E2,1.0596869E3,3.3742287E1,9.172169E0,2.9910736E2,1.536124E2,6.8672437E2,3.3537502E1,7.224737E1,5.038376E1,4.698971E0,1.0220038E1,9.013287E0,2.8478384E2,1.9171455E1,1.0051624E3,5.452445E1,4.0758195E0,2.9666466E1,6.031349E0,3.1408198E0,7.972751E1,2.1937985E2,1.4552153E2,8.090872E0,6.3091213E1,6.236331E2,4.6531267E0,2.8884377E1,3.550336E1,3.674401E1,2.3298737E1,2.7085022E1,5.3657665E0,4.854272E0,5.3597617E0,3.6535246E0,1.9981737E2,8.4966484E1,1.2068962E1,7.102494E0,8.834549E2,1.2170753E2,1.5666509E1,3.885794E1,2.1760958E1,7.905508E0,6.3247368E1,1.6480143E1,1.286214E2,9.0758446E1,5.615858E1,8.9362946E1,4.422848E0,3.6680236E0,4.1740704E1,2.1350506E1,4.540606E2,1.6957253E2,1.8259665E1,1.0624712E1,1.728455E1,1.8218811E1,3.1856289E1,4.8877215E0,1.0983468E1,1.23152685E1,1.3191046E1,1.3893976E1,8.591168E1,1.1390568E2,4.711657E1,3.7849915E1,5.632992E0,6.43597E0,3.157331E0,3.9451628E0,2.6712347E2,6.163314E2,1.0164066E2,2.0066866E1,5.4715333E0,1.0194975E1,2.666102E1,1.21969185E1,7.7831807E0,1.39777775E1,4.8455853E0,3.0599227E0],"tree_param":{"num_deleted":"0","num_feature":"138","num_nodes":"101","size_leaf_vector":"1"}},{"base_weights":[-5.197309E-3,-1.13484085E-1,1.8667412E-1,1.3984622E-1,-1.9505663E-1,-1.5216732E-1,3.0049565E-1,-3.5749234E-2,2.6550037E-1,-2.705181E-1,1.6280478E-1,5.9607767E-2,-4.0807265E-1,3.3546937E-1,-8.869971E-1,-5.71808E-2,-0E0,-9.3256164E-1,3.052673E-1,7.076184E-2,-3.4368607E-1,-3.7992093E-1,2.4117881E-1,-1.321878E-1,4.043989E-1,7.458836E-2,-5.8075804E-1,2.9216924E-1,8.74538E-1,-6.971002E-2,-4.9025995E-1,-4.6857956E-1,8.4230706E-2,-1.6231013E-2,-6.7168765E-2,6.0823244E-1,1.9582565E-1,-1.4499384E-1,4.880827E-1,1.4057122E-2,-3.7587553E-1,-5.9437778E-2,-4.87575E-2,8.121135E-1,1.4789042E-1,-3.0513436E-1,3.7022692E-1,-6.535697E-2,1.060211E0,4.537188E-1,-6.012042E-1,-8.176891E-1,3.243014E-1,-1.2717374E-1,3.430281E-1,1.1287608E0,6.470898E-2,2.369581E-2,-1.0047549E0,-4.611629E-2,1.508675E-2,-9.899613E-3,1.1359871E-2,-1.6777549E-3,3.9323818E-2,-1.0290331E-2,1.5600505E-2,1.0233637E-2,-2.2849709E-2,4.908371E-2,8.330464E-3,1.6453413E-2,-1.6338434E-2,-1.9336654E-2,3.8534775E-2,5.7718486E-2,-1.618088E-2,-1.6524544E-2,6.405067E-2,9.173772E-3,-6.324571E-2,4.0714744E-2,-2.3553846E-2,4.4303227E-2,-1.3167895E-2,-2.8501406E-2,3.94949E-2,6.898746E-2,-4.2245593E-3,4.166752E-3,5.874558E-2,-5.5945273E-2,2.0555155E-3,3.3117596E-3,-4.603541E-2,6.0066838E-2,-1.3200923E-2,-1.0259888E-2,5.7731688E-2,2.8324286E-2,1.208616E-2,-9.608924E-3,6.5173835E-2,-3.9965134E-2,2.903663E-2,-6.4705655E-2,-2.0248843E-2],"categories":[],"categories_nodes":[],"categories_segments":[],"categories_sizes":[],"default_left":[0,0,0,0,0,0,0,0,0,0,0,0,0,0,0,0,0,0,0,0,0,0,0,0,0,0,0,0,0,0,0,0,0,0,0,0,0,0,0,0,0,0,0,0,0,0,0,0,0,0,0,0,0,0,0,0,0,0,0,0,0,0,0,0,0,0,0,0,0,0,0,0,0,0,0,0,0,0,0,0,0,0,0,0,0,0,0,0,0,0,0,0,0,0,0,0,0,0,0,0,0,0,0,0,0,0,0],"id":8,"left_children":[1,3,5,7,9,11,13,15,17,19,21,23,25,27,29,-1,31,33,35,37,39,41,43,45,47,49,51,53,55,-1,57,59,61,-1,-1,63,65,67,69,71,73,-1,75,77,79,81,83,85,87,89,91,93,95,97,99,101,103,-1,105,-1,-1,-1,-1,-1,-1,-1,-1,-1,-1,-1,-1,-1,-1,-1,-1,-1,-1,-1,-1,-1,-1,-1,-1,-1,-1,-1,-1,-1,-1,-1,-1,-1,-1,-1,-1,-1,-1,-1,-1,-1,-1,-1,-1,-1,-1,-1,-1],"loss_changes":[5.6561615E1,3.6004353E1,3.7930584E1,9.393717E0,3.563208E1,1.3463858E1,3.0791496E1,6.975452E0,1.2025772E1,2.7235374E1,9.853345E0,9.074326E0,9.45763E0,1.6324997E1,3.4014225E0,0E0,6.886518E0,1.4264045E0,7.779026E0,1.7462603E1,1.0369156E1,7.647068E0,1.0521102E1,7.749073E0,1.5277938E1,8.030646E0,1.8114353E1,1.4222759E1,1.0618835E1,0E0,7.2603216E0,9.6381E0,5.9956465E0,0E0,0E0,7.3244686E0,8.403785E0,1.4049326E1,1.0207978E1,8.132501E0,1.0506424E1,0E0,7.5219216E0,1.5487804E1,8.9046E0,1.2633425E1,7.7563047E0,1.313039E1,7.7867794E0,5.144938E0,3.890709E0,6.1707764E0,9.621189E0,7.3746853E0,1.3194954E1,9.54977E0,6.5510025E0,0E0,9.088936E-1,0E0,0E0,0E0,0E0,0E0,0E0,0E0,0E0,0E0,0E0,0E0,0E0,0E0,0E0,0E0,0E0,0E0,0E0,0E0,0E0,0E0,0E0,0E0,0E0,0E0,0E0,0E0,0E0,0E0,0E0,0E0,0E0,0E0,0E0,0E0,0E0,0E0,0E0,0E0,0E0,0E0,0E0,0E0,0E0,0E0,0E0,0E0,0E0],"parents":[2147483647,0,0,1,1,2,2,3,3,4,4,5,5,6,6,7,7,8,8,9,9,10,10,11,11,12,12,13,13,14,14,16,16,17,17,18,18,19,19,20,20,21,21,22,22,23,23,24,24,25,25,26,26,27,27,28,28,30,30,31,31,32,32,35,35,36,36,37,37,38,38,39,39,40,40,42,42,43,43,44,44,45,45,46,46,47,47,48,48,49,49,50,50,51,51,52,52,53,53,54,54,55,55,56,56,58,58],"right_children":[2,4,6,8,10,12,14,16,18,20,22,24,26,28,30,-1,32,34,36,38,40,42,44,46,48,50,52,54,56,-1,58,60,62,-1,-1,64,66,68,70,72,74,-1,76,78,80,82,84,86,88,90,92,94,96,98,100,102,104,-1,106,-1,-1,-1,-1,-1,-1,-1,-1,-1,-1,-1,-1,-1,-1,-1,-1,-1,-1,-1,-1,-1,-1,-1,-1,-1,-1,-1,-1,-1,-1,-1,-1,-1,-1,-1,-1,-1,-1,-1,-1,-1,-1,-1,-1,-1,-1,-1,-1],"split_conditions":[1.1452274E-2,1.5236621E0,1.155048E0,7.175838E-3,4.781339E0,1.5651638E-2,1E0,3.423374E-3,-1.3741723E0,-1.1536125E0,-3.0407685E-1,6.152952E-2,8.347641E-1,3.4446843E0,-9.809942E-1,-5.71808E-2,-1.2490666E0,2.4242425E-1,-7.3889154E-1,-1.5552284E0,5.242733E-1,2.0701792E0,-1.1169021E0,1.3913789E-2,-3.7660113E-1,6.7368424E-1,1.0115613E0,-2.0848615E-1,1E0,-6.971002E-2,7.878473E-1,-9.347826E-1,1.5827338E-1,-1.6231013E-2,-6.7168765E-2,-8.744371E-1,-1.8965517E-1,-1.6019433E0,8.584074E-3,3.7183228E0,1.8846154E0,-5.9437778E-2,6.9500203E-3,-1.1006112E-3,1E0,-1.2488263E0,-2.624243E-16,-5.8084657E-5,2.7586207E-1,-3.4965035E-2,-2.1657255E0,-4.6777853E-1,-1.0101526E0,3.5492258E0,-1.5730354E0,8.869655E-3,-2.624243E-16,2.369581E-2,5.947792E-1,-4.611629E-2,1.508675E-2,-9.899613E-3,1.1359871E-2,-1.6777549E-3,3.9323818E-2,-1.0290331E-2,1.5600505E-2,1.0233637E-2,-2.2849709E-2,4.908371E-2,8.330464E-3,1.6453413E-2,-1.6338434E-2,-1.9336654E-2,3.8534775E-2,5.7718486E-2,-1.618088E-2,-1.6524544E-2,6.405067E-2,9.173772E-3,-6.324571E-2,4.0714744E-2,-2.3553846E-2,4.4303227E-2,-1.3167895E-2,-2.8501406E-2,3.94949E-2,6.898746E-2,-4.2245593E-3,4.166752E-3,5.874558E-2,-5.5945273E-2,2.0555155E-3,3.3117596E-3,-4.603541E-2,6.0066838E-2,-1.3200923E-2,-1.0259888E-2,5.7731688E-2,2.8324286E-2,1.208616E-2,-9.608924E-3,6.5173835E-2,-3.9965134E-2,2.903663E-2,-6.4705655E-2,-2.0248843E-2],"split_indices":[56,135,134,56,135,56,113,56,36,130,130,15,135,134,51,0,93,62,34,46,18,134,90,56,36,55,34,9,65,0,25,60,62,0,0,93,33,55,56,37,55,0,56,7,113,55,89,9,62,33,37,57,89,25,130,12,95,0,1,0,0,0,0,0,0,0,0,0,0,0,0,0,0,0,0,0,0,0,0,0,0,0,0,0,0,0,0,0,0,0,0,0,0,0,0,0,0,0,0,0,0,0,0,0,0,0,0],"split_type":[0,0,0,0,0,0,0,0,0,0,0,0,0,0,0,0,0,0,0,0,0,0,0,0,0,0,0,0,0,0,0,0,0,0,0,0,0,0,0,0,0,0,0,0,0,0,0,0,0,0,0,0,0,0,0,0,0,0,0,0,0,0,0,0,0,0,0,0,0,0,0,0,0,0,0,0,0,0,0,0,0,0,0,0,0,0,0,0,0,0,0,0,0,0,0,0,0,0,0,0,0,0,0,0,0,0,0],"sum_hessian":[2.7206333E3,1.7397164E3,9.8091675E2,4.2327148E2,1.316445E3,2.4634462E2,7.345721E2,1.7651717E2,2.4675433E2,1.0876237E3,2.2882138E2,1.3500073E2,1.1134389E2,7.143354E2,2.0236715E1,4.506962E0,1.720102E2,7.1252713E0,2.3962906E2,1.9177711E2,8.958465E2,2.822752E1,2.0059386E2,8.695643E1,4.8044315E1,2.9336481E1,8.20074E1,6.628223E2,5.151304E1,7.667755E0,1.256896E1,2.5600908E1,1.4640929E2,3.693324E0,3.4319472E0,6.2139145E1,1.7748991E2,1.2669071E2,6.50864E1,7.374337E1,8.2210315E2,7.359951E0,2.0867569E1,2.694012E1,1.7365373E2,6.51288E1,2.1827627E1,2.8428757E1,1.9615557E1,1.9098501E1,1.0237978E1,6.5157234E1,1.685017E1,7.131849E1,5.9150385E2,3.8811855E1,1.2701185E1,4.3331103E0,8.23585E0,1.6068436E1,9.532473E0,4.886438E1,9.7544914E1,1.3561203E1,4.857794E1,3.9457874E1,1.3803204E2,5.9750416E1,6.69403E1,2.4738333E1,4.034807E1,3.8493412E1,3.5249958E1,8.151341E2,6.9690523E0,3.2179925E0,1.7649576E1,7.862607E0,1.9077515E1,1.7030508E2,3.348645E0,7.825976E0,5.7302822E1,1.1899171E1,9.928456E0,1.8162062E1,1.0266695E1,1.5242663E1,4.372894E0,1.3446817E1,5.651685E0,5.344248E0,4.89373E0,6.737187E0,5.8420048E1,6.4150133E0,1.0435157E1,6.809165E1,3.2268302E0,1.827707E2,4.0873315E2,4.4552946E0,3.435656E1,4.4715033E0,8.229682E0,4.662218E0,3.573632E0],"tree_param":{"num_deleted":"0","num_feature":"138","num_nodes":"107","size_leaf_vector":"1"}},{"base_weights":[-8.17711E-3,-6.1874915E-2,3.2080755E-1,1.721787E-1,-1.4995569E-1,1.3406886E-1,6.015058E-1,7.672383E-1,1.3645774E-1,2.382274E-1,-2.1968733E-1,1.8192083E-1,-7.651624E-1,1.2880037E0,4.4169307E-1,1.0143877E0,-1.3430262E-1,-7.927654E-2,1.9571401E-1,3.9381287E-1,-1.267692E-1,-4.6087214E-1,-1.602191E-1,2.2117177E-1,-9.695661E-1,-1.1694229E0,1.012295E-2,1.5153282E0,5.188267E-1,-5.438007E-1,5.9965456E-1,4.2426383E-1,1.285327E0,3.1923223E-2,-3.7728116E-2,-7.1474785E-1,4.9969018E-2,-1.5053807E-1,2.6138356E-1,2.4265952E-1,8.496773E-1,6.0531404E-2,-1.075994E0,-7.065132E-2,-5.5067325E-1,2.700941E-1,-1.9845422E-1,-0E0,3.5561985E-1,-6.040136E-2,-2.2627478E-2,-2.4002051E-2,-7.428924E-2,2.9316777E-2,8.2282566E-2,6.493295E-2,-1.33825885E-2,-1.1303214E0,1.4014733E-1,1.2300123E0,3.8404727E-1,-4.1421317E-3,5.0893474E-2,8.166537E-2,3.572779E-2,-4.452005E-2,8.310629E-3,-4.0215176E-2,9.70968E-3,-1.579634E-2,3.4732994E-2,-1.3043324E-2,1.517241E-2,5.6571193E-2,5.9343297E-3,-1.09611815E-2,6.0952287E-2,-3.479937E-2,1.3892198E-2,-6.742838E-2,-8.127733E-3,-3.95825E-2,3.6926926E-3,3.5492446E-2,-2.9268567E-2,4.0824853E-2,1.5956297E-3,-8.100777E-3,-3.1164257E-2,2.516085E-2,-9.444761E-3,6.0865204E-3,3.744739E-2,-6.888369E-2,-2.3077024E-2,-3.6739808E-2,4.241546E-2,1.5483513E-2,7.368402E-2,4.0671296E-2,-4.382524E-5],"categories":[],"categories_nodes":[],"categories_segments":[],"categories_sizes":[],"default_left":[0,0,0,0,0,0,0,0,0,0,0,0,0,0,0,0,0,0,0,0,0,0,0,0,0,0,0,0,0,0,0,0,0,0,0,0,0,0,0,0,0,0,0,0,0,0,0,0,0,0,0,0,0,0,0,0,0,0,0,0,0,0,0,0,0,0,0,0,0,0,0,0,0,0,0,0,0,0,0,0,0,0,0,0,0,0,0,0,0,0,0,0,0,0,0,0,0,0,0,0,0],"id":9,"left_children":[1,3,5,7,9,11,13,15,17,19,21,23,25,27,29,31,33,35,37,39,41,43,45,47,49,51,-1,53,55,57,59,61,63,-1,-1,65,67,69,71,73,75,77,79,81,83,85,87,89,91,-1,-1,-1,-1,-1,-1,-1,-1,93,95,97,99,-1,-1,-1,-1,-1,-1,-1,-1,-1,-1,-1,-1,-1,-1,-1,-1,-1,-1,-1,-1,-1,-1,-1,-1,-1,-1,-1,-1,-1,-1,-1,-1,-1,-1,-1,-1,-1,-1,-1,-1],"loss_changes":[4.7787468E1,4.7994247E1,1.973946E1,1.3332279E1,4.583734E1,9.95228E0,1.5837418E1,8.170776E0,7.719492E0,1.471922E1,2.0441177E1,1.0025536E1,4.901341E0,3.8881226E0,1.9669249E1,3.7917194E0,4.5529165E0,1.0780365E1,1.0799282E1,1.2171591E1,1.3967893E1,9.812649E0,1.9012833E1,6.3191843E0,1.887207E-1,9.3457127E-1,0E0,1.3436279E0,5.347905E0,7.3166294E0,1.3993366E1,3.3326871E0,2.315092E0,0E0,0E0,3.6510267E0,1.3505399E1,1.077098E1,8.826061E0,1.49083E1,1.7960697E1,1.0951424E1,2.850009E0,5.785657E0,1.0446373E1,1.2158855E1,1.6221504E1,7.8194437E0,1.1977205E1,0E0,0E0,0E0,0E0,0E0,0E0,0E0,0E0,7.7863693E-1,6.170795E0,5.388317E0,1.3596193E1,0E0,0E0,0E0,0E0,0E0,0E0,0E0,0E0,0E0,0E0,0E0,0E0,0E0,0E0,0E0,0E0,0E0,0E0,0E0,0E0,0E0,0E0,0E0,0E0,0E0,0E0,0E0,0E0,0E0,0E0,0E0,0E0,0E0,0E0,0E0,0E0,0E0,0E0,0E0,0E0],"parents":[2147483647,0,0,1,1,2,2,3,3,4,4,5,5,6,6,7,7,8,8,9,9,10,10,11,11,12,12,13,13,14,14,15,15,16,16,17,17,18,18,19,19,20,20,21,21,22,22,23,23,24,24,25,25,27,27,28,28,29,29,30,30,31,31,32,32,35,35,36,36,37,37,38,38,39,39,40,40,41,41,42,42,43,43,44,44,45,45,46,46,47,47,48,48,57,57,58,58,59,59,60,60],"right_children":[2,4,6,8,10,12,14,16,18,20,22,24,26,28,30,32,34,36,38,40,42,44,46,48,50,52,-1,54,56,58,60,62,64,-1,-1,66,68,70,72,74,76,78,80,82,84,86,88,90,92,-1,-1,-1,-1,-1,-1,-1,-1,94,96,98,100,-1,-1,-1,-1,-1,-1,-1,-1,-1,-1,-1,-1,-1,-1,-1,-1,-1,-1,-1,-1,-1,-1,-1,-1,-1,-1,-1,-1,-1,-1,-1,-1,-1,-1,-1,-1,-1,-1,-1,-1],"split_conditions":[5E0,-1.7361455E-1,5.2220565E-1,-6.4356434E-1,-1.6265596E0,1.2034782E0,1.3828937E0,9.444444E-1,6.309503E-1,1.2371792E0,6.0638523E-1,1E0,8.0252165E-1,7.985573E-1,9.304257E-3,-9.377514E-1,-3.697415E-1,-6.501154E-1,-1.2490666E0,-5.583971E-1,-2.2474868E0,5.3964E-1,-1.5678777E0,2.0104434E0,-8.814704E-3,-1.4858757E0,1.012295E-2,1.4818108E-2,2.7191868E-1,0E0,1.3180661E0,6.932885E-1,2.514206E-1,3.1923223E-2,-3.7728116E-2,1.0420886E0,3.8065538E-2,1.2880629E0,6.258031E-1,-1.600254E0,1.1888956E0,-6.198339E-1,-1.486951E-1,4.1906792E-1,-1.5808485E0,-1.1629068E0,1E0,4.14401E-3,9.826935E-1,-6.040136E-2,-2.2627478E-2,-2.4002051E-2,-7.428924E-2,2.9316777E-2,8.2282566E-2,6.493295E-2,-1.33825885E-2,1.5076649E0,-3.7492359E0,3.1684428E-1,1.5048544E-1,-4.1421317E-3,5.0893474E-2,8.166537E-2,3.572779E-2,-4.452005E-2,8.310629E-3,-4.0215176E-2,9.70968E-3,-1.579634E-2,3.4732994E-2,-1.3043324E-2,1.517241E-2,5.6571193E-2,5.9343297E-3,-1.09611815E-2,6.0952287E-2,-3.479937E-2,1.3892198E-2,-6.742838E-2,-8.127733E-3,-3.95825E-2,3.6926926E-3,3.5492446E-2,-2.9268567E-2,4.0824853E-2,1.5956297E-3,-8.100777E-3,-3.1164257E-2,2.516085E-2,-9.444761E-3,6.0865204E-3,3.744739E-2,-6.888369E-2,-2.3077024E-2,-3.6739808E-2,4.241546E-2,1.5483513E-2,7.368402E-2,4.0671296E-2,-4.382524E-5],"split_indices":[135,127,58,58,130,59,46,102,14,94,14,113,0,8,13,8,89,26,93,2,131,49,55,13,58,60,0,57,61,88,55,92,61,0,0,4,62,41,134,34,134,90,8,14,34,42,113,11,14,0,0,0,0,0,0,0,0,24,37,57,102,0,0,0,0,0,0,0,0,0,0,0,0,0,0,0,0,0,0,0,0,0,0,0,0,0,0,0,0,0,0,0,0,0,0,0,0,0,0,0,0],"split_type":[0,0,0,0,0,0,0,0,0,0,0,0,0,0,0,0,0,0,0,0,0,0,0,0,0,0,0,0,0,0,0,0,0,0,0,0,0,0,0,0,0,0,0,0,0,0,0,0,0,0,0,0,0,0,0,0,0,0,0,0,0,0,0,0,0,0,0,0,0,0,0,0,0,0,0,0,0,0,0,0,0,0,0,0,0,0,0,0,0,0,0,0,0,0,0,0,0,0,0,0,0],"sum_hessian":[2.704433E3,2.3259077E3,3.7852533E2,6.353983E2,1.6905094E3,2.2840764E2,1.501177E2,3.466422E1,6.0073413E2,2.5684583E2,1.4336636E3,2.1773018E2,1.0677459E1,2.6896187E1,1.2322151E2,2.7194767E1,7.469451E0,1.2901259E2,4.7172153E2,1.8021948E2,7.662633E1,2.819064E2,1.1517572E3,2.1141829E2,6.3118834E0,7.4568634E0,3.220595E0,1.9911438E1,6.9847484E0,1.6597424E1,1.06624084E2,9.480528E0,1.771424E1,3.2409964E0,4.2284546E0,2.1169666E1,1.0784292E2,7.475422E1,3.9696732E2,1.3665857E2,4.356092E1,6.4692184E1,1.1934149E1,5.3280807E1,2.2862558E2,9.327896E1,1.0584781E3,8.028706E1,1.3113123E2,3.2725484E0,3.039335E0,3.236878E0,4.2199855E0,3.2205505E0,1.6690887E1,3.2440393E0,3.740709E0,8.662475E0,7.93495E0,2.5857477E1,8.076661E1,5.485956E0,3.9945722E0,9.739565E0,7.9746747E0,1.7736094E1,3.4335728E0,1.4815788E1,9.302713E1,6.314291E1,1.1611306E1,2.9025429E1,3.679419E2,1.5635361E1,1.2102321E2,1.1221941E1,3.2338978E1,1.3841974E1,5.085021E1,8.740203E0,3.1939461E0,8.263635E0,4.5017174E1,5.5262527E0,2.2309932E2,2.745276E1,6.58262E1,9.7635114E2,8.212704E1,2.1447332E1,5.8839725E1,8.321299E1,4.791824E1,5.440698E0,3.2217762E0,3.4695067E0,4.465443E0,5.9741573E0,1.988332E1,3.777526E1,4.299135E1],"tree_param":{"num_deleted":"0","num_feature":"138","num_nodes":"101","size_leaf_vector":"1"}},{"base_weights":[-7.826462E-3,-2.3777027E-1,8.2111984E-2,-2.8188133E-1,2.0212972E-1,1.10246964E-1,-5.8934444E-1,-5.2044816E-2,-3.7882257E-1,7.189236E-1,-5.101367E-2,4.98232E-2,3.263317E-1,-6.513372E-1,3.305257E-2,2.5890416E-1,-1.6580993E-1,-4.5256093E-1,-6.547953E-2,1.0849423E0,-1.6417455E-2,5.689015E-2,-1.6536535E-1,-9.4051814E-1,6.535066E-2,2.2918046E-1,8.253931E-1,-9.0087867E-1,-2.856414E-1,-4.1387263E-1,5.7498604E-1,1.07430704E-1,-3.5473776E-1,-7.3060584E-1,-3.552261E-1,-1.0289701E0,1.3172549E-1,1.3890803E0,2.0633921E-2,-6.2259877E-1,1.6952033E-1,-1.2233637E-4,-1.1792656E0,3.7421194E-1,2.8823271E-2,2.792847E-1,-5.874981E-1,-2.2490004E-1,1.013018E0,-1.9642557E-1,-1.0936245E0,3.9296782E-1,-6.391022E-1,-3.779613E-2,3.5829395E-2,4.528207E-2,-1.8278847E-3,-5.3734787E-2,9.744189E-3,-5.811745E-2,-1.1365033E-2,1.7607344E-2,-3.95463E-2,-1.0869427E-2,-2.7948452E-2,-7.978479E-3,-6.513169E-2,5.406784E-2,-1.4535129E-3,3.233218E-2,7.9517744E-2,-5.2514493E-2,1.1055405E-2,2.3522425E-2,-3.8392834E-2,-6.864222E-2,-2.0889627E-2,-8.65742E-5,3.1291615E-2,1.2370254E-2,-2.3581549E-3,7.2972145E-4,2.1955824E-2,-4.5077275E-2,9.632912E-3,-4.50398E-2,2.5223508E-2,5.825618E-2,1.0339644E-2,3.094451E-2,-3.1274896E-2,-5.99758E-2,-5.443082E-3,-1.949281E-2,4.8129015E-2,2.221365E-2,-4.2497676E-2],"categories":[],"categories_nodes":[],"categories_segments":[],"categories_sizes":[],"default_left":[0,0,0,0,0,0,0,0,0,0,0,0,0,0,0,0,0,0,0,0,0,0,0,0,0,0,0,0,0,0,0,0,0,0,0,0,0,0,0,0,0,0,0,0,0,0,0,0,0,0,0,0,0,0,0,0,0,0,0,0,0,0,0,0,0,0,0,0,0,0,0,0,0,0,0,0,0,0,0,0,0,0,0,0,0,0,0,0,0,0,0,0,0,0,0,0,0],"id":10,"left_children":[1,3,5,7,9,11,13,15,17,19,21,23,25,27,-1,29,31,33,35,37,-1,-1,39,41,43,45,47,49,51,53,55,57,59,61,63,65,67,69,-1,71,73,-1,75,77,79,81,83,85,87,89,91,93,95,-1,-1,-1,-1,-1,-1,-1,-1,-1,-1,-1,-1,-1,-1,-1,-1,-1,-1,-1,-1,-1,-1,-1,-1,-1,-1,-1,-1,-1,-1,-1,-1,-1,-1,-1,-1,-1,-1,-1,-1,-1,-1,-1,-1],"loss_changes":[5.5767715E1,1.4778767E1,3.6621597E1,1.530611E1,9.193283E0,2.4240505E1,6.47106E0,7.3243103E0,1.1117561E1,9.263882E0,6.5402083E0,2.2357811E1,1.9393143E1,6.4533806E0,0E0,1.2026641E1,7.8958673E0,1.0238892E1,1.804024E1,2.7994213E0,0E0,0E0,6.9230943E0,4.9037247E0,1.6129292E1,1.4105022E1,1.3236778E1,5.611E0,7.9467664E0,7.573784E0,7.8413258E0,6.5908756E0,8.875783E0,6.8806076E0,8.015743E0,3.48357E0,1.2143309E1,4.5726776E-1,0E0,7.185159E0,7.7190933E0,0E0,1.8707561E0,1.437602E1,2.1356075E1,1.359207E1,5.131038E0,5.760275E0,6.4809265E0,4.149162E0,3.2949028E0,5.5493627E0,5.330783E0,0E0,0E0,0E0,0E0,0E0,0E0,0E0,0E0,0E0,0E0,0E0,0E0,0E0,0E0,0E0,0E0,0E0,0E0,0E0,0E0,0E0,0E0,0E0,0E0,0E0,0E0,0E0,0E0,0E0,0E0,0E0,0E0,0E0,0E0,0E0,0E0,0E0,0E0,0E0,0E0,0E0,0E0,0E0,0E0],"parents":[2147483647,0,0,1,1,2,2,3,3,4,4,5,5,6,6,7,7,8,8,9,9,10,10,11,11,12,12,13,13,15,15,16,16,17,17,18,18,19,19,22,22,23,23,24,24,25,25,26,26,27,27,28,28,29,29,30,30,31,31,32,32,33,33,34,34,35,35,36,36,37,37,39,39,40,40,42,42,43,43,44,44,45,45,46,46,47,47,48,48,49,49,50,50,51,51,52,52],"right_children":[2,4,6,8,10,12,14,16,18,20,22,24,26,28,-1,30,32,34,36,38,-1,-1,40,42,44,46,48,50,52,54,56,58,60,62,64,66,68,70,-1,72,74,-1,76,78,80,82,84,86,88,90,92,94,96,-1,-1,-1,-1,-1,-1,-1,-1,-1,-1,-1,-1,-1,-1,-1,-1,-1,-1,-1,-1,-1,-1,-1,-1,-1,-1,-1,-1,-1,-1,-1,-1,-1,-1,-1,-1,-1,-1,-1,-1,-1,-1,-1,-1],"split_conditions":[7.215233E-3,5E0,1E0,2.0015225E0,0E0,7.68125E-2,9.793867E-1,-6.4710766E-1,9.423611E-1,1.4724631E0,-7.6621693E-1,-1.3741723E0,1.0076272E0,2.6155667E0,3.305257E-2,-1.9469291E-1,-4.6124715E-1,5.005081E-3,-1.2371792E0,1.6559715E0,-1.6417455E-2,5.689015E-2,2.0157067E-1,3.6754508E-2,-1.5384616E0,9.9027777E-1,-1.2371792E0,-7.801167E-1,-2.5793356E-1,9.3333334E-1,1.1581014E0,-1.0268258E0,-4.621273E-1,2.0110957E-2,9.7069263E-1,-5.57383E-1,-7.8557926E-1,-4.8878777E-1,2.0633921E-2,3.4302327E-1,2.6407278E-1,-1.2233637E-4,5.392157E-1,-2.7984335E0,8.347641E-1,1.5418792E-2,-4.0010706E-1,1.5880123E0,1.6846325E0,-3.5016348E0,1.4285715E0,1.8916447E0,8.849757E-2,-3.779613E-2,3.5829395E-2,4.528207E-2,-1.8278847E-3,-5.3734787E-2,9.744189E-3,-5.811745E-2,-1.1365033E-2,1.7607344E-2,-3.95463E-2,-1.0869427E-2,-2.7948452E-2,-7.978479E-3,-6.513169E-2,5.406784E-2,-1.4535129E-3,3.233218E-2,7.9517744E-2,-5.2514493E-2,1.1055405E-2,2.3522425E-2,-3.8392834E-2,-6.864222E-2,-2.0889627E-2,-8.65742E-5,3.1291615E-2,1.2370254E-2,-2.3581549E-3,7.2972145E-4,2.1955824E-2,-4.5077275E-2,9.632912E-3,-4.50398E-2,2.5223508E-2,5.825618E-2,1.0339644E-2,3.094451E-2,-3.1274896E-2,-5.99758E-2,-5.443082E-3,-1.949281E-2,4.8129015E-2,2.221365E-2,-4.2497676E-2],"split_indices":[56,135,113,135,90,15,130,4,102,0,131,36,36,52,0,51,34,56,89,27,0,0,61,102,55,102,89,34,131,102,34,2,42,102,52,42,130,36,0,62,57,0,55,27,135,56,36,28,28,38,91,13,24,0,0,0,0,0,0,0,0,0,0,0,0,0,0,0,0,0,0,0,0,0,0,0,0,0,0,0,0,0,0,0,0,0,0,0,0,0,0,0,0,0,0,0,0],"split_type":[0,0,0,0,0,0,0,0,0,0,0,0,0,0,0,0,0,0,0,0,0,0,0,0,0,0,0,0,0,0,0,0,0,0,0,0,0,0,0,0,0,0,0,0,0,0,0,0,0,0,0,0,0,0,0,0,0,0,0,0,0,0,0,0,0,0,0,0,0,0,0,0,0,0,0,0,0,0,0,0,0,0,0,0,0,0,0,0,0,0,0,0,0,0,0,0,0],"sum_hessian":[2.6938984E3,7.572699E2,1.9366284E3,6.887881E2,6.848181E1,1.8596896E3,7.693889E1,2.0509644E2,4.8369165E2,2.2040674E1,4.6441135E1,1.454626E3,4.0506363E2,7.383722E1,3.101666E0,5.4360523E1,1.507359E2,3.9093118E2,9.276047E1,1.6376614E1,5.6640606E0,3.21307E0,4.3228065E1,2.143585E1,1.4331901E3,3.404488E2,6.461485E1,4.2856274E1,3.0980947E1,1.717595E1,3.7184574E1,6.1578636E1,8.9157265E1,9.9413864E1,2.9151733E2,1.5129777E1,7.763069E1,1.0438929E1,5.9376845E0,1.8038635E1,2.518943E1,4.638733E0,1.6797117E1,1.5030315E2,1.282887E3,3.2150455E2,1.8944233E1,9.682452E0,5.49324E1,9.75206E0,3.3104214E1,1.0475107E1,2.050584E1,1.3508408E1,3.6675425E0,2.3929016E1,1.3255558E1,3.3853714E0,5.8193268E1,1.0937436E1,7.821983E1,4.9033036E0,9.451056E1,1.7540733E2,1.16109985E2,4.08875E0,1.1041027E1,1.0502378E1,6.712831E1,3.23087E0,7.208059E0,1.1886709E1,6.1519256E0,1.9525818E1,5.6636124E0,1.264767E1,4.149447E0,6.050258E1,8.980057E1,3.3068915E2,9.5219775E2,1.2169231E2,1.9981224E2,1.34875E1,5.456732E0,4.974621E0,4.7078314E0,4.573472E1,9.197681E0,3.1296678E0,6.6223927E0,2.9601538E1,3.502674E0,4.4708257E0,6.0042815E0,3.0831246E0,1.7422714E1],"tree_param":{"num_deleted":"0","num_feature":"138","num_nodes":"97","size_leaf_vector":"1"}},{"base_weights":[-5.510293E-3,-2.726094E-1,7.0886925E-2,6.8614416E-2,-3.4808925E-1,9.830624E-2,-5.4649293E-1,-3.8099742E-1,2.8025177E-1,-3.7660697E-1,4.1298842E-1,5.6036733E-2,3.9218897E-1,1.8209454E-2,-6.8425554E-1,-1.0489289E0,-1.9365275E-2,3.6337534E-1,-5.5466454E-2,-4.4153434E-1,-6.0080916E-2,-6.0923286E-2,8.9470917E-1,3.0848852E-1,-9.818268E-3,2.5854164E-1,7.548496E-1,-5.1380765E-1,5.440206E-1,-8.735047E-1,-3.287325E-1,-7.6625473E-3,-6.800463E-2,5.1587486E-1,-3.8276964E-1,2.3412329E-1,1.1431009E0,-3.94174E-1,-9.0505177E-1,6.132948E-2,-1.0119191E0,-7.0284987E-3,1.2258277E0,2.4392785E-1,1.1249131E0,1.5926418E-1,-7.0573464E-2,-3.950842E-1,3.391093E-1,1.2108516E0,5.622132E-1,8.057768E-3,-4.4163376E-2,-9.246354E-3,5.038656E-2,-1.0006126E0,5.0179516E-3,3.2634918E-2,-5.425659E-1,-6.181144E-3,6.124512E-2,-5.571532E-2,2.3603428E-2,5.4077465E-2,5.6699645E-3,1.944947E-2,8.334001E-2,-2.1768292E-2,2.0365898E-2,-7.050942E-3,-5.2836355E-2,-3.878529E-2,1.0166614E-2,-8.557641E-3,-6.815893E-2,9.3826964E-2,2.8362153E-2,1.6446969E-2,-1.4409557E-2,-5.981804E-3,6.85006E-2,1.8664774E-2,-7.337023E-4,1.854331E-2,-5.3284494E-3,2.0829337E-2,-4.9726825E-2,4.1445557E-2,9.020214E-3,7.1372464E-2,3.3610962E-2,3.6262892E-2,-3.3622545E-3,-5.6641527E-2,-4.394558E-3,-3.72699E-2,1.7243594E-2],"categories":[],"categories_nodes":[],"categories_segments":[],"categories_sizes":[],"default_left":[0,0,0,0,0,0,0,0,0,0,0,0,0,0,0,0,0,0,0,0,0,0,0,0,0,0,0,0,0,0,0,0,0,0,0,0,0,0,0,0,0,0,0,0,0,0,0,0,0,0,0,0,0,0,0,0,0,0,0,0,0,0,0,0,0,0,0,0,0,0,0,0,0,0,0,0,0,0,0,0,0,0,0,0,0,0,0,0,0,0,0,0,0,0,0,0,0],"id":11,"left_children":[1,3,5,7,9,11,13,15,17,19,21,23,25,27,29,31,33,35,-1,37,39,-1,41,43,45,47,49,51,53,55,57,-1,-1,59,61,63,65,67,69,71,73,-1,75,77,79,81,83,85,87,89,91,-1,-1,-1,-1,93,-1,-1,95,-1,-1,-1,-1,-1,-1,-1,-1,-1,-1,-1,-1,-1,-1,-1,-1,-1,-1,-1,-1,-1,-1,-1,-1,-1,-1,-1,-1,-1,-1,-1,-1,-1,-1,-1,-1,-1,-1],"loss_changes":[5.4987637E1,1.5489765E1,3.5463005E1,1.0484595E1,1.0813755E1,2.4856398E1,7.0073776E0,8.378334E0,8.98642E0,9.667503E0,1.5276535E1,2.9218605E1,1.1908974E1,5.401042E0,4.4209175E0,3.0550213E0,4.8446293E0,6.8051624E0,0E0,8.141006E0,9.647584E0,0E0,5.2829113E0,1.8750778E1,1.4311783E1,9.909292E0,5.0352135E0,2.5872595E0,3.5753527E0,5.890175E0,5.949874E0,0E0,0E0,4.7975802E0,9.943092E0,6.1764836E0,3.0186882E0,1.20177E1,3.8413048E0,8.858573E0,2.401289E0,0E0,3.5045547E0,1.5402023E1,8.296505E0,1.3744582E1,1.6314114E1,1.0547426E1,1.2655378E1,1.0358887E0,5.162465E0,0E0,0E0,0E0,0E0,4.7154427E0,0E0,0E0,4.359106E0,0E0,0E0,0E0,0E0,0E0,0E0,0E0,0E0,0E0,0E0,0E0,0E0,0E0,0E0,0E0,0E0,0E0,0E0,0E0,0E0,0E0,0E0,0E0,0E0,0E0,0E0,0E0,0E0,0E0,0E0,0E0,0E0,0E0,0E0,0E0,0E0,0E0,0E0],"parents":[2147483647,0,0,1,1,2,2,3,3,4,4,5,5,6,6,7,7,8,8,9,9,10,10,11,11,12,12,13,13,14,14,15,15,16,16,17,17,19,19,20,20,22,22,23,23,24,24,25,25,26,26,27,27,28,28,29,29,30,30,33,33,34,34,35,35,36,36,37,37,38,38,39,39,40,40,42,42,43,43,44,44,45,45,46,46,47,47,48,48,49,49,50,50,55,55,58,58],"right_children":[2,4,6,8,10,12,14,16,18,20,22,24,26,28,30,32,34,36,-1,38,40,-1,42,44,46,48,50,52,54,56,58,-1,-1,60,62,64,66,68,70,72,74,-1,76,78,80,82,84,86,88,90,92,-1,-1,-1,-1,94,-1,-1,96,-1,-1,-1,-1,-1,-1,-1,-1,-1,-1,-1,-1,-1,-1,-1,-1,-1,-1,-1,-1,-1,-1,-1,-1,-1,-1,-1,-1,-1,-1,-1,-1,-1,-1,-1,-1,-1,-1],"split_conditions":[6.7010933E-1,-3.3333334E-1,1E0,5.054708E-1,9.7152776E-1,6.108002E-1,-7.328945E-1,2.7008487E-3,7.060187E-1,2.9403684E0,-1.2371792E0,-1.5730354E0,1E0,-7.404821E-1,8.9069974E-1,-1.2247702E-3,2.447986E-1,7.43633E-1,-5.5466454E-2,3.2166738E-2,3.9708114E0,-6.0923286E-2,1.1732067E-3,2.3923535E0,-5.9952043E-15,5.970149E-2,0E0,-1.0940167E0,-3.6943638E-1,1.2825779E0,6.449376E-2,-7.6625473E-3,-6.800463E-2,3.8654814E-3,8.8638943E-1,-1.7333333E0,1.10957004E-1,1.1700153E0,9.087872E-2,5.222262E-1,5.166722E-1,-7.0284987E-3,1.6125271E0,4.1139767E-1,-7.1428573E-1,0E0,-1.3630561E0,0E0,1.2330607E-1,1.9548823E0,9.015629E-1,8.057768E-3,-4.4163376E-2,-9.246354E-3,5.038656E-2,2.9967427E-1,5.0179516E-3,3.2634918E-2,5.501239E-1,-6.181144E-3,6.124512E-2,-5.571532E-2,2.3603428E-2,5.4077465E-2,5.6699645E-3,1.944947E-2,8.334001E-2,-2.1768292E-2,2.0365898E-2,-7.050942E-3,-5.2836355E-2,-3.878529E-2,1.0166614E-2,-8.557641E-3,-6.815893E-2,9.3826964E-2,2.8362153E-2,1.6446969E-2,-1.4409557E-2,-5.981804E-3,6.85006E-2,1.8664774E-2,-7.337023E-4,1.854331E-2,-5.3284494E-3,2.0829337E-2,-4.9726825E-2,4.1445557E-2,9.020214E-3,7.1372464E-2,3.3610962E-2,3.6262892E-2,-3.3622545E-3,-5.6641527E-2,-4.394558E-3,-3.72699E-2,1.7243594E-2],"split_indices":[14,126,113,14,102,58,33,3,61,38,89,130,118,42,91,9,2,4,0,15,9,0,7,38,127,61,35,42,3,92,102,0,0,57,46,60,102,42,62,21,14,0,132,61,95,90,93,35,130,46,28,0,0,0,0,57,0,0,8,0,0,0,0,0,0,0,0,0,0,0,0,0,0,0,0,0,0,0,0,0,0,0,0,0,0,0,0,0,0,0,0,0,0,0,0,0,0],"split_type":[0,0,0,0,0,0,0,0,0,0,0,0,0,0,0,0,0,0,0,0,0,0,0,0,0,0,0,0,0,0,0,0,0,0,0,0,0,0,0,0,0,0,0,0,0,0,0,0,0,0,0,0,0,0,0,0,0,0,0,0,0,0,0,0,0,0,0,0,0,0,0,0,0,0,0,0,0,0,0,0,0,0,0,0,0,0,0,0,0,0,0,0,0,0,0,0,0],"sum_hessian":[2.6917927E3,5.984031E2,2.0933896E3,1.0816853E2,4.9023456E2,2.0053309E3,8.805877E1,3.4212734E1,7.3955795E1,4.7314236E2,1.709218E1,1.7545088E3,2.5082214E2,1.729731E1,7.076146E1,1.1252464E1,2.296027E1,7.054625E1,3.4095528E0,3.920187E2,8.112368E1,3.5003788E0,1.3591802E1,3.62545E2,1.3919637E3,1.8473312E2,6.608901E1,8.51473E0,8.78258E0,4.5045147E1,2.5716309E1,3.3689363E0,7.8835278E0,9.003996E0,1.3956274E1,6.174031E1,8.805936E0,3.5755164E2,3.4467052E1,7.268319E1,8.440495E0,3.359963E0,1.0231838E1,3.3729398E2,2.5251047E1,3.6708746E2,1.0248762E3,1.9707336E1,1.6502579E2,1.7903563E1,4.8185448E1,3.1157455E0,5.398985E0,3.564608E0,5.2179723E0,3.991119E1,5.1339574E0,4.1498275E0,2.156648E1,5.0940723E0,3.9099238E0,7.419991E0,6.5362825E0,6.603018E0,5.513729E1,4.4015527E0,4.404383E0,3.4062704E2,1.6924606E1,6.137865E0,2.8329185E1,9.7927885E0,6.2890396E1,3.0093443E0,5.4311504E0,4.1400695E0,6.091769E0,2.9132202E2,4.597196E1,4.171769E0,2.1079277E1,1.643201E2,2.0276736E2,7.6358185E1,9.4851807E2,8.430499E0,1.1276837E1,3.9198067E1,1.2582772E2,1.1459582E1,6.44398E0,3.827737E1,9.908077E0,3.455482E1,5.356371E0,1.7776285E1,3.7901947E0],"tree_param":{"num_deleted":"0","num_feature":"138","num_nodes":"97","size_leaf_vector":"1"}},{"base_weights":[4.8785144E-3,-5.0885133E-2,3.188634E-1,1.6586983E-1,-1.3313304E-1,2.3019499E-1,7.853561E-1,3.215696E-1,-4.0752653E-2,1.1392444E-1,-2.1613324E-1,3.0726618E-1,-1.0318864E-1,1.0766962E0,2.5428206E-1,2.8293812E-1,1.1960353E0,9.43808E-3,-7.5198954E-1,-5.6410897E-1,2.6038912E-1,-2.6453605E-1,2.6940686E-1,1.18822925E-1,4.9178725E-1,4.4160753E-1,-4.2735615E-1,6.6723275E-1,1.4575795E0,-5.5095756E-1,6.830886E-1,-2.3214178E-1,3.318778E-1,7.5970784E-2,-0E0,2.6980102E-1,-1.111555E-1,7.1371504E-4,-1.0866337E0,-1.130755E-1,-9.748197E-1,-2.526268E-1,3.4791216E-1,2.2699356E-1,-2.8778917E-1,6.8174833E-1,-8.6247645E-2,2.0493738E-1,-8.676989E-1,5.461365E-1,-5.4572742E-2,9.708654E-1,-0E0,-8.049523E-1,5.3942716E-1,1.1327202E0,-1.9763906E-1,3.61763E-2,7.8628324E-2,2.6017262E-3,-5.6059826E-2,1.216993E0,-7.638904E-3,-4.6561327E-2,1.258106E-2,1.7974688E-2,-2.7591217E-2,1.975219E-2,-4.295581E-2,-8.909132E-3,3.1979635E-2,-6.6336624E-2,-1.8572938E-2,2.8766215E-2,-3.2353617E-2,4.0273624E-3,-5.7445515E-2,-3.5567075E-2,2.573742E-2,1.9659766E-3,2.748943E-2,7.006592E-2,2.6253501E-3,-6.084592E-3,-1.7393587E-2,5.7044107E-2,4.552626E-3,-5.8425922E-2,5.667483E-3,-1.0602563E-2,1.7568199E-2,-6.4332895E-2,-2.3668662E-3,8.872702E-3,3.7453517E-2,6.8478346E-2,-0E0,-4.3792546E-2,3.1084348E-2,1.695889E-2,-4.8832472E-2,6.93657E-2,-2.7959237E-2,9.249028E-3,7.335066E-2,-3.951543E-2,2.4422143E-2,1.631174E-2,7.850494E-2],"categories":[],"categories_nodes":[],"categories_segments":[],"categories_sizes":[],"default_left":[0,0,0,0,0,0,0,0,0,0,0,0,0,0,0,0,0,0,0,0,0,0,0,0,0,0,0,0,0,0,0,0,0,0,0,0,0,0,0,0,0,0,0,0,0,0,0,0,0,0,0,0,0,0,0,0,0,0,0,0,0,0,0,0,0,0,0,0,0,0,0,0,0,0,0,0,0,0,0,0,0,0,0,0,0,0,0,0,0,0,0,0,0,0,0,0,0,0,0,0,0,0,0,0,0,0,0,0,0],"id":12,"left_children":[1,3,5,7,9,11,13,15,17,19,21,23,25,27,29,31,33,35,37,39,41,43,45,47,49,51,53,55,57,59,61,63,65,-1,-1,67,69,-1,71,73,75,77,79,81,83,85,87,89,91,93,-1,95,97,99,101,103,105,-1,-1,-1,-1,107,-1,-1,-1,-1,-1,-1,-1,-1,-1,-1,-1,-1,-1,-1,-1,-1,-1,-1,-1,-1,-1,-1,-1,-1,-1,-1,-1,-1,-1,-1,-1,-1,-1,-1,-1,-1,-1,-1,-1,-1,-1,-1,-1,-1,-1,-1,-1],"loss_changes":[4.746902E1,4.1035862E1,1.6631748E1,2.0405119E1,3.425428E1,8.921799E0,9.606178E0,1.1721283E1,9.813352E0,4.1825825E1,2.9442196E1,9.6471E0,1.1723751E1,5.2653236E0,8.799642E0,8.846626E0,5.644287E0,8.06838E0,4.7676907E0,1.3637943E1,1.56418705E1,1.3068764E1,1.6778156E1,1.2051676E1,1.2702621E1,5.692548E0,1.5638869E1,9.135132E0,3.5929108E-1,3.237853E0,7.6203923E0,1.0638453E1,7.938057E0,0E0,0E0,1.1807276E1,8.877575E0,0E0,1.5201292E0,1.3943649E1,7.3473167E0,1.8291576E1,1.8380005E1,1.0381012E1,1.0752838E1,1.4106504E1,1.3577286E1,8.036205E0,3.7174864E0,1.00518875E1,0E0,4.3782883E0,8.463087E0,6.362068E0,1.2225019E1,4.145567E0,3.848058E0,0E0,0E0,0E0,0E0,2.507863E0,0E0,0E0,0E0,0E0,0E0,0E0,0E0,0E0,0E0,0E0,0E0,0E0,0E0,0E0,0E0,0E0,0E0,0E0,0E0,0E0,0E0,0E0,0E0,0E0,0E0,0E0,0E0,0E0,0E0,0E0,0E0,0E0,0E0,0E0,0E0,0E0,0E0,0E0,0E0,0E0,0E0,0E0,0E0,0E0,0E0,0E0,0E0],"parents":[2147483647,0,0,1,1,2,2,3,3,4,4,5,5,6,6,7,7,8,8,9,9,10,10,11,11,12,12,13,13,14,14,15,15,16,16,17,17,18,18,19,19,20,20,21,21,22,22,23,23,24,24,25,25,26,26,27,27,28,28,29,29,30,30,31,31,32,32,35,35,36,36,38,38,39,39,40,40,41,41,42,42,43,43,44,44,45,45,46,46,47,47,48,48,49,49,51,51,52,52,53,53,54,54,55,55,56,56,61,61],"right_children":[2,4,6,8,10,12,14,16,18,20,22,24,26,28,30,32,34,36,38,40,42,44,46,48,50,52,54,56,58,60,62,64,66,-1,-1,68,70,-1,72,74,76,78,80,82,84,86,88,90,92,94,-1,96,98,100,102,104,106,-1,-1,-1,-1,108,-1,-1,-1,-1,-1,-1,-1,-1,-1,-1,-1,-1,-1,-1,-1,-1,-1,-1,-1,-1,-1,-1,-1,-1,-1,-1,-1,-1,-1,-1,-1,-1,-1,-1,-1,-1,-1,-1,-1,-1,-1,-1,-1,-1,-1,-1,-1],"split_conditions":[4.867553E0,-2.7667215E-1,9.5723015E-1,8.9069974E-1,-1.1697289E0,1.858505E0,1.6366158E-1,2.207735E0,1.5029835E0,1.362694E0,2.012346E0,4.3989547E-2,1.4504455E0,3.5676503E0,2.51205E0,6.433056E-1,9.2777777E-1,-8.4305935E-2,1.440678E-1,1.5464632E-1,-2.8290703E0,-3.3333334E-1,1.4463471E-1,3.3463254E0,9.9444443E-1,7.6977324E-1,6.6692096E-1,3.0605073E0,1.2829316E-2,1.2966002E0,-9.697939E-1,2.4E-1,1.8277142E0,7.5970784E-2,-0E0,1.8960816E0,2.2355647E0,7.1371504E-4,2.4843616E0,1.724138E-1,-2.6154865E-2,1.5256588E-1,-1.1942333E0,5.42959E-1,-1.7102222E-1,1.4108595E0,2.5390577E0,-6.198339E-1,1.13037445E-1,2.4460733E-1,-5.4572742E-2,3.030303E-1,2.7458982E0,5.3405026E-3,1.6446381E0,-6.291345E-1,1.3758943E0,3.61763E-2,7.8628324E-2,2.6017262E-3,-5.6059826E-2,3.8190612E-1,-7.638904E-3,-4.6561327E-2,1.258106E-2,1.7974688E-2,-2.7591217E-2,1.975219E-2,-4.295581E-2,-8.909132E-3,3.1979635E-2,-6.6336624E-2,-1.8572938E-2,2.8766215E-2,-3.2353617E-2,4.0273624E-3,-5.7445515E-2,-3.5567075E-2,2.573742E-2,1.9659766E-3,2.748943E-2,7.006592E-2,2.6253501E-3,-6.084592E-3,-1.7393587E-2,5.7044107E-2,4.552626E-3,-5.8425922E-2,5.667483E-3,-1.0602563E-2,1.7568199E-2,-6.4332895E-2,-2.3668662E-3,8.872702E-3,3.7453517E-2,6.8478346E-2,-0E0,-4.3792546E-2,3.1084348E-2,1.695889E-2,-4.8832472E-2,6.93657E-2,-2.7959237E-2,9.249028E-3,7.335066E-2,-3.951543E-2,2.4422143E-2,1.631174E-2,7.850494E-2],"split_indices":[135,127,58,91,130,16,102,135,134,134,50,7,33,134,11,134,102,57,61,102,16,126,130,26,102,2,58,134,56,33,60,61,0,0,0,135,25,0,52,61,9,102,60,49,58,0,26,90,102,58,0,62,134,56,131,93,58,0,0,0,0,57,0,0,0,0,0,0,0,0,0,0,0,0,0,0,0,0,0,0,0,0,0,0,0,0,0,0,0,0,0,0,0,0,0,0,0,0,0,0,0,0,0,0,0,0,0,0,0],"split_type":[0,0,0,0,0,0,0,0,0,0,0,0,0,0,0,0,0,0,0,0,0,0,0,0,0,0,0,0,0,0,0,0,0,0,0,0,0,0,0,0,0,0,0,0,0,0,0,0,0,0,0,0,0,0,0,0,0,0,0,0,0,0,0,0,0,0,0,0,0,0,0,0,0,0,0,0,0,0,0,0,0,0,0,0,0,0,0,0,0,0,0,0,0,0,0,0,0,0,0,0,0,0,0,0,0,0,0,0,0],"sum_hessian":[2.7076726E3,2.2997559E3,4.0791675E2,6.3198883E2,1.6677671E3,3.4420074E2,6.371599E1,3.6036472E2,2.716241E2,4.1899973E2,1.2487675E3,2.7987735E2,6.4323395E1,4.0359577E1,2.3356413E1,3.4649542E2,1.3869295E1,2.5450993E2,1.7114187E1,7.380371E1,3.45196E2,1.1361658E3,1.1260165E2,1.3954851E2,1.4032886E2,2.3745659E1,4.0577736E1,2.090273E1,1.9456846E1,7.9358716E0,1.5420542E1,2.95631E1,3.1693234E2,1.0658383E1,3.2109122E0,8.043716E1,1.7407278E2,5.402388E0,1.17118E1,3.589901E1,3.7904697E1,4.986771E1,2.953283E2,5.0731438E1,1.0854343E3,5.1850777E1,6.0750866E1,1.2916702E2,1.0381487E1,1.3636592E2,3.962932E0,1.015914E1,1.3586519E1,2.9375416E1,1.1202318E1,1.346278E1,7.4399505E0,3.7404535E0,1.57163925E1,4.2136183E0,3.7222533E0,9.204743E0,6.2157984E0,1.1797012E1,1.7766088E1,3.0801318E2,8.91915E0,7.3069435E1,7.3677197E0,1.6062773E2,1.3445057E1,8.02328E0,3.68852E0,1.5566657E1,2.0332352E1,5.362033E0,3.2542664E1,3.133806E1,1.8529652E1,1.1746257E2,1.7786572E2,5.579077E0,4.5152363E1,2.8958115E2,7.9585315E2,2.8554968E1,2.3295809E1,8.781549E0,5.196932E1,3.327539E1,9.5891624E1,6.415029E0,3.966458E0,4.92527E1,8.711322E1,6.941867E0,3.2172725E0,5.407911E0,8.178609E0,3.6298015E0,2.5745615E1,6.22569E0,4.976628E0,3.993491E0,9.469289E0,3.988413E0,3.4515374E0,3.2395737E0,5.9651694E0],"tree_param":{"num_deleted":"0","num_feature":"138","num_nodes":"109","size_leaf_vector":"1"}},{"base_weights":[8.844371E-3,-3.724565E-2,3.4706843E-1,1.7018099E-1,-1.1212674E-1,1.1836943E-1,6.031279E-1,2.8774408E-1,1.25525845E-2,5.2522298E-2,-2.1750015E-1,-1.02838725E-1,4.0820917E-1,6.857542E-1,-5.1298972E-2,-7.314998E-1,3.2921702E-1,7.3522344E-2,-8.595248E-1,-2.5134856E-1,1.2558916E-1,-2.9060727E-1,1.2921584E-1,3.7525874E-2,-8.33071E-1,7.0154446E-1,5.6405086E-3,1.1980008E0,5.53595E-1,5.6391686E-2,-3.9149535E-1,-1.0753883E0,8.670832E-3,4.4250318E-1,6.149055E-2,3.2497025E-1,-8.347312E-2,-1.136206E0,1.3955938E-2,-9.861358E-2,-9.4840944E-1,6.849755E-2,7.6880807E-1,6.0609084E-1,-3.067629E-1,6.1637644E-2,1.0397155E0,-8.8437155E-2,8.764435E-1,9.688313E-3,-1.1866628E0,9.8140526E-1,1.3889502E-1,-1.8532291E-1,5.7379287E-2,5.7049644E-1,1.3938724E0,7.990515E-2,6.634113E-1,-7.815658E-1,2.8757114E-2,-2.1897681E-2,-6.863238E-2,3.527317E-2,1.6081974E-2,3.596304E-2,-6.5520527E-3,2.1563958E-2,-3.520334E-2,-1.3234952E-2,2.2404773E-2,-1.6940525E-2,-6.592991E-2,-7.875284E-3,6.315768E-2,-5.638341E-2,7.3024305E-3,-1.8232178E-3,1.5396048E-2,4.5859713E-2,-4.3087304E-2,-2.3583626E-2,6.0136355E-2,-4.6778552E-2,-1.4335217E-2,-2.9018032E-3,4.479E-2,6.900118E-2,8.673577E-5,4.476085E-2,-9.943345E-3,3.6838168E-4,6.459916E-2,-7.61387E-2,-2.0358056E-2,-5.618488E-3,6.272566E-2,3.6811393E-2,-3.1032061E-2,3.9708223E-2,-2.4886938E-2,6.7390405E-2,-9.341265E-3,7.686407E-2,2.402283E-2,-3.5985548E-2,2.2091404E-2,6.629648E-2,2.8699277E-2,3.0730104E-3,-5.721865E-2],"categories":[],"categories_nodes":[],"categories_segments":[],"categories_sizes":[],"default_left":[0,0,0,0,0,0,0,0,0,0,0,0,0,0,0,0,0,0,0,0,0,0,0,0,0,0,0,0,0,0,0,0,0,0,0,0,0,0,0,0,0,0,0,0,0,0,0,0,0,0,0,0,0,0,0,0,0,0,0,0,0,0,0,0,0,0,0,0,0,0,0,0,0,0,0,0,0,0,0,0,0,0,0,0,0,0,0,0,0,0,0,0,0,0,0,0,0,0,0,0,0,0,0,0,0,0,0,0,0,0,0],"id":13,"left_children":[1,3,5,7,9,11,13,15,17,19,21,23,25,27,29,31,33,35,37,39,41,43,45,47,49,51,53,55,57,-1,59,61,-1,63,65,67,69,71,-1,73,75,77,79,81,83,85,87,89,91,-1,93,95,97,99,-1,101,103,105,107,109,-1,-1,-1,-1,-1,-1,-1,-1,-1,-1,-1,-1,-1,-1,-1,-1,-1,-1,-1,-1,-1,-1,-1,-1,-1,-1,-1,-1,-1,-1,-1,-1,-1,-1,-1,-1,-1,-1,-1,-1,-1,-1,-1,-1,-1,-1,-1,-1,-1,-1,-1],"loss_changes":[4.2232155E1,3.701758E1,1.888404E1,1.1677517E1,3.0414717E1,1.1169571E1,8.363148E0,1.54848995E1,1.44144E1,1.5203884E1,2.713797E1,1.0234153E1,8.819122E0,8.362621E0,7.5597677E0,4.743345E0,1.0483967E1,1.0105181E1,5.9807873E0,1.3923392E1,2.0144464E1,1.2947723E1,1.1302607E1,8.999388E0,6.1681967E0,6.5882206E0,7.4830594E0,2.3096771E0,5.5974655E0,0E0,6.021331E0,1.2300644E0,0E0,7.433666E0,1.344555E1,1.1034676E1,1.5257449E1,1.4981194E0,0E0,8.912848E0,4.894125E0,1.2816956E1,1.163117E1,1.0834865E1,1.0559441E1,1.7585785E1,4.353347E0,8.099227E0,3.87638E0,0E0,2.3769016E0,8.831774E0,7.594025E0,9.231012E0,0E0,5.19733E0,1.6343575E0,6.6628585E0,4.3237686E0,3.5391092E0,0E0,0E0,0E0,0E0,0E0,0E0,0E0,0E0,0E0,0E0,0E0,0E0,0E0,0E0,0E0,0E0,0E0,0E0,0E0,0E0,0E0,0E0,0E0,0E0,0E0,0E0,0E0,0E0,0E0,0E0,0E0,0E0,0E0,0E0,0E0,0E0,0E0,0E0,0E0,0E0,0E0,0E0,0E0,0E0,0E0,0E0,0E0,0E0,0E0,0E0,0E0],"parents":[2147483647,0,0,1,1,2,2,3,3,4,4,5,5,6,6,7,7,8,8,9,9,10,10,11,11,12,12,13,13,14,14,15,15,16,16,17,17,18,18,19,19,20,20,21,21,22,22,23,23,24,24,25,25,26,26,27,27,28,28,30,30,31,31,33,33,34,34,35,35,36,36,37,37,39,39,40,40,41,41,42,42,43,43,44,44,45,45,46,46,47,47,48,48,50,50,51,51,52,52,53,53,55,55,56,56,57,57,58,58,59,59],"right_children":[2,4,6,8,10,12,14,16,18,20,22,24,26,28,30,32,34,36,38,40,42,44,46,48,50,52,54,56,58,-1,60,62,-1,64,66,68,70,72,-1,74,76,78,80,82,84,86,88,90,92,-1,94,96,98,100,-1,102,104,106,108,110,-1,-1,-1,-1,-1,-1,-1,-1,-1,-1,-1,-1,-1,-1,-1,-1,-1,-1,-1,-1,-1,-1,-1,-1,-1,-1,-1,-1,-1,-1,-1,-1,-1,-1,-1,-1,-1,-1,-1,-1,-1,-1,-1,-1,-1,-1,-1,-1,-1,-1,-1],"split_conditions":[1E0,-2.7667215E-1,1.9181645E0,8.9069974E-1,-8.721174E-1,2.97192E0,-5.2380955E-1,-8.227049E-1,1.5029835E0,2.7242854E0,4.414029E-1,5.308057E-1,1.3149334E0,4.0861717E-1,3.9723602E-1,4.5194707E0,1E0,-2.2361317E-1,4.111427E-1,-2.6207143E-1,-1.4255154E-1,-1.4073461E0,1.1675742E0,1.4081343E0,6.0436227E-3,9.412508E-1,1.8277142E0,-7.801474E-1,2.1329997E-1,5.6391686E-2,3.7084045E0,-3.3122232E0,8.670832E-3,-1.5493671E0,-3.784651E-1,1.8960816E0,1.4769646E0,-5.6914246E-1,1.3955938E-2,1.1762134E-1,3.9372465E-1,1.3052382E0,1.3993285E0,6.483907E-3,-1.7304627E0,1.7958411E0,1.5683059E0,-1.2371792E0,-3.5807505E-1,9.688313E-3,1.0659333E0,3.0649927E-1,1E0,4.2369514E0,5.7379287E-2,5.948513E-1,3.775642E0,2.1940929E-1,-8.903511E-1,6.9049805E-1,2.8757114E-2,-2.1897681E-2,-6.863238E-2,3.527317E-2,1.6081974E-2,3.596304E-2,-6.5520527E-3,2.1563958E-2,-3.520334E-2,-1.3234952E-2,2.2404773E-2,-1.6940525E-2,-6.592991E-2,-7.875284E-3,6.315768E-2,-5.638341E-2,7.3024305E-3,-1.8232178E-3,1.5396048E-2,4.5859713E-2,-4.3087304E-2,-2.3583626E-2,6.0136355E-2,-4.6778552E-2,-1.4335217E-2,-2.9018032E-3,4.479E-2,6.900118E-2,8.673577E-5,4.476085E-2,-9.943345E-3,3.6838168E-4,6.459916E-2,-7.61387E-2,-2.0358056E-2,-5.618488E-3,6.272566E-2,3.6811393E-2,-3.1032061E-2,3.9708223E-2,-2.4886938E-2,6.7390405E-2,-9.341265E-3,7.686407E-2,2.402283E-2,-3.5985548E-2,2.2091404E-2,6.629648E-2,2.8699277E-2,3.0730104E-3,-5.721865E-2],"split_indices":[127,127,134,91,131,132,60,28,134,135,58,61,37,5,42,52,96,131,130,42,26,24,57,14,13,28,0,36,57,0,43,37,0,60,28,135,5,0,0,3,61,14,93,28,33,42,42,95,93,0,42,59,97,132,0,59,50,61,36,24,0,0,0,0,0,0,0,0,0,0,0,0,0,0,0,0,0,0,0,0,0,0,0,0,0,0,0,0,0,0,0,0,0,0,0,0,0,0,0,0,0,0,0,0,0,0,0,0,0,0,0],"split_type":[0,0,0,0,0,0,0,0,0,0,0,0,0,0,0,0,0,0,0,0,0,0,0,0,0,0,0,0,0,0,0,0,0,0,0,0,0,0,0,0,0,0,0,0,0,0,0,0,0,0,0,0,0,0,0,0,0,0,0,0,0,0,0,0,0,0,0,0,0,0,0,0,0,0,0,0,0,0,0,0,0,0,0,0,0,0,0,0,0,0,0,0,0,0,0,0,0,0,0,0,0,0,0,0,0,0,0,0,0,0,0],"sum_hessian":[2.705326E3,2.3814045E3,3.2392142E2,6.3096704E2,1.7504375E3,1.720807E2,1.518407E2,3.605788E2,2.7038824E2,6.8291516E2,1.0675223E3,9.776545E1,7.4315254E1,1.34912E2,1.6928703E1,1.3353456E1,3.4722534E2,2.5368283E2,1.6705427E1,1.3164026E2,5.512749E2,8.8199805E2,1.8552432E2,8.268372E1,1.5081724E1,4.2416798E1,3.1898458E1,2.5859509E1,1.0905249E2,3.2063136E0,1.3722389E1,9.619828E0,3.7336268E0,2.4326393E2,1.039614E2,9.734294E1,1.5633989E2,1.3512068E1,3.1933596E0,1.0903436E2,2.26059E1,5.0749222E2,4.3782646E1,1.4853728E1,8.6714435E2,1.738021E2,1.1722236E1,7.2563705E1,1.0120021E1,3.906466E0,1.1175259E1,2.7711273E1,1.47055235E1,2.7971096E1,3.9273634E0,7.203892E0,1.8655617E1,2.1020288E1,8.80322E1,9.987151E0,3.7352374E0,3.9529476E0,5.6668806E0,7.481863E1,1.684453E2,2.303785E1,8.092355E1,8.884274E1,8.5001955E0,1.1710562E2,3.9234264E1,3.149354E0,1.0362714E1,1.0543251E2,3.6018486E0,1.9476856E1,3.1290438E0,3.531175E2,1.5437476E2,4.0587837E1,3.194812E0,5.3077154E0,9.546013E0,2.5241173E1,8.4190314E2,1.5270474E2,2.1097351E1,8.507225E0,3.2150106E0,6.5154085E0,6.6048294E1,3.6806164E0,6.4394045E0,7.0525E0,4.1227584E0,5.5812454E0,2.2130028E1,8.322605E0,6.382918E0,6.313836E0,2.1657259E1,3.2354162E0,3.9684763E0,1.5439144E1,3.2164721E0,6.155571E0,1.4864717E1,8.691932E0,7.934027E1,3.1718793E0,6.8152723E0],"tree_param":{"num_deleted":"0","num_feature":"138","num_nodes":"111","size_leaf_vector":"1"}},{"base_weights":[-1.5520966E-2,-6.355671E-2,2.7388817E-1,1.2828943E-1,-1.3681383E-1,2.2919263E-1,1.324096E0,2.3320386E-1,-1.1455849E-2,2.2141646E-1,-1.8085828E-1,1.40854E-1,5.5099267E-1,7.955759E-2,1.46752475E-2,-6.9077575E-1,2.6969436E-1,-2.081164E-1,2.0799275E-1,6.18146E-1,7.20373E-2,-2.2639522E-1,4.3737117E-2,1.7925638E-1,-1.0177895E0,2.743602E-1,7.757655E-1,-1.8546046E-1,-6.0543455E-2,-1.6295667E-1,3.1564757E-1,1.3036732E-1,-3.710825E-1,4.9483532E-1,-2.7193584E-2,8.1716913E-1,-4.4780558E-1,-1.04855955E-1,7.102513E-1,-1.1606174E-1,-3.3283567E-1,1.105951E0,-7.519892E-3,1.22203305E-1,6.781193E-1,-0E0,-7.788223E-2,1.005739E0,-7.180023E-2,1.2170954E0,3.9096406E-1,1.6442845E-2,-3.682961E-2,-3.895227E-2,9.464751E-3,1.2558691E-2,3.4166113E-2,4.6860974E-2,-6.6332496E-3,-2.4854423E-2,1.9051135E-2,4.8354633E-2,-8.114109E-4,3.549796E-2,-9.901527E-3,7.61944E-3,5.927061E-2,-6.802499E-2,1.7723909E-2,-2.1346105E-2,8.375358E-3,-1.1389818E-2,4.9344063E-2,-7.900548E-3,2.5796527E-2,8.777275E-3,-1.8547142E-2,9.3349986E-2,-1.6146732E-2,-3.7497945E-2,3.3935371E-3,9.105242E-3,-1.9770674E-2,-5.275613E-3,5.529965E-2,-9.4884896E-4,7.860506E-2,-6.167087E-2,7.8592E-3,7.674761E-2,3.073517E-2,1.9740015E-3,6.078226E-2],"categories":[],"categories_nodes":[],"categories_segments":[],"categories_sizes":[],"default_left":[0,0,0,0,0,0,0,0,0,0,0,0,0,0,0,0,0,0,0,0,0,0,0,0,0,0,0,0,0,0,0,0,0,0,0,0,0,0,0,0,0,0,0,0,0,0,0,0,0,0,0,0,0,0,0,0,0,0,0,0,0,0,0,0,0,0,0,0,0,0,0,0,0,0,0,0,0,0,0,0,0,0,0,0,0,0,0,0,0,0,0,0,0],"id":14,"left_children":[1,3,5,7,9,11,13,15,17,19,21,23,25,-1,-1,27,29,31,33,35,37,39,41,43,45,47,49,51,-1,53,55,57,59,61,63,65,67,69,71,73,75,77,79,81,83,-1,-1,85,87,89,91,-1,-1,-1,-1,-1,-1,-1,-1,-1,-1,-1,-1,-1,-1,-1,-1,-1,-1,-1,-1,-1,-1,-1,-1,-1,-1,-1,-1,-1,-1,-1,-1,-1,-1,-1,-1,-1,-1,-1,-1,-1,-1],"loss_changes":[3.7492397E1,3.2544254E1,1.7558403E1,9.403213E0,2.6474714E1,1.035626E1,3.5742283E0,1.2478443E1,1.1904778E1,1.077113E1,1.52976265E1,1.3067806E1,4.5938168E0,0E0,0E0,3.3349004E0,7.0799294E0,8.108848E0,8.840781E0,1.0994211E1,1.5346913E1,1.450071E1,1.3846502E1,7.893482E0,5.2889996E0,9.57294E0,6.637657E0,2.6689682E0,0E0,7.6544385E0,7.3070736E0,1.0367976E1,9.56434E0,1.4322235E1,9.191128E0,1.00901985E1,6.74956E0,9.417581E0,7.9539185E0,1.6264748E1,1.2310539E1,1.3484593E1,1.3633368E1,7.969939E0,9.8231325E0,0E0,0E0,7.2053757E0,7.233567E0,2.5479355E0,6.9214277E0,0E0,0E0,0E0,0E0,0E0,0E0,0E0,0E0,0E0,0E0,0E0,0E0,0E0,0E0,0E0,0E0,0E0,0E0,0E0,0E0,0E0,0E0,0E0,0E0,0E0,0E0,0E0,0E0,0E0,0E0,0E0,0E0,0E0,0E0,0E0,0E0,0E0,0E0,0E0,0E0,0E0,0E0],"parents":[2147483647,0,0,1,1,2,2,3,3,4,4,5,5,6,6,7,7,8,8,9,9,10,10,11,11,12,12,15,15,16,16,17,17,18,18,19,19,20,20,21,21,22,22,23,23,24,24,25,25,26,26,27,27,29,29,30,30,31,31,32,32,33,33,34,34,35,35,36,36,37,37,38,38,39,39,40,40,41,41,42,42,43,43,44,44,47,47,48,48,49,49,50,50],"right_children":[2,4,6,8,10,12,14,16,18,20,22,24,26,-1,-1,28,30,32,34,36,38,40,42,44,46,48,50,52,-1,54,56,58,60,62,64,66,68,70,72,74,76,78,80,82,84,-1,-1,86,88,90,92,-1,-1,-1,-1,-1,-1,-1,-1,-1,-1,-1,-1,-1,-1,-1,-1,-1,-1,-1,-1,-1,-1,-1,-1,-1,-1,-1,-1,-1,-1,-1,-1,-1,-1,-1,-1,-1,-1,-1,-1,-1,-1],"split_conditions":[5E0,-1.7361455E-1,1.4262037E0,8.9069974E-1,-1.4073461E0,1.529785E0,1.2371792E0,-8.227049E-1,-3.3333334E-1,-1.3614582E0,5.190899E-1,1.4958947E0,3.697415E-1,7.955759E-2,1.46752475E-2,-3.1788704E-1,7.270537E-1,-2.2361317E-1,-2.550369E-1,5.121951E-1,-1.0031959E0,-3.6016622E-1,5.26698E-1,1.7142954E0,6.8961686E-1,-6.198339E-1,-7.7887994E-1,