{"learner":{"attributes":{},"feature_names":[],"feature_types":[],"gradient_booster":{"model":{"cats":{"enc":[],"feature_segments":[],"sorted_idx":[]},"gbtree_model_param":{"num_parallel_tree":"1","num_trees":"500"},"iteration_indptr":[0,1,2,3,4,5,6,7,8,9,10,11,12,13,14,15,16,17,18,19,20,21,22,23,24,25,26,27,28,29,30,31,32,33,34,35,36,37,38,39,40,41,42,43,44,45,46,47,48,49,50,51,52,53,54,55,56,57,58,59,60,61,62,63,64,65,66,67,68,69,70,71,72,73,74,75,76,77,78,79,80,81,82,83,84,85,86,87,88,89,90,91,92,93,94,95,96,97,98,99,100,101,102,103,104,105,106,107,108,109,110,111,112,113,114,115,116,117,118,119,120,121,122,123,124,125,126,127,128,129,130,131,132,133,134,135,136,137,138,139,140,141,142,143,144,145,146,147,148,149,150,151,152,153,154,155,156,157,158,159,160,161,162,163,164,165,166,167,168,169,170,171,172,173,174,175,176,177,178,179,180,181,182,183,184,185,186,187,188,189,190,191,192,193,194,195,196,197,198,199,200,201,202,203,204,205,206,207,208,209,210,211,212,213,214,215,216,217,218,219,220,221,222,223,224,225,226,227,228,229,230,231,232,233,234,235,236,237,238,239,240,241,242,243,244,245,246,247,248,249,250,251,252,253,254,255,256,257,258,259,260,261,262,263,264,265,266,267,268,269,270,271,272,273,274,275,276,277,278,279,280,281,282,283,284,285,286,287,288,289,290,291,292,293,294,295,296,297,298,299,300,301,302,303,304,305,306,307,308,309,310,311,312,313,314,315,316,317,318,319,320,321,322,323,324,325,326,327,328,329,330,331,332,333,334,335,336,337,338,339,340,341,342,343,344,345,346,347,348,349,350,351,352,353,354,355,356,357,358,359,360,361,362,363,364,365,366,367,368,369,370,371,372,373,374,375,376,377,378,379,380,381,382,383,384,385,386,387,388,389,390,391,392,393,394,395,396,397,398,399,400,401,402,403,404,405,406,407,408,409,410,411,412,413,414,415,416,417,418,419,420,421,422,423,424,425,426,427,428,429,430,431,432,433,434,435,436,437,438,439,440,441,442,443,444,445,446,447,448,449,450,451,452,453,454,455,456,457,458,459,460,461,462,463,464,465,466,467,468,469,470,471,472,473,474,475,476,477,478,479,480,481,482,483,484,485,486,487,488,489,490,491,492,493,494,495,496,497,498,499,500],"tree_info":[0,0,0,0,0,0,0,0,0,0,0,0,0,0,0,0,0,0,0,0,0,0,0,0,0,0,0,0,0,0,0,0,0,0,0,0,0,0,0,0,0,0,0,0,0,0,0,0,0,0,0,0,0,0,0,0,0,0,0,0,0,0,0,0,0,0,0,0,0,0,0,0,0,0,0,0,0,0,0,0,0,0,0,0,0,0,0,0,0,0,0,0,0,0,0,0,0,0,0,0,0,0,0,0,0,0,0,0,0,0,0,0,0,0,0,0,0,0,0,0,0,0,0,0,0,0,0,0,0,0,0,0,0,0,0,0,0,0,0,0,0,0,0,0,0,0,0,0,0,0,0,0,0,0,0,0,0,0,0,0,0,0,0,0,0,0,0,0,0,0,0,0,0,0,0,0,0,0,0,0,0,0,0,0,0,0,0,0,0,0,0,0,0,0,0,0,0,0,0,0,0,0,0,0,0,0,0,0,0,0,0,0,0,0,0,0,0,0,0,0,0,0,0,0,0,0,0,0,0,0,0,0,0,0,0,0,0,0,0,0,0,0,0,0,0,0,0,0,0,0,0,0,0,0,0,0,0,0,0,0,0,0,0,0,0,0,0,0,0,0,0,0,0,0,0,0,0,0,0,0,0,0,0,0,0,0,0,0,0,0,0,0,0,0,0,0,0,0,0,0,0,0,0,0,0,0,0,0,0,0,0,0,0,0,0,0,0,0,0,0,0,0,0,0,0,0,0,0,0,0,0,0,0,0,0,0,0,0,0,0,0,0,0,0,0,0,0,0,0,0,0,0,0,0,0,0,0,0,0,0,0,0,0,0,0,0,0,0,0,0,0,0,0,0,0,0,0,0,0,0,0,0,0,0,0,0,0,0,0,0,0,0,0,0,0,0,0,0,0,0,0,0,0,0,0,0,0,0,0,0,0,0,0,0,0,0,0,0,0,0,0,0,0,0,0,0,0,0,0,0,0,0,0,0,0,0,0,0,0,0,0,0,0,0,0,0,0,0,0,0,0,0,0,0,0,0,0,0,0,0,0,0,0,0,0,0,0,0,0,0,0,0,0,0,0,0,0,0,0,0,0,0,0,0,0,0,0,0,0,0,0,0,0,0,0,0,0,0,0,0],"trees":[{"base_weights":[-5.5538485E-4,-8.367664E-1,1.1480117E0,-1.1046191E0,-5.383069E-1,4.2019394E-1,2.1546466E0,-1.1099305E0,2.3004901E0,-1.0855457E0,-8.3256006E-2,-8.404345E-1,7.003818E-1,2.2424526E0,1.9945015E0,-1.1404005E0,-8.6246514E-1,-5.129149E-4,2.9587913E0,-1.1101426E0,3.3868343E-1,6.844806E-1,-6.1814845E-1,1.569757E0,-9.142295E-1,4.4052038E-1,1.4033794E0,2.2559595E0,1.0735341E0,2.1045191E0,1.7805744E0,-1.1491209E0,-1.0837458E0,-9.7220767E-1,-6.7489713E-1,3.868452E-2,3.4133413E0,-1.1361003E0,-7.7310354E-1,-1.0668488E-1,1.1537459E0,-3.759003E-1,7.155844E-1,-6.7474335E-1,3.0462322E0,6.694959E-1,2.836956E0,-9.7912246E-1,2.1866523E-1,6.057197E-1,-4.653549E-1,1.2049323E0,2.3923285E0,2.0198805E0,2.3154345E0,5.852816E-2,2.4902632E0,1.7410407E0,2.2304165E0,1.7030379E0,2.71748E0,-1.5848631E-2,-1.1493889E-1,-1.0870104E-1,3.868452E-2,-3.5280932E-3,-9.8230794E-2,-7.146248E-2,1.3675027E-2,3.8557306E-1,8.755598E-2,-6.263451E-2,-1.1377025E-1,-1.0916417E-1,2.1536468E-1,1.784095E-1,1.8255897E-2,-9.75114E-2,1.8628025E-1,1.0554165E-1,6.1608832E-2,-8.235594E-2,-3.999393E-2,3.4300074E-2,3.3751824E-1,-1.465126E-3,1.5913449E-1,-1.01869395E-2,3.259938E-1,-9.849838E-2,1.2288439E-1,1.4343943E-1,-1.3057445E-2,1.955968E-1,5.2153196E-2,-6.361827E-2,-2.21025E-2,9.572709E-2,2.1427643E-1,-2.2912433E-2,2.4599242E-1,2.0478418E-1,2.1217437E-2,2.8267452E-1,2.2842748E-1,1.3714121E-1,-8.097862E-2,3.7789163E-1,6.511792E-2,2.108333E-1,1.3441022E-1,2.1599808E-1,3.0328724E-1,2.0111416E-1,1.4678487E-1,1.20231055E-1,3.1653175E-1],"categories":[],"categories_nodes":[],"categories_segments":[],"categories_sizes":[],"default_left":[0,0,0,0,0,0,0,0,0,0,0,0,0,0,0,0,0,0,0,0,0,0,0,0,0,0,0,0,0,0,0,0,0,0,0,0,0,0,0,0,0,0,0,0,0,0,0,0,0,0,0,0,0,0,0,0,0,0,0,0,0,0,0,0,0,0,0,0,0,0,0,0,0,0,0,0,0,0,0,0,0,0,0,0,0,0,0,0,0,0,0,0,0,0,0,0,0,0,0,0,0,0,0,0,0,0,0,0,0,0,0,0,0,0,0,0,0],"id":0,"left_children":[1,3,5,7,9,11,13,15,17,19,21,23,25,27,29,31,33,-1,35,37,39,41,43,45,47,49,51,53,55,57,59,61,63,65,67,-1,69,71,73,-1,75,77,79,81,83,85,87,89,91,93,95,97,99,101,103,105,107,109,111,113,115,-1,-1,-1,-1,-1,-1,-1,-1,-1,-1,-1,-1,-1,-1,-1,-1,-1,-1,-1,-1,-1,-1,-1,-1,-1,-1,-1,-1,-1,-1,-1,-1,-1,-1,-1,-1,-1,-1,-1,-1,-1,-1,-1,-1,-1,-1,-1,-1,-1,-1,-1,-1,-1,-1,-1,-1],"loss_changes":[1.5235383E4,7.332549E2,4.8955264E3,9.003125E1,1.0815867E3,1.3710608E3,3.495996E1,3.543701E1,1.1942463E1,6.945923E1,9.747875E2,1.2700656E2,5.7939844E2,2.6045898E1,1.9837402E1,8.7841797E-1,1.03280945E1,0E0,5.828102E0,1.6083252E1,4.0462288E1,3.241855E1,2.9217395E2,2.2448368E1,5.0622314E1,3.4740637E2,1.6519519E2,2.0338867E1,3.2216026E1,2.6148193E1,2.056665E1,8.0126953E-1,3.256958E0,3.1296387E0,6.5544357E0,0E0,2.3144112E0,7.558594E-1,1.3452045E2,0E0,1.3238014E1,3.9958576E1,3.138095E1,5.60437E1,1.7924011E1,8.718313E0,1.0967514E1,9.605652E0,1.6306576E1,2.2203693E2,1.4815491E1,1.6409045E2,2.5746948E1,1.8082886E1,1.6106445E1,1.722487E1,1.974435E1,2.2444763E1,2.0798096E1,2.045282E1,1.3042526E1,0E0,0E0,0E0,0E0,0E0,0E0,0E0,0E0,0E0,0E0,0E0,0E0,0E0,0E0,0E0,0E0,0E0,0E0,0E0,0E0,0E0,0E0,0E0,0E0,0E0,0E0,0E0,0E0,0E0,0E0,0E0,0E0,0E0,0E0,0E0,0E0,0E0,0E0,0E0,0E0,0E0,0E0,0E0,0E0,0E0,0E0,0E0,0E0,0E0,0E0,0E0,0E0,0E0,0E0,0E0,0E0],"parents":[2147483647,0,0,1,1,2,2,3,3,4,4,5,5,6,6,7,7,8,8,9,9,10,10,11,11,12,12,13,13,14,14,15,15,16,16,18,18,19,19,20,20,21,21,22,22,23,23,24,24,25,25,26,26,27,27,28,28,29,29,30,30,31,31,32,32,33,33,34,34,36,36,37,37,38,38,40,40,41,41,42,42,43,43,44,44,45,45,46,46,47,47,48,48,49,49,50,50,51,51,52,52,53,53,54,54,55,55,56,56,57,57,58,58,59,59,60,60],"right_children":[2,4,6,8,10,12,14,16,18,20,22,24,26,28,30,32,34,-1,36,38,40,42,44,46,48,50,52,54,56,58,60,62,64,66,68,-1,70,72,74,-1,76,78,80,82,84,86,88,90,92,94,96,98,100,102,104,106,108,110,112,114,116,-1,-1,-1,-1,-1,-1,-1,-1,-1,-1,-1,-1,-1,-1,-1,-1,-1,-1,-1,-1,-1,-1,-1,-1,-1,-1,-1,-1,-1,-1,-1,-1,-1,-1,-1,-1,-1,-1,-1,-1,-1,-1,-1,-1,-1,-1,-1,-1,-1,-1,-1,-1,-1,-1,-1,-1],"split_conditions":[8.027762E-2,5.0044633E-2,1E0,1E0,2.7164166E0,-3.3333334E-1,2.264903E-1,1E0,-3.037623E-1,7.970247E-2,5E0,-2.2539082E-1,1.4408402E-1,3.2263997E0,6.449376E-2,1E0,3.8776785E-2,-5.129149E-4,-9.795071E-3,7.722085E-2,2.4736013E0,2.826149E0,1E0,2.5364634E-1,2.1157067E-1,1E0,4.7850206E-2,-1.2932208E0,-1.5384616E-1,6.198091E-1,1.6145308E-1,-6.793478E-2,5.102892E-3,-2.7361178E-1,3.2284033E-1,3.868452E-2,-5.4304117E-1,-2.0476548E-1,2.5462463E0,-1.0668488E-1,1.5092725E-2,7.453372E-2,-2.6329497E-1,1E0,-6.7927337E-1,2.163254E-1,-1.9599628E0,3.4984303E-1,-9.364588E-1,2.9049053E0,1.04566E-1,1.1673212E0,-6.578467E-1,2.3403225E-2,-1.0426185E0,-4.885535E-1,-7.320344E-2,9.924886E-1,6.2413316E-2,7.5282204E-1,-2.0030826E-1,-1.5848631E-2,-1.1493889E-1,-1.0870104E-1,3.868452E-2,-3.5280932E-3,-9.8230794E-2,-7.146248E-2,1.3675027E-2,3.8557306E-1,8.755598E-2,-6.263451E-2,-1.1377025E-1,-1.0916417E-1,2.1536468E-1,1.784095E-1,1.8255897E-2,-9.75114E-2,1.8628025E-1,1.0554165E-1,6.1608832E-2,-8.235594E-2,-3.999393E-2,3.4300074E-2,3.3751824E-1,-1.465126E-3,1.5913449E-1,-1.01869395E-2,3.259938E-1,-9.849838E-2,1.2288439E-1,1.4343943E-1,-1.3057445E-2,1.955968E-1,5.2153196E-2,-6.361827E-2,-2.21025E-2,9.572709E-2,2.1427643E-1,-2.2912433E-2,2.4599242E-1,2.0478418E-1,2.1217437E-2,2.8267452E-1,2.2842748E-1,1.3714121E-1,-8.097862E-2,3.7789163E-1,6.511792E-2,2.108333E-1,1.3441022E-1,2.1599808E-1,3.0328724E-1,2.0111416E-1,1.4678487E-1,1.20231055E-1,3.1653175E-1],"split_indices":[14,14,126,116,135,127,3,115,9,14,135,24,14,4,102,112,14,0,58,14,135,135,116,14,14,112,102,1,60,34,57,58,15,27,27,0,0,24,135,0,24,14,52,115,28,93,1,24,17,135,14,127,131,6,8,27,6,4,102,4,28,0,0,0,0,0,0,0,0,0,0,0,0,0,0,0,0,0,0,0,0,0,0,0,0,0,0,0,0,0,0,0,0,0,0,0,0,0,0,0,0,0,0,0,0,0,0,0,0,0,0,0,0,0,0,0,0],"split_type":[0,0,0,0,0,0,0,0,0,0,0,0,0,0,0,0,0,0,0,0,0,0,0,0,0,0,0,0,0,0,0,0,0,0,0,0,0,0,0,0,0,0,0,0,0,0,0,0,0,0,0,0,0,0,0,0,0,0,0,0,0,0,0,0,0,0,0,0,0,0,0,0,0,0,0,0,0,0,0,0,0,0,0,0,0,0,0,0,0,0,0,0,0,0,0,0,0,0,0,0,0,0,0,0,0,0,0,0,0,0,0,0,0,0,0,0,0],"sum_hessian":[1.5860848E4,9.178638E3,6.68221E3,4.8359277E3,4.34271E3,3.8790178E3,2.803192E3,4.8290693E3,6.8583174E0,1.9710107E3,2.3716992E3,7.050118E2,3.174006E3,1.8021101E3,1.00108185E3,4.2964453E3,5.326239E2,1.7436401E0,5.1146774E0,1.9377653E3,3.3245403E1,9.7376483E2,1.3979343E3,2.0342466E1,6.846693E2,2.3185762E3,8.554298E2,1.7806052E3,2.1504894E1,6.5525995E2,3.4582193E2,3.70663E3,5.898153E2,3.3338397E2,1.9923993E2,1.0461841E0,4.0684934E0,1.7969955E3,1.4076987E2,1.2089237E1,2.1156166E1,2.743327E1,9.4633154E2,1.3774756E3,2.045871E1,1.2786694E1,7.5557737E0,6.4770416E2,3.6965168E1,1.9612463E3,3.5732996E2,7.143112E2,1.411186E2,3.653507E2,1.4152545E3,1.3135422E1,8.3694725E0,1.7238788E2,4.8287204E2,3.219922E2,2.3829748E1,1.1624267E0,3.7054675E3,5.887691E2,1.0461841E0,3.6035228E0,3.2978046E2,1.9005676E2,9.183171E0,3.0223093E0,1.0461841E0,6.8583174E0,1.7901371E3,1.2751821E2,1.3251664E1,1.2321723E1,8.834443E0,2.2086107E1,5.3471627E0,2.1214287E2,7.341887E2,8.9227875E2,4.851969E2,2.441096E0,1.8017614E1,7.9045014E0,4.882192E0,1.0461841E0,6.5095897E0,6.4654175E2,1.1624267E0,7.5557737E0,2.9409395E1,1.13801575E2,1.8474447E3,2.0935304E2,1.4797691E2,5.6668304E2,1.4762819E2,3.4872801E0,1.3763132E2,3.5965482E2,5.695891E0,7.613895E1,1.3391156E3,4.998435E0,8.136987E0,4.3009787E0,4.0684934E0,8.729825E1,8.508964E1,4.473018E2,3.5570255E1,1.3612016E2,1.8587202E2,6.2771044E0,1.7552643E1],"tree_param":{"num_deleted":"0","num_feature":"138","num_nodes":"117","size_leaf_vector":"1"}},{"base_weights":[-5.010459E-3,-8.024246E-1,9.424224E-1,-1.0846461E0,-5.008878E-1,1.6411219E0,3.155812E-1,-1.0898223E0,1.6502821E0,-1.0738095E0,-5.695504E-2,1.5157491E0,1.7129508E0,5.5173755E-1,-8.225725E-1,-1.1209581E0,-8.4287745E-1,-1.4858808E-1,2.2212472E0,-1.0960684E0,1.20480575E-1,6.1746913E-1,-5.816176E-1,1.5300043E0,4.636052E-1,1.9936628E0,1.6772561E0,2.2765866E-1,9.60296E-1,3.6483002E-1,-9.3023556E-1,-1.13484465E-1,-1.0786692E0,-8.685773E-1,4.1534588E-2,-6.10709E-2,3.951749E-2,-1.4114435E-2,2.6929514E0,-1.1198095E0,-8.0307966E-1,-1.0417103E-1,6.8471944E-1,-2.707928E-1,6.450367E-1,-6.375092E-1,2.3944588E0,1.1196027E0,1.5669245E0,-4.6188667E-1,1.159974E0,1.6072488E0,2.2965732E0,1.7732997E0,1.5664865E0,6.249444E-1,-5.9579726E-2,8.545131E-1,2.1351326E0,1.7049147E0,2.9580522E-2,-9.851373E-1,-2.6484874E-1,-1.0814966E-1,4.1082166E-3,7.477068E-2,-8.810777E-2,9.747612E-2,-5.3807635E-2,-1.0303686E-2,3.3252484E-1,-1.1287056E-2,-1.1203984E-1,-1.12033986E-1,8.899461E-2,4.0184584E-2,2.995144E-1,-9.6665315E-2,1.4122446E-1,4.915924E-2,8.19143E-2,-3.943839E-2,-7.728595E-2,7.009225E-2,2.6705322E-1,1.4746788E-1,6.894745E-2,1.7234443E-1,1.4280902E-1,-8.549034E-2,6.2710285E-2,-4.7820605E-2,2.0310979E-1,1.3861956E-1,2.9999036E-1,2.4044216E-1,6.7976356E-2,1.0450082E-1,1.7969798E-1,1.5114473E-1,2.2530861E-1,8.281891E-2,4.089243E-2,-1.33056715E-2,1.9241188E-1,6.223283E-2,1.5098546E-1,2.2170086E-1,1.0690116E-2,-3.8483232E-2,2.1445441E-1,-7.168754E-2,3.5945073E-2,-9.918598E-2,1.1050751E-1,5.122252E-2,-5.154416E-2],"categories":[],"categories_nodes":[],"categories_segments":[],"categories_sizes":[],"default_left":[0,0,0,0,0,0,0,0,0,0,0,0,0,0,0,0,0,0,0,0,0,0,0,0,0,0,0,0,0,0,0,0,0,0,0,0,0,0,0,0,0,0,0,0,0,0,0,0,0,0,0,0,0,0,0,0,0,0,0,0,0,0,0,0,0,0,0,0,0,0,0,0,0,0,0,0,0,0,0,0,0,0,0,0,0,0,0,0,0,0,0,0,0,0,0,0,0,0,0,0,0,0,0,0,0,0,0,0,0,0,0,0,0,0,0,0,0],"id":1,"left_children":[1,3,5,7,9,11,13,15,17,19,21,23,25,27,29,31,33,35,37,39,41,43,45,47,49,51,53,55,57,59,61,-1,63,65,67,-1,-1,-1,69,71,73,-1,75,77,79,81,83,85,87,89,91,93,95,97,99,101,103,105,107,109,111,113,115,-1,-1,-1,-1,-1,-1,-1,-1,-1,-1,-1,-1,-1,-1,-1,-1,-1,-1,-1,-1,-1,-1,-1,-1,-1,-1,-1,-1,-1,-1,-1,-1,-1,-1,-1,-1,-1,-1,-1,-1,-1,-1,-1,-1,-1,-1,-1,-1,-1,-1,-1,-1,-1,-1],"loss_changes":[1.206603E4,7.3745264E2,3.1962183E3,6.5200195E1,1.0667435E3,2.8484375E1,1.0348726E3,3.3430176E1,9.42816E0,4.8809814E1,8.3695575E2,1.8276123E1,1.8564941E1,4.2186517E2,8.493329E1,1.105957E0,1.1505493E1,1.013154E0,7.9427757E0,1.1605469E1,2.3274174E1,2.5518677E1,2.2280762E2,1.7162598E1,1.2365702E1,2.4561096E1,1.7927734E1,2.0305046E2,1.7338281E2,2.4986637E1,2.1912964E1,0E0,3.2132568E0,1.0567078E1,8.74826E0,0E0,0E0,0E0,1.0431778E1,8.581543E-1,7.5275185E1,0E0,1.4327376E1,3.8676804E1,2.642331E1,4.2690918E1,9.692017E0,1.525592E1,2.2374512E1,4.215327E0,1.6325264E1,2.9519653E1,2.1552124E1,1.5968262E1,3.1073486E1,3.244043E1,1.508834E2,1.9611108E2,1.8991089E1,1.1054501E1,1.1484694E1,8.96991E0,9.539682E0,0E0,0E0,0E0,0E0,0E0,0E0,0E0,0E0,0E0,0E0,0E0,0E0,0E0,0E0,0E0,0E0,0E0,0E0,0E0,0E0,0E0,0E0,0E0,0E0,0E0,0E0,0E0,0E0,0E0,0E0,0E0,0E0,0E0,0E0,0E0,0E0,0E0,0E0,0E0,0E0,0E0,0E0,0E0,0E0,0E0,0E0,0E0,0E0,0E0,0E0,0E0,0E0,0E0,0E0],"parents":[2147483647,0,0,1,1,2,2,3,3,4,4,5,5,6,6,7,7,8,8,9,9,10,10,11,11,12,12,13,13,14,14,15,15,16,16,17,17,18,18,19,19,20,20,21,21,22,22,23,23,24,24,25,25,26,26,27,27,28,28,29,29,30,30,32,32,33,33,34,34,38,38,39,39,40,40,42,42,43,43,44,44,45,45,46,46,47,47,48,48,49,49,50,50,51,51,52,52,53,53,54,54,55,55,56,56,57,57,58,58,59,59,60,60,61,61,62,62],"right_children":[2,4,6,8,10,12,14,16,18,20,22,24,26,28,30,32,34,36,38,40,42,44,46,48,50,52,54,56,58,60,62,-1,64,66,68,-1,-1,-1,70,72,74,-1,76,78,80,82,84,86,88,90,92,94,96,98,100,102,104,106,108,110,112,114,116,-1,-1,-1,-1,-1,-1,-1,-1,-1,-1,-1,-1,-1,-1,-1,-1,-1,-1,-1,-1,-1,-1,-1,-1,-1,-1,-1,-1,-1,-1,-1,-1,-1,-1,-1,-1,-1,-1,-1,-1,-1,-1,-1,-1,-1,-1,-1,-1,-1,-1,-1,-1,-1,-1],"split_conditions":[8.027762E-2,5.0044633E-2,2E0,1E0,2.7164166E0,1.3888889E-2,1E0,5E0,-5.633655E-1,7.970247E-2,5E0,4.001292E0,-1.9431311E0,1.20846644E-1,-2.835715E-1,3.2146797E-1,3.2284033E-1,4.2641655E-2,-1.9305502E0,2.5619483E0,2.485978E0,2.9049053E0,1E0,-8.508903E-1,-1.2371792E0,-2.2069828E-1,-3.888781E-3,5E0,1E0,-3.424168E-1,1.7929977E-1,-1.13484465E-1,5.1472555E-3,-2.0296243E-1,5.782357E-1,-6.10709E-2,3.951749E-2,-1.4114435E-2,-2.624243E-16,-3.7310612E-1,7.539198E-2,-1.0417103E-1,5.9375E-1,7.311868E-2,5.633655E-1,4.6185278E-14,-1.0771828E0,-2.8940017E0,1.4359511E-2,7.4683934E-1,0E0,-9.3333334E-1,1.5387574E-2,-5.675992E-1,1.585463E0,1.7494955E-16,1E0,1E0,3.7889433E0,-4.6827364E0,1.3796061E-1,3.4984303E-1,-1.3333334E0,-1.0814966E-1,4.1082166E-3,7.477068E-2,-8.810777E-2,9.747612E-2,-5.3807635E-2,-1.0303686E-2,3.3252484E-1,-1.1287056E-2,-1.1203984E-1,-1.12033986E-1,8.899461E-2,4.0184584E-2,2.995144E-1,-9.6665315E-2,1.4122446E-1,4.915924E-2,8.19143E-2,-3.943839E-2,-7.728595E-2,7.009225E-2,2.6705322E-1,1.4746788E-1,6.894745E-2,1.7234443E-1,1.4280902E-1,-8.549034E-2,6.2710285E-2,-4.7820605E-2,2.0310979E-1,1.3861956E-1,2.9999036E-1,2.4044216E-1,6.7976356E-2,1.0450082E-1,1.7969798E-1,1.5114473E-1,2.2530861E-1,8.281891E-2,4.089243E-2,-1.33056715E-2,1.9241188E-1,6.223283E-2,1.5098546E-1,2.2170086E-1,1.0690116E-2,-3.8483232E-2,2.1445441E-1,-7.168754E-2,3.5945073E-2,-9.918598E-2,1.1050751E-1,5.122252E-2,-5.154416E-2],"split_indices":[14,14,134,116,135,62,111,134,92,14,135,4,4,14,25,127,27,14,5,135,135,135,116,2,95,50,59,135,116,24,14,0,15,43,42,0,0,0,89,50,14,0,62,14,92,127,55,46,59,11,88,33,57,24,134,88,116,106,8,5,14,24,60,0,0,0,0,0,0,0,0,0,0,0,0,0,0,0,0,0,0,0,0,0,0,0,0,0,0,0,0,0,0,0,0,0,0,0,0,0,0,0,0,0,0,0,0,0,0,0,0,0,0,0,0,0,0],"split_type":[0,0,0,0,0,0,0,0,0,0,0,0,0,0,0,0,0,0,0,0,0,0,0,0,0,0,0,0,0,0,0,0,0,0,0,0,0,0,0,0,0,0,0,0,0,0,0,0,0,0,0,0,0,0,0,0,0,0,0,0,0,0,0,0,0,0,0,0,0,0,0,0,0,0,0,0,0,0,0,0,0,0,0,0,0,0,0,0,0,0,0,0,0,0,0,0,0,0,0,0,0,0,0,0,0,0,0,0,0,0,0,0,0,0,0,0,0],"sum_hessian":[1.5968997E4,8.671074E3,7.2979233E3,4.477649E3,4.193425E3,3.4503843E3,3.847539E3,4.469791E3,7.858122E0,1.8301229E3,2.3633018E3,1.2648228E3,2.1855615E3,3.186819E3,6.607201E2,3.966181E3,5.0361014E2,2.0714903E0,5.7866316E0,1.7967184E3,3.3404552E1,1.0339895E3,1.3293123E3,1.247467E3,1.7355665E1,2.4037112E2,1.9451904E3,1.7780122E3,1.4088068E3,5.4729244E1,6.0599084E2,2.9662888E3,9.998919E2,4.8940652E2,1.4203618E1,1.0532563E0,1.0182339E0,1.0797583E0,4.7068734E0,1.6594313E3,1.3728716E2,1.0640847E1,2.2763704E1,3.0858746E1,1.0031308E3,1.3055789E3,2.3733381E1,1.0554657E2,1.1419204E3,7.5964756E0,9.759189E0,1.08397514E2,1.319736E2,1.0338098E3,9.1138055E2,7.455919E2,1.0324203E3,1.2940199E3,1.14786865E2,1.0134268E1,4.4594975E1,5.593572E2,4.6633636E1,9.974076E2,2.484287E0,3.304658E0,4.8610187E2,5.1806107E0,9.023007E0,1.0224941E0,3.684379E0,1.0824561E0,1.6583488E3,1.1590559E2,2.1381565E1,2.1326546E1,1.4371582E0,2.213328E1,8.725467E0,5.3523663E2,4.6789413E2,4.6830014E2,8.372787E2,3.8226628E0,1.9910719E1,5.6487213E1,4.9059357E1,5.314063E2,6.1051416E2,5.7399006E0,1.856575E0,3.544561E0,6.214628E0,9.527075E1,1.3126764E1,1.23264206E2,8.709403E0,3.397636E1,9.998335E2,8.467081E2,6.467241E1,3.8269534E2,3.6289658E2,9.964445E2,3.5975777E1,9.569323E2,3.3708762E2,1.1024345E2,4.5434127E0,1.7830954E0,8.351172E0,1.3307815E1,3.128716E1,5.5808777E2,1.2694527E0,1.1116857E1,3.551678E1],"tree_param":{"num_deleted":"0","num_feature":"138","num_nodes":"117","size_leaf_vector":"1"}},{"base_weights":[-1.35857165E-2,-7.821157E-1,7.798747E-1,-1.0645846E0,-4.9032643E-1,3.0785125E-1,1.3206387E0,-1.11931935E-1,-9.5797604E-1,-1.0785819E0,-7.342344E-2,5.0825375E-1,-8.0260897E-1,1.4774141E0,1.2743526E0,-9.677459E-1,1.4381367E0,-1.0992154E0,-6.860866E-1,4.947626E-1,-5.5272585E-1,2.213086E-1,8.65647E-1,-9.273209E-1,1.07048176E-1,1.4500879E0,2.3044596E0,1.5409808E0,1.2475902E0,-7.8009754E-1,-1.0635865E0,-2.9634401E-2,2.0274522E0,-1.1045723E0,-7.2833997E-1,-1.0678738E0,1.4414569E0,7.8777164E-2,5.3380054E-1,-5.9539604E-1,1.6023717E0,3.7762606E-1,-3.139939E-1,5.929274E-1,1.2058568E0,1.1273019E0,-9.4025046E-1,1.1000758E0,-1.7481412E-1,1.3083785E0,1.5692376E0,-1.3749994E-2,2.5211713E0,1.9148676E0,1.3471847E0,1.2244059E0,1.4837629E0,-9.1517314E-2,-5.7470948E-2,-1.0677304E-1,4.2959046E-2,-1.3992737E-2,2.7163246E-1,-1.10519744E-1,-4.0665053E-2,-1.0746489E-1,1.6597813E-1,-1.0940117E-1,6.189669E-4,-2.3751305E-2,1.8169998E-1,-7.3223948E-3,9.018474E-2,-3.0149389E-2,5.5401888E-2,-3.309646E-2,-7.490458E-2,1.9683565E-1,1.1125191E-2,2.1021035E-2,6.6211425E-2,-4.0520158E-2,5.532787E-2,7.766892E-2,-5.6110583E-3,8.841517E-2,1.542901E-1,-6.298276E-2,2.0605429E-1,-9.485744E-2,1.2971398E-1,2.1345945E-1,2.829437E-2,-3.5933446E-2,6.306009E-2,1.3400288E-1,1.0835986E-2,1.6708829E-1,1.1258977E-1,2.7187312E-1,2.3507027E-2,2.5302574E-1,1.5237264E-1,9.827172E-3,1.4224304E-1,1.2770747E-1,1.06947854E-1,4.4282906E-2,1.5450335E-1],"categories":[],"categories_nodes":[],"categories_segments":[],"categories_sizes":[],"default_left":[0,0,0,0,0,0,0,0,0,0,0,0,0,0,0,0,0,0,0,0,0,0,0,0,0,0,0,0,0,0,0,0,0,0,0,0,0,0,0,0,0,0,0,0,0,0,0,0,0,0,0,0,0,0,0,0,0,0,0,0,0,0,0,0,0,0,0,0,0,0,0,0,0,0,0,0,0,0,0,0,0,0,0,0,0,0,0,0,0,0,0,0,0,0,0,0,0,0,0,0,0,0,0,0,0,0,0,0,0],"id":2,"left_children":[1,3,5,7,9,11,13,-1,15,17,19,21,23,25,27,29,31,33,35,37,39,41,43,45,47,49,51,53,55,57,59,-1,61,63,65,67,69,71,73,75,77,79,81,83,85,87,89,91,93,95,97,-1,99,101,103,105,107,-1,-1,-1,-1,-1,-1,-1,-1,-1,-1,-1,-1,-1,-1,-1,-1,-1,-1,-1,-1,-1,-1,-1,-1,-1,-1,-1,-1,-1,-1,-1,-1,-1,-1,-1,-1,-1,-1,-1,-1,-1,-1,-1,-1,-1,-1,-1,-1,-1,-1,-1,-1],"loss_changes":[9.700844E3,6.655327E2,1.9975107E3,2.2882812E1,9.752175E2,9.307387E2,2.4586914E1,0E0,3.4156616E1,1.26032715E1,6.343878E2,3.6305157E2,7.264752E1,1.5307251E1,1.8225098E1,2.4250122E1,6.8215437E0,2.305542E0,7.061262E1,1.7268372E1,1.17142456E2,1.6462698E2,1.4560559E2,1.600293E1,2.2024231E1,1.1479614E1,1.3415421E1,1.5773865E1,1.2261475E1,1.2657745E1,6.1534424E0,0E0,7.352659E0,2.2302246E-1,2.2644295E1,2.0469818E0,8.85775E0,1.1654226E1,1.6621887E1,5.012027E1,1.3316044E1,7.235506E1,3.541601E1,1.0467908E2,7.461493E1,7.811825E0,1.165094E1,1.4089628E1,9.383971E0,1.3987488E1,1.7513306E1,0E0,9.628555E0,1.638742E1,1.585498E1,1.7786133E1,1.3673798E1,0E0,0E0,0E0,0E0,0E0,0E0,0E0,0E0,0E0,0E0,0E0,0E0,0E0,0E0,0E0,0E0,0E0,0E0,0E0,0E0,0E0,0E0,0E0,0E0,0E0,0E0,0E0,0E0,0E0,0E0,0E0,0E0,0E0,0E0,0E0,0E0,0E0,0E0,0E0,0E0,0E0,0E0,0E0,0E0,0E0,0E0,0E0,0E0,0E0,0E0,0E0,0E0],"parents":[2147483647,0,0,1,1,2,2,3,3,4,4,5,5,6,6,8,8,9,9,10,10,11,11,12,12,13,13,14,14,15,15,16,16,17,17,18,18,19,19,20,20,21,21,22,22,23,23,24,24,25,25,26,26,27,27,28,28,29,29,30,30,32,32,33,33,34,34,35,35,36,36,37,37,38,38,39,39,40,40,41,41,42,42,43,43,44,44,45,45,46,46,47,47,48,48,49,49,50,50,52,52,53,53,54,54,55,55,56,56],"right_children":[2,4,6,8,10,12,14,-1,16,18,20,22,24,26,28,30,32,34,36,38,40,42,44,46,48,50,52,54,56,58,60,-1,62,64,66,68,70,72,74,76,78,80,82,84,86,88,90,92,94,96,98,-1,100,102,104,106,108,-1,-1,-1,-1,-1,-1,-1,-1,-1,-1,-1,-1,-1,-1,-1,-1,-1,-1,-1,-1,-1,-1,-1,-1,-1,-1,-1,-1,-1,-1,-1,-1,-1,-1,-1,-1,-1,-1,-1,-1,-1,-1,-1,-1,-1,-1,-1,-1,-1,-1,-1,-1],"split_conditions":[7.970247E-2,5.0044633E-2,1E0,5E0,2.7164166E0,1E0,-5.8937275E-1,-1.11931935E-1,6.2413316E-2,2.6005373E0,5E0,3.9528433E-2,1.7929977E-1,4.005722E-3,-7.3928714E-1,4.6185278E-14,-3.697415E-1,7.9177774E-2,7.591412E-2,4.89775E-1,5.2704576E-2,1E0,6.406808E-3,-3.1281286E-1,-2.2539082E-1,4.276616E-1,-2.7257283E0,-7.1428573E-1,1.1950356E-2,3.8064424E-2,5.1472555E-3,-2.9634401E-2,-1.0994504E-1,5.358574E-1,2.5154927E0,7.539198E-2,-1.4124649E0,6.165282E-1,2.826149E0,4.6185278E-14,5.945946E-1,1.20846644E-1,1.7929977E-1,4.7664094E0,5E0,1.0354183E0,1.0752688E-1,-7.8564966E-1,4.2985708E-1,-7.8191794E-2,7.489598E-2,-1.3749994E-2,1.29178995E-2,-8.202801E-1,-1.1694906E0,6.998734E-2,-9.4572365E-2,-9.1517314E-2,-5.7470948E-2,-1.0677304E-1,4.2959046E-2,-1.3992737E-2,2.7163246E-1,-1.10519744E-1,-4.0665053E-2,-1.0746489E-1,1.6597813E-1,-1.0940117E-1,6.189669E-4,-2.3751305E-2,1.8169998E-1,-7.3223948E-3,9.018474E-2,-3.0149389E-2,5.5401888E-2,-3.309646E-2,-7.490458E-2,1.9683565E-1,1.1125191E-2,2.1021035E-2,6.6211425E-2,-4.0520158E-2,5.532787E-2,7.766892E-2,-5.6110583E-3,8.841517E-2,1.542901E-1,-6.298276E-2,2.0605429E-1,-9.485744E-2,1.2971398E-1,2.1345945E-1,2.829437E-2,-3.5933446E-2,6.306009E-2,1.3400288E-1,1.0835986E-2,1.6708829E-1,1.1258977E-1,2.7187312E-1,2.3507027E-2,2.5302574E-1,1.5237264E-1,9.827172E-3,1.4224304E-1,1.2770747E-1,1.06947854E-1,4.4282906E-2,1.5450335E-1],"split_indices":[14,14,126,135,135,111,132,0,102,135,135,102,14,26,28,127,88,14,14,47,102,112,15,24,24,92,5,89,15,14,15,0,132,51,135,14,42,28,135,127,33,14,14,127,135,92,57,6,61,26,102,0,15,4,1,59,57,0,0,0,0,0,0,0,0,0,0,0,0,0,0,0,0,0,0,0,0,0,0,0,0,0,0,0,0,0,0,0,0,0,0,0,0,0,0,0,0,0,0,0,0,0,0,0,0,0,0,0,0],"split_type":[0,0,0,0,0,0,0,0,0,0,0,0,0,0,0,0,0,0,0,0,0,0,0,0,0,0,0,0,0,0,0,0,0,0,0,0,0,0,0,0,0,0,0,0,0,0,0,0,0,0,0,0,0,0,0,0,0,0,0,0,0,0,0,0,0,0,0,0,0,0,0,0,0,0,0,0,0,0,0,0,0,0,0,0,0,0,0,0,0,0,0,0,0,0,0,0,0,0,0,0,0,0,0,0,0,0,0,0,0],"sum_hessian":[1.5906286E4,8.080088E3,7.826198E3,4.1042695E3,3.9758186E3,4.17953E3,3.646669E3,2.7056445E3,1.3986249E3,1.6483661E3,2.3274526E3,3.5410295E3,6.3850006E2,8.241786E2,2.8224902E3,1.393539E3,5.0858793E0,1.5643286E3,8.403748E1,1.0649647E3,1.2624879E3,1.9649905E3,1.5760391E3,5.615002E2,7.699983E1,8.0048334E2,2.3695251E1,2.5229941E2,2.570191E3,4.7421057E2,9.193284E2,1.415855E0,3.6700244E0,1.540105E3,2.42236E1,7.167372E1,1.2363763E1,9.162579E1,9.7333887E2,1.238686E3,2.380183E1,1.5210984E3,4.438921E2,8.763114E2,6.9972766E2,2.9723978E0,5.5852783E2,1.6381912E1,6.0617916E1,3.7109995E2,4.2938336E2,1.9612257E0,2.1734026E1,8.3098465E1,1.6920094E2,2.346069E3,2.2412186E2,2.8398743E2,1.9022314E2,9.1706824E2,2.2602184E0,1.0773292E0,2.5926952E0,1.5381437E3,1.9612788E0,2.1636087E1,2.5875134E0,6.995282E1,1.7209027E0,2.327146E0,1.0036616E1,7.811153E1,1.351427E1,2.267405E1,9.506648E2,4.5639084E2,7.822952E2,1.885416E1,4.9476714E0,9.586756E2,5.624228E2,4.02134E2,4.1758076E1,6.827953E2,1.9351613E2,3.5986423E2,3.3986343E2,1.1438487E0,1.8285491E0,5.570315E2,1.4963213E0,6.5178185E0,9.864094E0,4.9769573E1,1.0848344E1,3.6145007E2,9.649881E0,3.4704657E2,8.233679E1,1.9831028E1,1.9029965E0,3.0167095E1,5.2931374E1,9.745939E0,1.59455E2,1.7454463E3,6.0062274E2,1.2916086E1,2.1120576E2],"tree_param":{"num_deleted":"0","num_feature":"138","num_nodes":"109","size_leaf_vector":"1"}},{"base_weights":[-7.4825394E-3,-7.46467E-1,6.747402E-1,-1.0480231E0,-4.4835427E-1,1.089544E0,2.4584325E-1,-1.0902499E0,-7.332605E-1,-1.0691875E0,-5.788216E-2,1.0972463E0,5.7183886E-1,4.1983318E-1,-7.673082E-1,-1.1066721E-1,-1.0409977E0,1.9545355E0,-7.91167E-1,-1.080515E0,-3.7679383E-1,4.286523E-1,-5.186336E-1,1.3028014E0,1.0783167E0,-1.0161949E-1,1.157116E0,1.7542781E-1,7.509139E-1,-8.834727E-1,3.6663702E-1,-1.0432173E0,5.289724E-3,2.2374957E0,-1.5786527E-2,-3.9111242E-1,-8.364433E-1,-1.0924895E-1,-8.9244056E-1,-1.0049628E0,1.6159228E0,-4.9668786E-1,4.8370138E-1,-1.9110852E-1,-7.2823274E-1,3.29627E-1,1.3478765E0,1.0532584E0,1.2508662E0,6.179184E-1,-6.1010695E-1,-2.284365E-2,1.769479E0,2.7644902E-1,-4.0873978E-1,8.315618E-1,1.0411119E-2,1.5293933E-1,-9.1373175E-1,1.0496602E0,-1.7369181E-1,-1.0134003E-2,-1.04542136E-1,5.045948E-2,2.6875412E-1,-7.7657096E-2,-8.011231E-3,-8.6927645E-2,-3.74493E-2,-1.0503987E-1,5.328966E-2,-9.84776E-3,-1.0522316E-1,2.0547347E-1,8.061468E-3,-1.055026E-1,1.399852E-1,1.1222471E-1,4.5645546E-2,1.6917129E-1,-3.2346305E-2,-7.7688664E-2,8.13069E-3,-2.0875877E-2,2.0715247E-1,1.3745193E-1,-7.50643E-3,2.5733916E-2,1.0582882E-1,1.06779926E-1,1.5563692E-1,1.0987288E-1,-2.6257118E-2,-1.0274043E-1,1.25266975E-2,9.566907E-2,-7.001856E-2,2.6833668E-1,8.097712E-2,3.953832E-2,-1.5120128E-2,-8.770145E-2,-3.2006074E-2,7.0976086E-2,1.2600645E-1,-1.5585511E-2,8.297445E-2,-6.4473145E-2,8.541532E-2,-9.2247985E-2,1.2418913E-1,-7.934841E-2,1.2404262E-1,5.52583E-2,-6.382269E-2],"categories":[],"categories_nodes":[],"categories_segments":[],"categories_sizes":[],"default_left":[0,0,0,0,0,0,0,0,0,0,0,0,0,0,0,0,0,0,0,0,0,0,0,0,0,0,0,0,0,0,0,0,0,0,0,0,0,0,0,0,0,0,0,0,0,0,0,0,0,0,0,0,0,0,0,0,0,0,0,0,0,0,0,0,0,0,0,0,0,0,0,0,0,0,0,0,0,0,0,0,0,0,0,0,0,0,0,0,0,0,0,0,0,0,0,0,0,0,0,0,0,0,0,0,0,0,0,0,0,0,0,0,0,0,0],"id":3,"left_children":[1,3,5,7,9,11,13,15,17,19,21,23,25,27,29,-1,31,33,35,37,39,41,43,45,47,49,51,53,55,57,59,61,-1,63,-1,65,67,-1,69,71,73,75,77,79,81,83,85,87,89,91,93,95,97,99,101,103,105,107,109,111,113,-1,-1,-1,-1,-1,-1,-1,-1,-1,-1,-1,-1,-1,-1,-1,-1,-1,-1,-1,-1,-1,-1,-1,-1,-1,-1,-1,-1,-1,-1,-1,-1,-1,-1,-1,-1,-1,-1,-1,-1,-1,-1,-1,-1,-1,-1,-1,-1,-1,-1,-1,-1,-1,-1],"loss_changes":[7.9560425E3,6.8053906E2,1.4595862E3,4.9245605E1,9.238378E2,1.6004883E1,7.1170856E2,1.53125E0,7.133943E1,1.1133789E1,5.2494403E2,1.4583008E1,2.504196E1,2.78612E2,7.82807E1,0E0,2.1103516E0,6.178257E0,7.6367188E0,2.2844238E0,3.3194782E1,5.8262512E1,8.2422516E1,1.4543518E1,1.4975098E1,1.1470874E1,2.454456E1,1.1714253E2,8.734198E1,1.6984192E1,2.0738993E1,1.6478271E0,0E0,5.3977165E0,0E0,5.521663E0,5.651886E0,0E0,2.1293205E1,7.444668E-1,4.1652393E0,6.972508E1,1.820076E1,1.17837006E2,2.8934021E1,1.5858157E1,1.2470581E1,1.2925537E1,2.476416E1,5.8140316E0,5.735033E0,9.01236E0,1.7419777E1,8.608414E1,1.187748E1,6.794708E1,1.9836823E1,9.552369E0,1.0989777E1,9.684378E0,1.113426E1,0E0,0E0,0E0,0E0,0E0,0E0,0E0,0E0,0E0,0E0,0E0,0E0,0E0,0E0,0E0,0E0,0E0,0E0,0E0,0E0,0E0,0E0,0E0,0E0,0E0,0E0,0E0,0E0,0E0,0E0,0E0,0E0,0E0,0E0,0E0,0E0,0E0,0E0,0E0,0E0,0E0,0E0,0E0,0E0,0E0,0E0,0E0,0E0,0E0,0E0,0E0,0E0,0E0,0E0],"parents":[2147483647,0,0,1,1,2,2,3,3,4,4,5,5,6,6,7,7,8,8,9,9,10,10,11,11,12,12,13,13,14,14,16,16,17,17,18,18,19,19,20,20,21,21,22,22,23,23,24,24,25,25,26,26,27,27,28,28,29,29,30,30,31,31,33,33,35,35,36,36,38,38,39,39,40,40,41,41,42,42,43,43,44,44,45,45,46,46,47,47,48,48,49,49,50,50,51,51,52,52,53,53,54,54,55,55,56,56,57,57,58,58,59,59,60,60],"right_children":[2,4,6,8,10,12,14,16,18,20,22,24,26,28,30,-1,32,34,36,38,40,42,44,46,48,50,52,54,56,58,60,62,-1,64,-1,66,68,-1,70,72,74,76,78,80,82,84,86,88,90,92,94,96,98,100,102,104,106,108,110,112,114,-1,-1,-1,-1,-1,-1,-1,-1,-1,-1,-1,-1,-1,-1,-1,-1,-1,-1,-1,-1,-1,-1,-1,-1,-1,-1,-1,-1,-1,-1,-1,-1,-1,-1,-1,-1,-1,-1,-1,-1,-1,-1,-1,-1,-1,-1,-1,-1,-1,-1,-1,-1,-1,-1],"split_conditions":[7.970247E-2,5.0044633E-2,2E0,5E0,2.6401865E0,3.5152562E0,1E0,3.2146797E-1,1E0,7.9177774E-2,5E0,-1.0261552E0,2.036237E0,1.2522258E-1,2.0603172E-1,-1.1066721E-1,3.994674E-2,2.7241898E-3,-1.7079912E-1,7.722085E-2,2.5154927E0,2.826149E0,4.6185278E-14,-1.379894E0,1.379894E0,-4.5756257E-1,3.5223522E0,1E0,1E0,-2.0476548E-1,-9.364588E-1,4.212517E0,5.289724E-3,-6.516854E-1,-1.5786527E-2,3.954678E-2,2.4483757E-1,-1.0924895E-1,2.5516558E0,3.8493774E-4,1E0,7.453372E-2,-2.2532234E0,1E0,2.0589249E-1,-1.9973137E0,1.7047844E0,8.027762E-2,8.1609744E-1,-3.1280273E-1,3.302717E-1,4.001292E0,6.7649045E-5,1E0,-1.5897152E0,1.1545398E-2,1.2934608E0,4.4827586E-1,3.4984303E-1,-1.379894E0,1E0,-1.0134003E-2,-1.04542136E-1,5.045948E-2,2.6875412E-1,-7.7657096E-2,-8.011231E-3,-8.6927645E-2,-3.74493E-2,-1.0503987E-1,5.328966E-2,-9.84776E-3,-1.0522316E-1,2.0547347E-1,8.061468E-3,-1.055026E-1,1.399852E-1,1.1222471E-1,4.5645546E-2,1.6917129E-1,-3.2346305E-2,-7.7688664E-2,8.13069E-3,-2.0875877E-2,2.0715247E-1,1.3745193E-1,-7.50643E-3,2.5733916E-2,1.0582882E-1,1.06779926E-1,1.5563692E-1,1.0987288E-1,-2.6257118E-2,-1.0274043E-1,1.25266975E-2,9.566907E-2,-7.001856E-2,2.6833668E-1,8.097712E-2,3.953832E-2,-1.5120128E-2,-8.770145E-2,-3.2006074E-2,7.0976086E-2,1.2600645E-1,-1.5585511E-2,8.297445E-2,-6.4473145E-2,8.541532E-2,-9.2247985E-2,1.2418913E-1,-7.934841E-2,1.2404262E-1,5.52583E-2,-6.382269E-2],"split_indices":[14,14,134,134,135,4,111,127,115,14,135,6,17,14,14,0,57,15,27,14,135,135,127,89,89,42,5,112,112,24,17,30,0,60,0,14,27,0,135,11,98,14,17,115,50,7,134,14,92,27,3,4,6,115,46,15,4,62,24,89,67,0,0,0,0,0,0,0,0,0,0,0,0,0,0,0,0,0,0,0,0,0,0,0,0,0,0,0,0,0,0,0,0,0,0,0,0,0,0,0,0,0,0,0,0,0,0,0,0,0,0,0,0,0,0],"split_type":[0,0,0,0,0,0,0,0,0,0,0,0,0,0,0,0,0,0,0,0,0,0,0,0,0,0,0,0,0,0,0,0,0,0,0,0,0,0,0,0,0,0,0,0,0,0,0,0,0,0,0,0,0,0,0,0,0,0,0,0,0,0,0,0,0,0,0,0,0,0,0,0,0,0,0,0,0,0,0,0,0,0,0,0,0,0,0,0,0,0,0,0,0,0,0,0,0,0,0,0,0,0,0,0,0,0,0,0,0,0,0,0,0,0,0],"sum_hessian":[1.5779039E4,7.5743745E3,8.204665E3,3.7641902E3,3.810184E3,4.1700747E3,4.0345906E3,3.3167668E3,4.4742328E2,1.4704679E3,2.3397163E3,4.1078403E3,6.223419E1,3.4437722E3,5.908183E2,2.4712947E3,8.454722E2,8.74534E0,4.3867792E2,1.4462468E3,2.4221104E1,1.1380511E3,1.2016652E3,3.4067145E2,3.767169E3,2.9321417E1,3.2912777E1,1.9821036E3,1.4616686E3,5.361178E2,5.4700527E1,8.4380646E2,1.6657753E0,7.6600437E0,1.0852969E0,4.5579796E1,3.9309814E2,1.3551569E3,9.108986E1,1.8792711E1,5.4283905E0,6.3451344E1,1.0745997E3,4.6966553E2,7.319997E2,1.54486E1,3.2522284E2,3.2956633E3,4.7150558E2,1.2051984E1,1.7269432E1,1.1573857E1,2.1338919E1,1.6903201E3,2.9178354E2,1.3180024E3,1.4366615E2,1.5093439E1,5.2102435E2,2.3743729E1,3.0956797E1,2.0796669E0,8.4172675E2,2.016545E0,5.6434984E0,1.9684944E1,2.5894852E1,3.6618945E2,2.690869E1,8.2239044E1,8.850812E0,1.0841949E0,1.7708517E1,3.958638E0,1.4697528E0,4.9362747E1,1.4088598E1,4.233072E1,1.032269E3,3.00733E1,4.3959222E2,6.905382E2,4.146149E1,1.2473457E1,2.9751425E0,3.192788E2,5.9440384E0,2.1023827E1,3.2746394E3,2.9764352E2,1.7386208E2,7.634913E0,4.417071E0,1.0764092E1,6.50534E0,4.5628695E0,7.0109878E0,1.0010415E1,1.1328503E1,1.3225735E3,3.6774658E2,4.50428E1,2.4674074E2,1.0283519E3,2.8965048E2,1.20103485E2,2.3562664E1,7.0987525E0,7.994687E0,5.1948816E2,1.5361489E0,1.9306531E0,2.1813076E1,1.200231E1,1.8954487E1],"tree_param":{"num_deleted":"0","num_feature":"138","num_nodes":"115","size_leaf_vector":"1"}},{"base_weights":[-1.5829114E-2,-7.216922E-1,5.729183E-1,-1.0276552E0,-4.3033072E-1,9.1760355E-1,1.9862235E-1,-1.0747687E0,-6.876702E-1,-1.057605E0,-6.6901445E-2,1.0230681E0,8.6302346E-1,3.4197882E-1,-7.156154E-1,-1.09434925E-1,-1.0167556E0,1.098282E0,-7.3463374E-1,-1.066885E0,-4.9175194E-1,3.5980892E-1,-5.007861E-1,1.0778002E0,8.4784925E-1,4.8436153E-1,8.8560593E-1,1.1611139E-1,5.9110135E-1,-8.597329E-1,2.0245278E-1,9.090167E-2,-1.0204469E0,1.675596E0,-1.2626597E-2,-7.7633566E-1,-1.397921E-1,-1.0775802E0,-8.976566E-1,-9.867464E-1,1.0669137E0,-4.1212326E-1,4.090746E-1,-5.5577946E-1,1.3849758E0,9.9940586E-1,1.3979604E0,9.6955955E-1,5.8954334E-1,-7.48227E-1,5.285852E-1,9.4763637E-1,7.775316E-1,3.8742647E-1,-1.01125814E-1,4.716786E-1,9.286144E-1,3.0045918E-1,-8.816932E-1,7.11903E-1,-1.8535697E-1,-1.02288604E-1,4.167722E-2,2.1290751E-1,7.5402466E-4,1.1836864E-1,-8.86588E-2,-3.920732E-2,-8.250279E-2,3.4203697E-2,-6.807124E-2,-1.2065783E-2,-1.0783523E-1,-1.0338356E-1,3.5488557E-2,-1.0377546E-1,-5.198282E-3,1.5731509E-1,-8.888941E-3,-1.046169E-1,1.2693144E-1,2.351039E-2,5.3987123E-2,-6.954609E-2,-3.2257523E-2,9.3888596E-2,2.0889853E-1,9.475083E-2,1.24295644E-1,1.4591819E-1,4.5225434E-2,1.5361708E-1,8.518506E-2,-1.6812533E-2,6.666273E-2,-1.01634316E-1,1.3887048E-2,6.1257016E-2,-1.738607E-2,1.2139095E-1,9.154946E-2,9.191321E-2,6.558141E-2,7.2419845E-2,2.9251693E-2,-1.6192425E-2,1.25935E-1,4.0858407E-2,1.24755636E-1,4.713012E-2,1.0696765E-1,-6.075881E-2,7.7285044E-2,-9.738443E-2,-6.851027E-2,-3.60766E-2,1.00120805E-1,-3.89311E-2,8.575259E-2],"categories":[],"categories_nodes":[],"categories_segments":[],"categories_sizes":[],"default_left":[0,0,0,0,0,0,0,0,0,0,0,0,0,0,0,0,0,0,0,0,0,0,0,0,0,0,0,0,0,0,0,0,0,0,0,0,0,0,0,0,0,0,0,0,0,0,0,0,0,0,0,0,0,0,0,0,0,0,0,0,0,0,0,0,0,0,0,0,0,0,0,0,0,0,0,0,0,0,0,0,0,0,0,0,0,0,0,0,0,0,0,0,0,0,0,0,0,0,0,0,0,0,0,0,0,0,0,0,0,0,0,0,0,0,0,0,0,0,0],"id":4,"left_children":[1,3,5,7,9,11,13,15,17,19,21,23,25,27,29,-1,31,33,35,37,39,41,43,45,47,49,51,53,55,57,59,-1,61,63,65,67,69,71,73,75,77,79,81,83,85,87,89,91,93,95,97,99,101,103,105,107,109,111,113,115,117,-1,-1,-1,-1,-1,-1,-1,-1,-1,-1,-1,-1,-1,-1,-1,-1,-1,-1,-1,-1,-1,-1,-1,-1,-1,-1,-1,-1,-1,-1,-1,-1,-1,-1,-1,-1,-1,-1,-1,-1,-1,-1,-1,-1,-1,-1,-1,-1,-1,-1,-1,-1,-1,-1,-1,-1,-1,-1],"loss_changes":[6.5205483E3,6.356577E2,1.1035271E3,5.5E1,8.335418E2,2.4751953E1,5.3793677E2,2.3569336E0,3.6562714E1,6.519043E0,4.290331E2,1.3599243E1,2.471997E1,1.9952502E2,7.379468E1,0E0,6.507263E0,7.28349E0,1.021019E1,1.4197998E0,1.9182339E1,4.460266E1,1.199187E2,2.7452637E1,1.0899902E1,9.538448E0,1.7861816E1,1.0976457E2,6.753931E1,1.252298E1,1.5207603E1,0E0,3.1743774E0,5.626007E0,6.135756E0,6.9457397E0,7.6533976E0,7.828369E-1,1.4760529E1,8.2118034E-1,3.7349038E0,7.6588264E1,2.4876266E1,3.616394E1,8.352913E0,1.0537598E1,1.2285126E1,1.51298065E1,7.0864525E0,1.6213741E0,9.693611E0,1.3934937E1,1.6929626E1,2.6253448E1,8.578508E1,6.057245E1,2.7863556E1,4.6232967E0,7.8915405E0,1.066007E1,9.717846E0,0E0,0E0,0E0,0E0,0E0,0E0,0E0,0E0,0E0,0E0,0E0,0E0,0E0,0E0,0E0,0E0,0E0,0E0,0E0,0E0,0E0,0E0,0E0,0E0,0E0,0E0,0E0,0E0,0E0,0E0,0E0,0E0,0E0,0E0,0E0,0E0,0E0,0E0,0E0,0E0,0E0,0E0,0E0,0E0,0E0,0E0,0E0,0E0,0E0,0E0,0E0,0E0,0E0,0E0,0E0,0E0,0E0,0E0],"parents":[2147483647,0,0,1,1,2,2,3,3,4,4,5,5,6,6,7,7,8,8,9,9,10,10,11,11,12,12,13,13,14,14,16,16,17,17,18,18,19,19,20,20,21,21,22,22,23,23,24,24,25,25,26,26,27,27,28,28,29,29,30,30,32,32,33,33,34,34,35,35,36,36,37,37,38,38,39,39,40,40,41,41,42,42,43,43,44,44,45,45,46,46,47,47,48,48,49,49,50,50,51,51,52,52,53,53,54,54,55,55,56,56,57,57,58,58,59,59,60,60],"right_children":[2,4,6,8,10,12,14,16,18,20,22,24,26,28,30,-1,32,34,36,38,40,42,44,46,48,50,52,54,56,58,60,-1,62,64,66,68,70,72,74,76,78,80,82,84,86,88,90,92,94,96,98,100,102,104,106,108,110,112,114,116,118,-1,-1,-1,-1,-1,-1,-1,-1,-1,-1,-1,-1,-1,-1,-1,-1,-1,-1,-1,-1,-1,-1,-1,-1,-1,-1,-1,-1,-1,-1,-1,-1,-1,-1,-1,-1,-1,-1,-1,-1,-1,-1,-1,-1,-1,-1,-1,-1,-1,-1,-1,-1,-1,-1,-1,-1,-1,-1],"split_conditions":[7.970247E-4,5.004463E-4,2E0,5E0,2.6324773E0,-1.1808475E-1,1E0,5E0,1E0,7.9177774E-4,5E0,-5.1996768E-2,-1.7530864E0,1.197747E-3,1.7929977E-3,-1.09434925E-1,-2.0270723E-1,9.5006935E-2,2.4483757E-1,7.7220844E-4,2.5154927E0,1.7047844E0,1E0,-2.7308086E-1,9.305321E-1,1.4442612E0,6.449376E-2,5E0,1.0323205E-2,-2.1536076E-1,-9.364588E-1,9.090167E-2,8.9995426E-1,-1.6813602E-1,6.570345E-1,-2.0637697E-1,1.39101E-1,-3.228363E-1,2.5516558E0,6.764706E-1,6.582769E-1,7.398257E-4,0E0,1E0,9.8423845E-1,-3.6180906E-2,5.832676E-1,-8.457725E-1,-7.422691E-2,-1.9410497E-1,-7.777572E-2,-2.2321522E-1,4.7833318E-1,-7.9238814E-1,1E0,1E0,3.6754508E-2,-1.6870716E0,1.168752E-3,2.0077177E-3,1.063409E0,-1.02288604E-1,4.167722E-2,2.1290751E-1,7.5402466E-4,1.1836864E-1,-8.86588E-2,-3.920732E-2,-8.250279E-2,3.4203697E-2,-6.807124E-2,-1.2065783E-2,-1.0783523E-1,-1.0338356E-1,3.5488557E-2,-1.0377546E-1,-5.198282E-3,1.5731509E-1,-8.888941E-3,-1.046169E-1,1.2693144E-1,2.351039E-2,5.3987123E-2,-6.954609E-2,-3.2257523E-2,9.3888596E-2,2.0889853E-1,9.475083E-2,1.24295644E-1,1.4591819E-1,4.5225434E-2,1.5361708E-1,8.518506E-2,-1.6812533E-2,6.666273E-2,-1.01634316E-1,1.3887048E-2,6.1257016E-2,-1.738607E-2,1.2139095E-1,9.154946E-2,9.191321E-2,6.558141E-2,7.2419845E-2,2.9251693E-2,-1.6192425E-2,1.25935E-1,4.0858407E-2,1.24755636E-1,4.713012E-2,1.0696765E-1,-6.075881E-2,7.7285044E-2,-9.738443E-2,-6.851027E-2,-3.60766E-2,1.00120805E-1,-3.89311E-2,8.575259E-2],"split_indices":[56,56,134,134,135,38,111,135,115,56,135,52,33,56,56,0,25,102,27,56,135,134,116,42,92,134,102,135,15,24,16,0,9,2,11,52,38,25,135,61,2,56,90,115,93,58,5,38,9,28,5,6,4,4,116,116,102,1,56,56,0,0,0,0,0,0,0,0,0,0,0,0,0,0,0,0,0,0,0,0,0,0,0,0,0,0,0,0,0,0,0,0,0,0,0,0,0,0,0,0,0,0,0,0,0,0,0,0,0,0,0,0,0,0,0,0,0,0,0],"split_type":[0,0,0,0,0,0,0,0,0,0,0,0,0,0,0,0,0,0,0,0,0,0,0,0,0,0,0,0,0,0,0,0,0,0,0,0,0,0,0,0,0,0,0,0,0,0,0,0,0,0,0,0,0,0,0,0,0,0,0,0,0,0,0,0,0,0,0,0,0,0,0,0,0,0,0,0,0,0,0,0,0,0,0,0,0,0,0,0,0,0,0,0,0,0,0,0,0,0,0,0,0,0,0,0,0,0,0,0,0,0,0,0,0,0,0,0,0,0,0],"sum_hessian":[1.5688429E4,7.134492E3,8.553937E3,3.4788125E3,3.6556797E3,4.452356E3,4.1015806E3,3.0535115E3,4.2530096E2,1.3403473E3,2.3153323E3,1.5123383E3,2.9400176E3,3.546154E3,5.554265E2,2.2696082E3,7.839034E2,1.032363E1,4.1497733E2,1.3178491E3,2.249817E1,1.1674031E3,1.1479293E3,1.1484519E3,3.6388632E2,1.6673102E2,2.7732866E3,1.8606543E3,1.6854998E3,4.8012106E2,7.5305435E1,1.0305287E0,7.8287286E2,6.458818E0,3.8648129E0,3.875058E2,2.747154E1,1.2344636E3,8.33855E1,1.7353916E1,5.1442547E0,6.959352E1,1.0978096E3,1.1160868E3,3.1842482E1,9.258663E2,2.2258565E2,2.4547043E2,1.1841589E2,5.223517E0,1.6150749E2,1.7570437E3,1.016243E3,8.2700085E2,1.0336534E3,1.2467557E3,4.3874402E2,8.683384E0,4.7143768E2,3.218698E1,4.3118454E1,7.818342E2,1.0385864E0,4.8609376E0,1.5978801E0,1.4819157E0,2.3828971E0,4.4598885E1,3.429069E2,1.4723839E1,1.2747702E1,1.1221328E0,1.2333414E3,7.536614E1,8.019353E0,1.635147E1,1.0024457E0,3.326272E0,1.8179827E0,5.0811176E1,1.8782345E1,4.723462E2,6.254634E2,6.967656E2,4.193212E2,2.0920198E1,1.0922284E1,7.672626E2,1.5860367E2,2.0854243E2,1.4043214E1,4.0150227E1,2.053202E2,1.0825865E1,1.0759003E2,3.8992987E0,1.3242184E0,1.4437398E2,1.7133524E1,1.852881E2,1.5717556E3,4.667254E2,5.495176E2,1.8036679E2,6.4663403E2,9.902797E2,4.3373726E1,1.1544059E3,9.23499E1,1.0445373E2,3.3429028E2,2.873549E0,5.809835E0,3.1828772E2,1.5314995E2,6.7845616E0,2.540242E1,3.6589443E1,6.52901E0],"tree_param":{"num_deleted":"0","num_feature":"138","num_nodes":"119","size_leaf_vector":"1"}},{"base_weights":[-1.873453E-2,-6.8820995E-1,5.04943E-1,-1.013373E0,-4.0143776E-1,5.8027405E-1,-6.842264E-1,-1.0655322E0,-6.5176207E-1,-1.0143745E0,-6.9930874E-2,7.823497E-1,3.1908798E-1,-8.7499034E-1,5.4130595E-2,-1.0788151E0,-9.822562E-1,1.019482E0,-7.0270914E-1,-1.0549542E0,-1.4777479E-1,3.043692E-1,-4.7512868E-1,8.2327485E-1,6.947588E-1,1.23808935E-1,5.389807E-1,-9.720429E-1,-6.383698E-1,4.524957E-1,-3.2132396E-1,-4.207374E-1,-1.0796233E0,-9.868925E-1,3.308966E-2,1.5424556E0,5.312835E-2,-8.292415E-1,-5.015078E-1,-1.0681458E0,-8.539643E-1,-4.6965134E-1,1.1990625E0,-3.1935257E-1,3.4149522E-1,-5.1879746E-1,1.0175617E0,8.127985E-1,1.1824132E0,4.401585E-1,7.294396E-1,2.8582636E-1,-2.2322148E-1,3.7677768E-1,9.3901855E-1,-5.4239684E-1,-9.9109626E-1,1.4297304E-1,-6.731119E-1,-1.6698584E-1,6.8246096E-1,-4.3028817E-1,1.3906786E0,-7.849277E-2,4.390491E-2,-1.0800361E-1,-1.7743787E-2,-4.616434E-2,-9.975285E-2,-1.5014588E-2,1.8095036E-1,-8.503016E-2,9.429213E-2,-8.5477374E-2,-2.930811E-2,-7.6772295E-2,-3.4734447E-2,-1.1289667E-2,-1.0689793E-1,-1.0189474E-1,4.3263327E-2,-6.3352674E-2,1.159421E-1,-4.588333E-2,1.5660192E-1,-1.0118369E-1,1.2994352E-1,2.2363387E-2,4.7306787E-2,-2.8795863E-2,-6.674998E-2,5.6115057E-2,1.7608733E-1,8.0962606E-2,2.1811926E-1,1.4550082E-1,2.9127792E-2,-3.9537458E-4,5.7462234E-2,8.578062E-2,6.453475E-2,2.3653144E-2,1.114828E-1,-4.353481E-2,8.481358E-3,2.968864E-2,1.0795645E-1,6.0824007E-2,1.0626223E-1,-8.37697E-2,5.4394998E-2,-9.9723406E-2,-3.2772224E-2,-7.201812E-2,8.286015E-2,-3.806315E-2,1.3711955E-1,-6.702929E-2,8.133982E-2,1.4762861E-2,-6.0623866E-2,-1.9928718E-2,2.3286103E-1],"categories":[],"categories_nodes":[],"categories_segments":[],"categories_sizes":[],"default_left":[0,0,0,0,0,0,0,0,0,0,0,0,0,0,0,0,0,0,0,0,0,0,0,0,0,0,0,0,0,0,0,0,0,0,0,0,0,0,0,0,0,0,0,0,0,0,0,0,0,0,0,0,0,0,0,0,0,0,0,0,0,0,0,0,0,0,0,0,0,0,0,0,0,0,0,0,0,0,0,0,0,0,0,0,0,0,0,0,0,0,0,0,0,0,0,0,0,0,0,0,0,0,0,0,0,0,0,0,0,0,0,0,0,0,0,0,0,0,0,0,0,0,0],"id":5,"left_children":[1,3,5,7,9,11,13,15,17,19,21,23,25,27,29,31,33,35,37,39,41,43,45,47,49,51,53,55,57,59,61,63,65,67,-1,69,71,73,75,77,79,81,83,85,87,89,91,93,95,97,99,101,103,105,107,109,111,-1,113,115,117,119,121,-1,-1,-1,-1,-1,-1,-1,-1,-1,-1,-1,-1,-1,-1,-1,-1,-1,-1,-1,-1,-1,-1,-1,-1,-1,-1,-1,-1,-1,-1,-1,-1,-1,-1,-1,-1,-1,-1,-1,-1,-1,-1,-1,-1,-1,-1,-1,-1,-1,-1,-1,-1,-1,-1,-1,-1,-1,-1,-1,-1],"loss_changes":[5.4413228E3,6.347942E2,7.805205E2,5.950415E1,7.3575586E2,4.3202808E2,7.318608E1,2.0239258E0,3.5192398E1,4.4541748E1,3.5675366E2,1.59782715E1,1.5341556E2,8.857117E0,1.6232082E1,8.1933594E-1,2.729309E0,6.177829E0,9.602631E0,2.3067627E0,2.5715092E1,2.8425812E1,7.4148865E1,1.0858154E1,1.2717468E1,1.06576584E2,1.08715515E2,1.8425903E0,9.79657E0,7.6073513E0,1.1036464E1,1.7773678E0,6.9799805E-1,1.7378845E0,0E0,3.8882942E0,5.130669E0,3.0357513E0,6.0725784E0,7.832031E-1,1.7371067E1,1.3427639E1,7.6981945E0,7.890471E1,1.779953E1,3.7497772E1,1.0017399E1,1.1498291E1,2.0670982E1,1.072459E1,1.3458923E1,5.2530533E1,3.947132E1,6.692296E1,1.9152863E1,5.1249304E0,8.0181885E-1,0E0,9.192093E0,5.4656153E0,7.3745975E0,5.5163717E0,5.8095756E0,0E0,0E0,0E0,0E0,0E0,0E0,0E0,0E0,0E0,0E0,0E0,0E0,0E0,0E0,0E0,0E0,0E0,0E0,0E0,0E0,0E0,0E0,0E0,0E0,0E0,0E0,0E0,0E0,0E0,0E0,0E0,0E0,0E0,0E0,0E0,0E0,0E0,0E0,0E0,0E0,0E0,0E0,0E0,0E0,0E0,0E0,0E0,0E0,0E0,0E0,0E0,0E0,0E0,0E0,0E0,0E0,0E0,0E0,0E0,0E0],"parents":[2147483647,0,0,1,1,2,2,3,3,4,4,5,5,6,6,7,7,8,8,9,9,10,10,11,11,12,12,13,13,14,14,15,15,16,16,17,17,18,18,19,19,20,20,21,21,22,22,23,23,24,24,25,25,26,26,27,27,28,28,29,29,30,30,31,31,32,32,33,33,35,35,36,36,37,37,38,38,39,39,40,40,41,41,42,42,43,43,44,44,45,45,46,46,47,47,48,48,49,49,50,50,51,51,52,52,53,53,54,54,55,55,56,56,58,58,59,59,60,60,61,61,62,62],"right_children":[2,4,6,8,10,12,14,16,18,20,22,24,26,28,30,32,34,36,38,40,42,44,46,48,50,52,54,56,58,60,62,64,66,68,-1,70,72,74,76,78,80,82,84,86,88,90,92,94,96,98,100,102,104,106,108,110,112,-1,114,116,118,120,122,-1,-1,-1,-1,-1,-1,-1,-1,-1,-1,-1,-1,-1,-1,-1,-1,-1,-1,-1,-1,-1,-1,-1,-1,-1,-1,-1,-1,-1,-1,-1,-1,-1,-1,-1,-1,-1,-1,-1,-1,-1,-1,-1,-1,-1,-1,-1,-1,-1,-1,-1,-1,-1,-1,-1,-1,-1,-1,-1,-1],"split_conditions":[8.027762E-2,5.0044633E-2,1E0,5E0,2.6324773E0,-5.7731597E-15,1.573663E-1,1E0,1E0,7.9177774E-2,5E0,1.8249334E-1,5.8957767E-3,1.16875194E-1,-4.8263606E-2,-2.0270723E-1,5.0604506E-3,1.5706047E0,3.8776785E-2,7.722085E-2,2.5111945E0,2.826149E0,5.409154E-2,4.2747602E-1,4.0221915E-2,5.7731597E-15,1E0,-7.339235E-1,-3.1281286E-1,8.1609744E-1,1.2627149E-1,-5.593275E-1,5.324459E-2,-2.7893212E0,3.308966E-2,-5.0413674E-1,1E0,1.10008135E-1,-6.198339E-1,-3.228363E-1,2.5516558E0,5.9375E-1,5.129765E-4,7.453372E-2,5.633655E-1,4.6185278E-14,9.8423845E-1,2E0,1.2218382E0,7.331147E-1,7.3776746E-1,4.8543688E-2,4.529345E-3,4.8543688E-2,7.2707077E-3,-3.305187E-1,1.7106835E0,1.4297304E-1,1.9108943E0,-1.6566113E-1,-1.641009E0,-1.3333334E0,-2.624243E-16,-7.849277E-2,4.390491E-2,-1.0800361E-1,-1.7743787E-2,-4.616434E-2,-9.975285E-2,-1.5014588E-2,1.8095036E-1,-8.503016E-2,9.429213E-2,-8.5477374E-2,-2.930811E-2,-7.6772295E-2,-3.4734447E-2,-1.1289667E-2,-1.0689793E-1,-1.0189474E-1,4.3263327E-2,-6.3352674E-2,1.159421E-1,-4.588333E-2,1.5660192E-1,-1.0118369E-1,1.2994352E-1,2.2363387E-2,4.7306787E-2,-2.8795863E-2,-6.674998E-2,5.6115057E-2,1.7608733E-1,8.0962606E-2,2.1811926E-1,1.4550082E-1,2.9127792E-2,-3.9537458E-4,5.7462234E-2,8.578062E-2,6.453475E-2,2.3653144E-2,1.114828E-1,-4.353481E-2,8.481358E-3,2.968864E-2,1.0795645E-1,6.0824007E-2,1.0626223E-1,-8.37697E-2,5.4394998E-2,-9.9723406E-2,-3.2772224E-2,-7.201812E-2,8.286015E-2,-3.806315E-2,1.3711955E-1,-6.702929E-2,8.133982E-2,1.4762861E-2,-6.0623866E-2,-1.9928718E-2,2.3286103E-1],"split_indices":[14,14,111,134,135,127,14,112,115,14,135,26,15,14,24,25,15,13,14,14,135,135,102,2,102,127,106,27,24,92,57,4,57,4,0,2,65,26,90,25,135,62,11,14,92,127,93,134,1,34,4,102,15,102,15,60,33,0,16,25,1,60,89,0,0,0,0,0,0,0,0,0,0,0,0,0,0,0,0,0,0,0,0,0,0,0,0,0,0,0,0,0,0,0,0,0,0,0,0,0,0,0,0,0,0,0,0,0,0,0,0,0,0,0,0,0,0,0,0,0,0,0,0],"split_type":[0,0,0,0,0,0,0,0,0,0,0,0,0,0,0,0,0,0,0,0,0,0,0,0,0,0,0,0,0,0,0,0,0,0,0,0,0,0,0,0,0,0,0,0,0,0,0,0,0,0,0,0,0,0,0,0,0,0,0,0,0,0,0,0,0,0,0,0,0,0,0,0,0,0,0,0,0,0,0,0,0,0,0,0,0,0,0,0,0,0,0,0,0,0,0,0,0,0,0,0,0,0,0,0,0,0,0,0,0,0,0,0,0,0,0,0,0,0,0,0,0,0,0],"sum_hessian":[1.5518516E4,6.8109736E3,8.707542E3,3.1906501E3,3.6203235E3,8.1892827E3,5.182595E2,2.786741E3,4.039092E2,1.270038E3,2.3502856E3,4.6159766E3,3.573306E3,4.1170517E2,1.0655434E2,2.39308E3,3.9366095E2,1.1386343E1,3.9252286E2,1.2130194E3,5.7018597E1,1.2218524E3,1.1284331E3,3.140323E3,1.4756537E3,1.8934034E3,1.6799025E3,2.897521E2,1.21953064E2,5.1600227E1,5.495411E1,3.575623E0,2.3895044E3,3.9252353E2,1.1374168E0,7.001237E0,4.385106E0,2.3906023E2,1.5346263E2,1.1342601E3,7.875918E1,4.6546E1,1.0472596E1,6.821582E1,1.1536366E3,1.0969929E3,3.1440178E1,3.0544841E3,8.5838806E1,1.7855214E2,1.2971014E3,1.2908999E3,6.025036E2,1.1966425E3,4.8325995E2,1.3555143E1,2.7619696E2,1.351466E0,1.2060159E2,1.4043539E1,3.7556686E1,5.2369595E1,2.584515E0,2.5728683E0,1.0027544E0,2.388215E3,1.2893921E0,8.671934E0,3.8385162E2,1.0137367E0,5.9875E0,2.1979015E0,2.1872044E0,2.2762628E2,1.1433956E1,5.481907E1,9.864357E1,1.1078216E0,1.1331523E3,6.999199E1,8.76719E0,4.2846954E1,3.699048E0,1.8525363E0,8.620059E0,4.8040165E1,2.017566E1,6.099499E2,5.436867E2,4.309468E2,6.6604614E2,2.0566677E1,1.0873501E1,3.049007E3,5.4770145E0,6.524718E1,2.059163E1,4.1721947E1,1.368302E2,5.097569E2,7.873446E2,1.2196605E3,7.123936E1,3.5655243E2,2.4595116E2,1.0757733E3,1.2086913E2,1.3306981E2,3.5019012E2,1.0837962E1,2.7171814E0,2.7316623E2,3.0307288E0,1.1744099E2,3.1606085E0,1.2991613E1,1.0519258E0,2.9508913E0,3.4605797E1,1.2260486E1,4.0109108E1,1.2511358E0,1.3333793E0],"tree_param":{"num_deleted":"0","num_feature":"138","num_nodes":"123","size_leaf_vector":"1"}},{"base_weights":[-1.8281935E-2,-6.6939175E-1,4.3147328E-1,-9.969891E-1,-3.8459942E-1,4.9762613E-1,-7.06763E-1,-1.0530764E0,-6.2054956E-1,-1.0276773E0,-5.132325E-2,6.641392E-1,2.7990913E-1,-8.209831E-1,1.9094467E-1,-1.0683085E0,-9.581941E-1,7.999064E-1,-6.6343164E-1,-1.048419E0,-6.370972E-1,2.9306588E-1,-4.3455344E-1,6.430228E-1,8.1146735E-1,3.507537E-1,-2.628708E-1,-9.513502E-1,-5.9575456E-1,4.5357358E-1,-3.3047044E-1,-1.9553693E-1,-1.0696399E0,-9.632111E-1,4.1893505E-2,-6.746521E-2,1.0084845E0,-8.136407E-1,-4.348798E-1,-4.4780183E-3,-1.0500994E0,-9.9909806E-1,8.643847E-1,1.6391595E-1,3.9035058E-1,-6.196465E-1,-1.7246449E-1,7.9048765E-1,6.20254E-1,7.443534E-1,1.3238332E0,2.2391696E-1,6.1868894E-1,-3.58382E-1,4.169697E-1,-9.5801836E-1,4.466751E-2,-6.664898E-1,3.905906E-1,1.7338208E0,1.3870694E-1,-6.342508E-1,7.598077E-1,-7.770499E-2,9.1214545E-2,-1.0700881E-1,-4.880062E-3,-9.864959E-2,-6.527554E-2,-2.2415768E-2,1.3422982E-1,-8.396291E-2,-1.3110061E-2,-5.1923264E-2,2.0062033E-2,-1.0518024E-1,-2.3162518E-2,-1.0180356E-1,-7.134111E-3,-5.209322E-2,1.4502193E-1,3.9872985E-2,6.743266E-3,4.5414697E-2,4.245613E-3,-6.805711E-2,1.74132E-2,9.760718E-2,-2.752751E-2,7.584825E-4,8.223416E-2,-3.50123E-2,6.238845E-2,7.858498E-2,1.3077374E-3,-3.3404943E-2,1.3859446E-1,1.908711E-2,9.7961776E-2,7.348213E-2,7.1914024E-3,2.9779786E-2,-4.191607E-2,5.9849616E-2,-6.520583E-2,6.1864746E-3,-9.6416436E-2,4.051779E-2,-7.15397E-2,2.034788E-1,1.3913792E-4,8.126723E-2,2.5836548E-1,-1.0911307E-2,1.23445705E-1,-9.498722E-2,3.841788E-3,-6.474968E-2,1.4518385E-1],"categories":[],"categories_nodes":[],"categories_segments":[],"categories_sizes":[],"default_left":[0,0,0,0,0,0,0,0,0,0,0,0,0,0,0,0,0,0,0,0,0,0,0,0,0,0,0,0,0,0,0,0,0,0,0,0,0,0,0,0,0,0,0,0,0,0,0,0,0,0,0,0,0,0,0,0,0,0,0,0,0,0,0,0,0,0,0,0,0,0,0,0,0,0,0,0,0,0,0,0,0,0,0,0,0,0,0,0,0,0,0,0,0,0,0,0,0,0,0,0,0,0,0,0,0,0,0,0,0,0,0,0,0,0,0,0,0,0,0],"id":6,"left_children":[1,3,5,7,9,11,13,15,17,19,21,23,25,27,29,31,33,35,37,39,41,43,45,47,49,51,53,55,57,59,61,63,65,67,-1,-1,69,71,73,-1,75,77,79,81,83,85,87,89,91,93,95,97,99,101,103,105,-1,107,109,111,113,115,117,-1,-1,-1,-1,-1,-1,-1,-1,-1,-1,-1,-1,-1,-1,-1,-1,-1,-1,-1,-1,-1,-1,-1,-1,-1,-1,-1,-1,-1,-1,-1,-1,-1,-1,-1,-1,-1,-1,-1,-1,-1,-1,-1,-1,-1,-1,-1,-1,-1,-1,-1,-1,-1,-1,-1,-1],"loss_changes":[4.5060737E3,5.861299E2,6.8563464E2,6.1059326E1,7.210543E2,3.1164917E2,5.145552E1,2.651123E0,2.376625E1,8.635986E0,2.9274704E2,1.463916E1,1.4350012E2,1.2470673E1,7.9940033E0,2.326416E0,2.9004517E0,4.2578597E0,1.2376892E1,1.7895508E0,3.3726585E1,1.4615501E1,5.0819794E1,1.383728E1,1.9890991E1,1.1198459E2,2.8144672E1,3.0339966E0,1.1804306E1,1.5285526E1,7.028529E0,3.6379535E0,9.445801E-1,1.9612732E0,0E0,0E0,4.6588707E0,3.8387299E0,8.102831E0,0E0,1.2716064E0,7.9143906E-1,1.0722618E1,1.13845E1,1.4754608E1,2.9855042E1,5.1741444E1,1.41362E1,1.325708E1,1.6348114E1,7.571083E0,5.5772636E1,6.7221344E1,1.5222939E1,1.078636E1,1.8056335E0,0E0,8.401024E0,7.485714E0,3.7839222E0,8.824258E0,3.4342484E0,5.577961E0,0E0,0E0,0E0,0E0,0E0,0E0,0E0,0E0,0E0,0E0,0E0,0E0,0E0,0E0,0E0,0E0,0E0,0E0,0E0,0E0,0E0,0E0,0E0,0E0,0E0,0E0,0E0,0E0,0E0,0E0,0E0,0E0,0E0,0E0,0E0,0E0,0E0,0E0,0E0,0E0,0E0,0E0,0E0,0E0,0E0,0E0,0E0,0E0,0E0,0E0,0E0,0E0,0E0,0E0,0E0,0E0],"parents":[2147483647,0,0,1,1,2,2,3,3,4,4,5,5,6,6,7,7,8,8,9,9,10,10,11,11,12,12,13,13,14,14,15,15,16,16,17,17,18,18,19,19,20,20,21,21,22,22,23,23,24,24,25,25,26,26,27,27,28,28,29,29,30,30,31,31,32,32,33,33,36,36,37,37,38,38,40,40,41,41,42,42,43,43,44,44,45,45,46,46,47,47,48,48,49,49,50,50,51,51,52,52,53,53,54,54,55,55,57,57,58,58,59,59,60,60,61,61,62,62],"right_children":[2,4,6,8,10,12,14,16,18,20,22,24,26,28,30,32,34,36,38,40,42,44,46,48,50,52,54,56,58,60,62,64,66,68,-1,-1,70,72,74,-1,76,78,80,82,84,86,88,90,92,94,96,98,100,102,104,106,-1,108,110,112,114,116,118,-1,-1,-1,-1,-1,-1,-1,-1,-1,-1,-1,-1,-1,-1,-1,-1,-1,-1,-1,-1,-1,-1,-1,-1,-1,-1,-1,-1,-1,-1,-1,-1,-1,-1,-1,-1,-1,-1,-1,-1,-1,-1,-1,-1,-1,-1,-1,-1,-1,-1,-1,-1,-1,-1,-1,-1],"split_conditions":[7.9177774E-2,5.0044633E-2,1E0,5E0,2.7164166E0,4E0,2.0603172E-1,1E0,1E0,7.766801E-2,5E0,1.379894E0,1E0,1.16875194E-1,-2.1246614E-1,-2.0270723E-1,5.102892E-3,3.1900138E-2,3.8776785E-2,-7.272727E-2,2.5516558E0,0E0,5E0,-1.783503E0,2.3283714E-1,7.2707077E-3,1.5404153E0,1.9523809E0,4.718527E0,2.2286053E-1,2.552839E0,2.9049053E0,5.324459E-2,1.3927542E0,4.1893505E-2,-6.746521E-2,-9.305321E-1,1.2026669E-1,2.4483757E-1,-4.4780183E-3,1.1615989E-1,7.4623497E-3,-2.7944902E-2,-1.578049E-1,4.5769766E-2,9.540578E-2,1E0,3.259362E-2,7.970247E-2,9.773477E-1,-1.8997312E0,6.1026353E-2,1E0,-1.8417988E0,9.425501E-1,-2.3798737E-1,4.466751E-2,-7.6193964E-1,-5.964202E-1,4.0076473E-1,4.2252472E-1,7.76277E-2,1.2436267E-2,-7.770499E-2,9.1214545E-2,-1.0700881E-1,-4.880062E-3,-9.864959E-2,-6.527554E-2,-2.2415768E-2,1.3422982E-1,-8.396291E-2,-1.3110061E-2,-5.1923264E-2,2.0062033E-2,-1.0518024E-1,-2.3162518E-2,-1.0180356E-1,-7.134111E-3,-5.209322E-2,1.4502193E-1,3.9872985E-2,6.743266E-3,4.5414697E-2,4.245613E-3,-6.805711E-2,1.74132E-2,9.760718E-2,-2.752751E-2,7.584825E-4,8.223416E-2,-3.50123E-2,6.238845E-2,7.858498E-2,1.3077374E-3,-3.3404943E-2,1.3859446E-1,1.908711E-2,9.7961776E-2,7.348213E-2,7.1914024E-3,2.9779786E-2,-4.191607E-2,5.9849616E-2,-6.520583E-2,6.1864746E-3,-9.6416436E-2,4.051779E-2,-7.15397E-2,2.034788E-1,1.3913792E-4,8.126723E-2,2.5836548E-1,-1.0911307E-2,1.23445705E-1,-9.498722E-2,3.841788E-3,-6.474968E-2,1.4518385E-1],"split_indices":[14,14,111,134,135,135,14,112,115,14,135,89,112,14,3,25,15,102,14,57,135,90,134,4,14,15,4,55,36,28,7,135,57,90,0,0,92,26,27,0,59,15,6,27,102,24,115,102,14,27,42,102,115,4,42,24,0,28,28,13,14,8,15,0,0,0,0,0,0,0,0,0,0,0,0,0,0,0,0,0,0,0,0,0,0,0,0,0,0,0,0,0,0,0,0,0,0,0,0,0,0,0,0,0,0,0,0,0,0,0,0,0,0,0,0,0,0,0,0],"split_type":[0,0,0,0,0,0,0,0,0,0,0,0,0,0,0,0,0,0,0,0,0,0,0,0,0,0,0,0,0,0,0,0,0,0,0,0,0,0,0,0,0,0,0,0,0,0,0,0,0,0,0,0,0,0,0,0,0,0,0,0,0,0,0,0,0,0,0,0,0,0,0,0,0,0,0,0,0,0,0,0,0,0,0,0,0,0,0,0,0,0,0,0,0,0,0,0,0,0,0,0,0,0,0,0,0,0,0,0,0,0,0,0,0,0,0,0,0,0,0],"sum_hessian":[1.5385506E4,6.2855044E3,9.100001E3,2.921916E3,3.3635884E3,8.600702E3,4.992989E2,2.541456E3,3.8046017E2,1.1474418E3,2.2161465E3,4.8722695E3,3.7284329E3,4.4301697E2,5.628192E1,2.1810576E3,3.6039825E2,1.0631797E1,3.6982837E2,1.0879805E3,5.9461273E1,1.1673473E3,1.0487993E3,4.266167E3,6.0610266E2,3.2982883E3,4.3014444E2,2.7855777E2,1.644592E2,3.751586E1,1.8766062E1,3.5474734E0,2.1775103E3,3.5938953E2,1.008738E0,1.0406086E0,9.591188E0,2.2161707E2,1.4821132E2,1.864685E0,1.0861157E3,4.8179897E1,1.1281376E1,5.0268912E2,6.6465814E2,6.138913E2,4.34908E2,5.660905E2,3.7000764E3,5.38074E2,6.802867E1,2.2398235E3,1.0584648E3,3.7757196E2,5.2572475E1,2.775487E2,1.0090783E0,1.5375688E2,1.0702309E1,6.51586E0,3.1E1,1.5003857E1,3.7622051E0,2.5219738E0,1.0254996E0,2.1765066E3,1.0036194E0,3.322896E2,2.7099926E1,2.1138961E0,7.477292E0,2.1326659E2,8.350472E0,1.3100533E2,1.7205986E1,1.083576E3,2.5397778E0,4.7120747E1,1.0591493E0,3.3857985E0,7.8955774E0,1.4548524E2,3.572039E2,5.614034E2,1.0325473E2,5.7026465E2,4.362665E1,3.503416E1,3.9987384E2,2.2180412E1,5.439101E2,1.3435956E1,3.6866406E3,5.0910983E2,2.896414E1,2.29851E0,6.573016E1,2.1471824E3,9.264108E1,8.727525E2,1.8571236E2,3.1677298E1,3.4589465E2,4.5317482E1,7.2549925E0,1.6082407E0,2.7594046E2,6.392746E0,1.4736414E2,1.2391788E0,9.46313E0,4.0654864E0,2.4503741E0,2.6016426E1,4.9835753E0,9.931721E0,5.0721364E0,1.261397E0,2.500808E0],"tree_param":{"num_deleted":"0","num_feature":"138","num_nodes":"119","size_leaf_vector":"1"}},{"base_weights":[-1.5283044E-2,-6.34265E-1,3.8671538E-1,-9.848718E-1,-3.4897742E-1,4.424058E-1,-6.5288246E-1,-1.0447179E0,-5.9404564E-1,-1.0157135E0,-4.3681514E-2,5.955393E-1,2.3870568E-1,-8.707562E-1,-9.9899456E-2,-1.188277E-1,-1.0459347E0,8.2094234E-1,-6.404105E-1,-1.0437901E0,-7.070259E-1,2.4538843E-1,-3.991126E-1,5.83772E-1,8.215116E-1,-9.132716E-3,3.602178E-1,8.154799E-2,-8.81139E-1,4.6768922E-1,-3.130505E-1,-7.347391E-2,8.112631E-2,-1.06616616E-1,-9.8681843E-1,-2.297761E-2,1.3339345E0,-7.859911E-1,-4.2280355E-1,-1.7495444E-2,-1.0447614E0,-1.0194191E0,5.5759555E-1,-3.7178943E-1,2.765489E-1,-5.964911E-1,-1.287921E-1,6.0762435E-1,4.5335683E-1,4.5626453E-1,9.682877E-1,2.5377285E-1,-2.2318278E-1,2.8281242E-1,6.018722E-1,-8.864026E-1,3.57287E-2,1.0341135E0,-7.577081E-3,-6.0306567E-1,1.4919926E-1,-9.899016E-2,2.3800429E-2,-5.862217E-2,1.1426514E-1,1.8011783E-1,7.1175382E-3,4.544377E-2,-8.0597855E-2,-5.118519E-2,4.367153E-3,-2.0171955E-2,-1.0457788E-1,-1.03261724E-1,-4.7998405E-3,1.582681E-2,2.1718064E-1,-1.0048876E-1,8.598388E-2,8.711456E-2,2.5032043E-2,-6.705698E-2,2.0616483E-2,8.091787E-2,-2.2093223E-2,4.2033058E-2,6.231311E-2,4.7754623E-2,-1.4814526E-2,1.0268444E-1,1.3036911E-2,1.11186765E-1,4.7903713E-2,-5.05807E-2,3.1019047E-2,-2.7606428E-2,8.009223E-2,2.351412E-2,7.078126E-2,7.6932088E-3,8.1729285E-2,-8.916821E-2,2.9705515E-2,-2.7424797E-2,1.3898379E-1,-5.8558982E-2,8.868901E-2,-7.0947126E-2,8.824015E-2,4.7660187E-2,-3.3248726E-2],"categories":[],"categories_nodes":[],"categories_segments":[],"categories_sizes":[],"default_left":[0,0,0,0,0,0,0,0,0,0,0,0,0,0,0,0,0,0,0,0,0,0,0,0,0,0,0,0,0,0,0,0,0,0,0,0,0,0,0,0,0,0,0,0,0,0,0,0,0,0,0,0,0,0,0,0,0,0,0,0,0,0,0,0,0,0,0,0,0,0,0,0,0,0,0,0,0,0,0,0,0,0,0,0,0,0,0,0,0,0,0,0,0,0,0,0,0,0,0,0,0,0,0,0,0,0,0,0,0,0,0],"id":7,"left_children":[1,3,5,7,9,11,13,15,17,19,21,23,25,27,29,31,33,35,37,39,41,43,45,47,49,51,53,-1,55,57,59,-1,-1,-1,61,63,65,67,69,-1,71,73,75,77,79,81,83,85,87,89,91,93,95,97,99,101,-1,103,105,107,109,-1,-1,-1,-1,-1,-1,-1,-1,-1,-1,-1,-1,-1,-1,-1,-1,-1,-1,-1,-1,-1,-1,-1,-1,-1,-1,-1,-1,-1,-1,-1,-1,-1,-1,-1,-1,-1,-1,-1,-1,-1,-1,-1,-1,-1,-1,-1,-1,-1,-1],"loss_changes":[3.782757E3,5.9836523E2,5.338861E2,6.217627E1,6.7204395E2,2.727528E2,5.642108E1,2.4975586E0,2.406823E1,8.249512E0,2.3289828E2,1.279834E1,1.1311824E2,6.606949E0,1.6320927E1,2.9918745E0,1.7270508E0,5.1493487E0,1.0692886E1,6.1779785E-1,3.5947968E1,2.4145699E1,5.4166473E1,1.4499634E1,1.267659E1,6.965042E1,4.6974365E1,0E0,2.4988403E0,9.941629E0,1.3199999E1,0E0,0E0,0E0,2.5238037E0,4.249961E0,4.220504E0,5.507309E0,5.9070377E0,0E0,6.014404E-1,8.7570953E-1,1.15082E1,4.8048325E1,1.8350807E1,3.506024E1,3.736891E1,1.13914795E1,1.0813416E1,1.326143E1,1.1666779E1,2.3960724E1,3.7166824E1,3.8547134E1,6.8982086E1,2.3493652E0,0E0,8.220209E0,1.1406484E1,1.0155544E1,6.230584E0,0E0,0E0,0E0,0E0,0E0,0E0,0E0,0E0,0E0,0E0,0E0,0E0,0E0,0E0,0E0,0E0,0E0,0E0,0E0,0E0,0E0,0E0,0E0,0E0,0E0,0E0,0E0,0E0,0E0,0E0,0E0,0E0,0E0,0E0,0E0,0E0,0E0,0E0,0E0,0E0,0E0,0E0,0E0,0E0,0E0,0E0,0E0,0E0,0E0,0E0],"parents":[2147483647,0,0,1,1,2,2,3,3,4,4,5,5,6,6,7,7,8,8,9,9,10,10,11,11,12,12,13,13,14,14,15,15,16,16,17,17,18,18,19,19,20,20,21,21,22,22,23,23,24,24,25,25,26,26,28,28,29,29,30,30,34,34,35,35,36,36,37,37,38,38,40,40,41,41,42,42,43,43,44,44,45,45,46,46,47,47,48,48,49,49,50,50,51,51,52,52,53,53,54,54,55,55,57,57,58,58,59,59,60,60],"right_children":[2,4,6,8,10,12,14,16,18,20,22,24,26,28,30,32,34,36,38,40,42,44,46,48,50,52,54,-1,56,58,60,-1,-1,-1,62,64,66,68,70,-1,72,74,76,78,80,82,84,86,88,90,92,94,96,98,100,102,-1,104,106,108,110,-1,-1,-1,-1,-1,-1,-1,-1,-1,-1,-1,-1,-1,-1,-1,-1,-1,-1,-1,-1,-1,-1,-1,-1,-1,-1,-1,-1,-1,-1,-1,-1,-1,-1,-1,-1,-1,-1,-1,-1,-1,-1,-1,-1,-1,-1,-1,-1,-1,-1],"split_conditions":[7.970247E-2,5.0044633E-2,1E0,5E0,2.6324773E0,4E0,1.4239413E-1,-7.692308E-2,1E0,7.722085E-2,5E0,1.6487114E-2,1.0154825E-1,-3.1281286E-1,-1.5599428E0,2.7915586E-2,5E0,-1.3184351E0,3.8776785E-2,-6.9071375E-2,2.5154927E0,2.826149E0,5E0,7.489598E-2,-7.1428573E-1,5E0,1E0,8.154799E-2,1.9840637E0,-6.3584644E-1,2.0603172E-1,-7.347391E-2,8.112631E-2,-1.06616616E-1,3.994674E-2,3E0,1E0,-2.7361178E-1,2.1235147E0,-1.7495444E-2,-9.9827355E-1,4.7303572E-1,1E0,7.3982574E-2,-2.2532234E0,1.8865792E-1,1E0,-1.3903743E-1,1.3708987E0,4.5685782E0,1.5080673E0,-1.3630561E0,5.3398058E-2,4.7850206E-2,6.078949E-3,1.4658978E0,3.57287E-2,-1.7348909E0,-1.9454643E-1,1.9108943E0,1.4239219E-1,-9.899016E-2,2.3800429E-2,-5.862217E-2,1.1426514E-1,1.8011783E-1,7.1175382E-3,4.544377E-2,-8.0597855E-2,-5.118519E-2,4.367153E-3,-2.0171955E-2,-1.0457788E-1,-1.03261724E-1,-4.7998405E-3,1.582681E-2,2.1718064E-1,-1.0048876E-1,8.598388E-2,8.711456E-2,2.5032043E-2,-6.705698E-2,2.0616483E-2,8.091787E-2,-2.2093223E-2,4.2033058E-2,6.231311E-2,4.7754623E-2,-1.4814526E-2,1.0268444E-1,1.3036911E-2,1.11186765E-1,4.7903713E-2,-5.05807E-2,3.1019047E-2,-2.7606428E-2,8.009223E-2,2.351412E-2,7.078126E-2,7.6932088E-3,8.1729285E-2,-8.916821E-2,2.9705515E-2,-2.7424797E-2,1.3898379E-1,-5.8558982E-2,8.868901E-2,-7.0947126E-2,8.824015E-2,4.7660187E-2,-3.3248726E-2],"split_indices":[14,14,111,134,135,135,14,59,115,14,135,15,14,24,38,9,135,0,14,57,135,135,134,102,88,135,106,0,55,0,14,0,0,0,57,67,99,27,11,0,52,51,101,14,16,50,115,59,28,37,52,93,102,102,15,27,0,1,5,16,43,0,0,0,0,0,0,0,0,0,0,0,0,0,0,0,0,0,0,0,0,0,0,0,0,0,0,0,0,0,0,0,0,0,0,0,0,0,0,0,0,0,0,0,0,0,0,0,0,0,0],"split_type":[0,0,0,0,0,0,0,0,0,0,0,0,0,0,0,0,0,0,0,0,0,0,0,0,0,0,0,0,0,0,0,0,0,0,0,0,0,0,0,0,0,0,0,0,0,0,0,0,0,0,0,0,0,0,0,0,0,0,0,0,0,0,0,0,0,0,0,0,0,0,0,0,0,0,0,0,0,0,0,0,0,0,0,0,0,0,0,0,0,0,0,0,0,0,0,0,0,0,0,0,0,0,0,0,0,0,0,0,0,0,0],"sum_hessian":[1.5200203E4,5.984665E3,9.215538E3,2.6838591E3,3.3008057E3,8.747515E3,4.680227E2,2.3260107E3,3.578485E2,1.0359866E3,2.264819E3,4.9924614E3,3.7550537E3,3.3532928E2,1.3269344E2,3.182235E0,2.3228284E3,1.0823539E1,3.47025E2,9.474316E2,8.8555046E1,1.2491791E3,1.0156401E3,4.748759E3,2.4370273E2,1.2356743E3,2.5193796E3,1.5775781E0,3.337517E2,3.5900837E1,9.67926E1,2.0408247E0,1.1414104E0,1.7178779E3,6.0495056E2,4.453056E0,6.3704824E0,2.0635805E2,1.4066695E2,1.2602936E0,9.4617126E2,7.1168526E1,1.738652E1,5.951272E1,1.1896664E3,5.863219E2,4.293182E2,4.0114282E3,7.373303E2,7.1037346E1,1.7266537E2,5.544676E2,6.8120667E2,1.9098102E3,6.0956934E2,3.3262222E2,1.1294792E0,1.5843101E1,2.0057735E1,5.9289677E1,3.7502926E1,6.036229E2,1.3276408E0,3.3374445E0,1.1156113E0,4.3387017E0,2.0317807E0,2.9277055E0,2.0343034E2,1.1803686E2,2.263008E1,1.3806256E0,9.4479065E2,7.015241E1,1.0161177E0,1.4818684E1,2.567836E0,3.9428993E1,2.0083725E1,4.8899788E1,1.1407666E3,5.3693195E2,4.9389965E1,3.770506E1,3.9161313E2,3.088747E2,3.7025535E3,7.090231E2,2.8307268E1,2.5042292E1,4.5995056E1,1.3250629E2,4.015909E1,3.778486E1,5.1668274E2,6.4845306E2,3.2753597E1,1.718593E3,1.9121716E2,1.777595E2,4.318098E2,3.313904E2,1.2318119E0,3.4356718E0,1.240743E1,1.2393964E1,7.663771E0,5.581405E1,3.4756272E0,2.2333435E1,1.5169493E1],"tree_param":{"num_deleted":"0","num_feature":"138","num_nodes":"111","size_leaf_vector":"1"}},{"base_weights":[-2.2362057E-2,-6.019278E-1,3.3457786E-1,-9.732127E-1,-3.2150683E-1,3.811638E-1,-6.180737E-1,-1.0340339E0,-5.969904E-1,-9.77172E-1,-4.1585643E-2,5.131682E-1,2.0234443E-1,-8.340353E-1,-1.0111089E-1,-1.0502703E0,-9.3349445E-1,4.415887E-1,-6.3502717E-1,-1.0209888E0,-2.2263904E-1,2.246479E-1,-3.804613E-1,4.9473864E-1,6.315457E-1,2.6005265E-1,-2.6435602E-1,2.3296108E-2,-8.466178E-1,8.9341426E-1,-2.1433353E-1,-3.778468E-1,-1.0512974E0,-2.993515E-1,-9.471003E-1,-7.1265355E-2,6.3690925E-1,-7.858396E-1,-4.3833953E-1,-1.0350243E0,-8.094415E-1,-5.1376367E-1,8.5084975E-1,-3.6163396E-1,2.547787E-1,-4.2296356E-1,6.7333114E-1,5.118246E-1,3.391534E-1,7.613309E-1,4.025197E-1,1.776544E-1,5.0127E-1,-3.5289553E-1,2.1567029E-1,1.01032495E-1,-7.791605E-2,-8.592567E-1,-7.632575E-2,2.1910188E-1,1.9135183E0,-2.76193E-1,9.146829E-1,4.225391E-2,-7.5846694E-2,-1.0518284E-1,-1.2002858E-2,-8.869647E-2,9.132435E-2,-7.420031E-2,-1.00295424E-1,8.3581716E-2,-4.1879885E-2,-7.996207E-2,5.8523744E-2,-4.8961565E-2,4.751843E-2,-2.537461E-2,-1.03612006E-1,-1.0445131E-1,1.2020114E-2,-6.1070092E-2,7.5235985E-2,1.2336623E-1,-2.3463286E-2,-9.797741E-2,7.5024925E-2,2.2167627E-2,7.0093654E-2,-4.709006E-2,2.8254548E-2,-4.8957527E-2,8.110433E-2,4.4483062E-2,5.5243928E-2,4.966803E-2,1.7613724E-2,1.131075E-1,6.839662E-2,4.4156503E-2,-5.5440824E-2,1.5038296E-2,6.5255396E-2,5.8828082E-2,6.040731E-3,-4.358616E-2,5.9306016E-3,1.0011216E-1,-1.8000677E-2,-6.9027595E-2,-9.098213E-2,1.1923666E-1,-6.529202E-2,1.0208851E-1,-6.409329E-2,2.9870529E-2,2.2268577E-1,-3.9090868E-2,2.8307034E-2,1.6614804E-1,-4.3502E-2],"categories":[],"categories_nodes":[],"categories_segments":[],"categories_sizes":[],"default_left":[0,0,0,0,0,0,0,0,0,0,0,0,0,0,0,0,0,0,0,0,0,0,0,0,0,0,0,0,0,0,0,0,0,0,0,0,0,0,0,0,0,0,0,0,0,0,0,0,0,0,0,0,0,0,0,0,0,0,0,0,0,0,0,0,0,0,0,0,0,0,0,0,0,0,0,0,0,0,0,0,0,0,0,0,0,0,0,0,0,0,0,0,0,0,0,0,0,0,0,0,0,0,0,0,0,0,0,0,0,0,0,0,0,0,0,0,0,0,0,0,0],"id":8,"left_children":[1,3,5,7,9,11,13,15,17,19,21,23,25,27,29,31,33,35,37,39,41,43,45,47,49,51,53,55,57,59,61,63,65,67,69,-1,71,73,75,77,79,81,83,85,87,89,91,93,95,97,99,101,103,105,107,-1,-1,109,111,113,115,117,119,-1,-1,-1,-1,-1,-1,-1,-1,-1,-1,-1,-1,-1,-1,-1,-1,-1,-1,-1,-1,-1,-1,-1,-1,-1,-1,-1,-1,-1,-1,-1,-1,-1,-1,-1,-1,-1,-1,-1,-1,-1,-1,-1,-1,-1,-1,-1,-1,-1,-1,-1,-1,-1,-1,-1,-1,-1,-1],"loss_changes":[3.1188408E3,5.979568E2,4.1431006E2,5.5947998E1,6.010646E2,2.0988123E2,4.8521927E1,2.4907227E0,1.3964035E1,3.2168213E1,2.0725774E2,1.085144E1,1.0186339E2,3.3308716E0,1.4764795E1,8.619385E-1,2.3452454E0,3.3458326E0,9.579468E0,1.9110718E0,1.7643764E1,2.2820312E1,4.5552048E1,1.1609253E1,2.0076324E1,6.6777466E1,1.7774609E1,5.074492E0,2.8797607E0,8.813121E0,8.42399E0,1.6430738E0,7.735596E-1,6.4118786E0,2.66745E0,0E0,2.7647214E0,4.022072E0,7.139805E0,4.7729492E-1,1.3716244E1,5.851857E0,5.3267784E0,4.4243927E1,1.7926315E1,3.30101E1,6.733925E0,1.0616089E1,1.1251469E1,1.171463E1,9.591541E0,3.239862E1,3.280185E1,1.2062267E1,2.0526623E1,0E0,0E0,1.9143829E0,5.153954E0,7.0049686E0,1.972023E0,7.2763367E0,7.0824285E0,0E0,0E0,0E0,0E0,0E0,0E0,0E0,0E0,0E0,0E0,0E0,0E0,0E0,0E0,0E0,0E0,0E0,0E0,0E0,0E0,0E0,0E0,0E0,0E0,0E0,0E0,0E0,0E0,0E0,0E0,0E0,0E0,0E0,0E0,0E0,0E0,0E0,0E0,0E0,0E0,0E0,0E0,0E0,0E0,0E0,0E0,0E0,0E0,0E0,0E0,0E0,0E0,0E0,0E0,0E0,0E0,0E0,0E0],"parents":[2147483647,0,0,1,1,2,2,3,3,4,4,5,5,6,6,7,7,8,8,9,9,10,10,11,11,12,12,13,13,14,14,15,15,16,16,17,17,18,18,19,19,20,20,21,21,22,22,23,23,24,24,25,25,26,26,27,27,28,28,29,29,30,30,31,31,32,32,33,33,34,34,36,36,37,37,38,38,39,39,40,40,41,41,42,42,43,43,44,44,45,45,46,46,47,47,48,48,49,49,50,50,51,51,52,52,53,53,54,54,57,57,58,58,59,59,60,60,61,61,62,62],"right_children":[2,4,6,8,10,12,14,16,18,20,22,24,26,28,30,32,34,36,38,40,42,44,46,48,50,52,54,56,58,60,62,64,66,68,70,-1,72,74,76,78,80,82,84,86,88,90,92,94,96,98,100,102,104,106,108,-1,-1,110,112,114,116,118,120,-1,-1,-1,-1,-1,-1,-1,-1,-1,-1,-1,-1,-1,-1,-1,-1,-1,-1,-1,-1,-1,-1,-1,-1,-1,-1,-1,-1,-1,-1,-1,-1,-1,-1,-1,-1,-1,-1,-1,-1,-1,-1,-1,-1,-1,-1,-1,-1,-1,-1,-1,-1,-1,-1,-1,-1,-1,-1],"split_conditions":[8.027762E-4,5.004463E-4,1E0,5E0,2.6324773E0,4E0,1.4239412E-3,1E0,1E0,7.9177774E-4,5E0,3.071259E0,1E0,-1.1262202E0,-3.424168E-1,-2.0270723E-1,-2.7893212E0,-3.4341356E-1,3.8064425E-4,2.5516558E0,2.5050962E0,1.7047844E0,1E0,2.3376828E-1,1.6257296E0,8.291281E-3,1.3894176E0,-5.4638296E-1,1.7719944E-1,-1.3728836E0,1.9108943E0,-6.6055596E-2,5.324459E-2,5.394882E-3,-1.0302896E-1,-7.1265355E-2,1.6455401E-3,4.0221915E-2,2.3174427E0,-9.9827355E-1,7.629939E-4,5.9375E-1,1.1169021E0,7.453372E-4,4.856943E-3,9.540578E-2,-6.7927337E-1,1.904762E-2,6.256244E-1,-1.4030316E-1,2.3907242E0,1E0,1E0,1.6195232E-3,-4.1697448E-1,1.01032495E-1,-7.791605E-2,-3.8510028E-1,1.0814517E0,-7.8564966E-1,9.52381E-2,2.6613518E-3,1.4268945E0,4.225391E-2,-7.5846694E-2,-1.0518284E-1,-1.2002858E-2,-8.869647E-2,9.132435E-2,-7.420031E-2,-1.00295424E-1,8.3581716E-2,-4.1879885E-2,-7.996207E-2,5.8523744E-2,-4.8961565E-2,4.751843E-2,-2.537461E-2,-1.03612006E-1,-1.0445131E-1,1.2020114E-2,-6.1070092E-2,7.5235985E-2,1.2336623E-1,-2.3463286E-2,-9.797741E-2,7.5024925E-2,2.2167627E-2,7.0093654E-2,-4.709006E-2,2.8254548E-2,-4.8957527E-2,8.110433E-2,4.4483062E-2,5.5243928E-2,4.966803E-2,1.7613724E-2,1.131075E-1,6.839662E-2,4.4156503E-2,-5.5440824E-2,1.5038296E-2,6.5255396E-2,5.8828082E-2,6.040731E-3,-4.358616E-2,5.9306016E-3,1.0011216E-1,-1.8000677E-2,-6.9027595E-2,-9.098213E-2,1.1923666E-1,-6.529202E-2,1.0208851E-1,-6.409329E-2,2.9870529E-2,2.2268577E-1,-3.9090868E-2,2.8307034E-2,1.6614804E-1,-4.3502E-2],"split_indices":[56,56,111,134,135,135,56,112,115,56,135,13,112,27,24,25,4,9,56,135,135,134,116,6,36,15,4,4,24,42,16,28,57,25,27,0,9,102,4,52,56,62,90,56,15,24,28,62,4,24,38,116,115,56,52,0,0,27,42,6,62,56,34,0,0,0,0,0,0,0,0,0,0,0,0,0,0,0,0,0,0,0,0,0,0,0,0,0,0,0,0,0,0,0,0,0,0,0,0,0,0,0,0,0,0,0,0,0,0,0,0,0,0,0,0,0,0,0,0,0,0],"split_type":[0,0,0,0,0,0,0,0,0,0,0,0,0,0,0,0,0,0,0,0,0,0,0,0,0,0,0,0,0,0,0,0,0,0,0,0,0,0,0,0,0,0,0,0,0,0,0,0,0,0,0,0,0,0,0,0,0,0,0,0,0,0,0,0,0,0,0,0,0,0,0,0,0,0,0,0,0,0,0,0,0,0,0,0,0,0,0,0,0,0,0,0,0,0,0,0,0,0,0,0,0,0,0,0,0,0,0,0,0,0,0,0,0,0,0,0,0,0,0,0,0],"sum_hessian":[1.5074346E4,5.745177E3,9.329169E3,2.4710156E3,3.2741611E3,8.894802E3,4.3436786E2,2.1256318E3,3.4538373E2,9.788619E2,2.2952993E3,5.1161733E3,3.778628E3,3.0594556E2,1.2842229E2,1.8219521E3,3.036798E2,1.1827557E1,3.3355618E2,9.24804E2,5.4057854E1,1.2856115E3,1.00968787E3,4.4314434E3,6.8473E2,3.3632053E3,4.154226E2,4.4129143E0,3.0153265E2,1.2421708E1,1.1600058E2,3.3414474E0,1.8186107E3,6.8618574E0,2.9681796E2,1.3284539E0,1.0499104E1,1.8709988E2,1.4645628E2,8.636133E2,6.1190727E1,4.2935402E1,1.1122453E1,6.2304054E1,1.2233074E3,9.711187E2,3.8569164E1,3.9908855E3,4.4055798E2,4.3557358E2,2.4915642E2,2.5081685E3,8.55037E2,3.509548E2,6.44678E1,1.8627164E0,2.550198E0,2.9655136E2,4.9812813E0,8.209694E0,4.2120137E0,1.1069112E2,5.3094616E0,1.0414029E0,2.3000443E0,1.8174451E3,1.1655527E0,4.8029356E0,2.0589218E0,6.658836E1,2.302296E2,9.009831E0,1.4892715E0,1.8565067E2,1.449223E0,1.3911195E2,7.3443255E0,1.5352706E0,8.62078E2,4.874212E1,1.2448607E1,4.0362797E1,2.5726047E0,8.121697E0,3.0007548E0,4.011908E1,2.2184975E1,1.1402072E3,8.310022E1,9.096439E2,6.14748E1,3.813246E0,3.4755917E1,1.5107894E3,2.480096E3,2.2301035E2,2.1754765E2,7.3012054E1,3.6256152E2,2.3990614E2,9.250279E0,2.3732021E3,1.3496619E2,7.1381976E2,1.4121725E2,2.92104E2,5.88508E1,2.108406E1,4.3383736E1,7.167471E1,2.2487666E2,1.2227949E0,3.7584865E0,4.151942E0,4.0577517E0,1.0019097E0,3.2101042E0,9.2100555E1,1.8590563E1,3.2694573E0,2.0400043E0],"tree_param":{"num_deleted":"0","num_feature":"138","num_nodes":"121","size_leaf_vector":"1"}},{"base_weights":[-1.5439867E-2,-5.837156E-1,3.049882E-1,-9.610502E-1,-3.1417555E-1,3.4624857E-1,-5.816285E-1,-1.0258381E0,-5.7215744E-1,-1.004949E0,-4.5906216E-2,4.617227E-1,1.8719286E-1,1.6422305E-1,-7.36449E-1,-1.0535385E-1,-9.466062E-1,5.613287E-1,-6.1428154E-1,-1.0177354E0,-4.022951E-1,1.1926191E-1,-5.511696E-1,4.9447778E-1,3.9986068E-1,2.4005027E-1,-2.5250897E-1,7.712059E-1,-1.4720306E-1,-8.3248687E-1,-2.9839322E-1,7.3789544E-2,-9.520998E-1,9.362824E-1,-4.812003E-1,-6.586444E-1,-4.9780406E-2,-1.0311947E0,-8.169438E-1,-9.225952E-1,6.864551E-1,2.1506466E-1,-2.1376595E-1,-6.2355256E-1,1.0434749E-1,4.7107387E-1,6.551571E-1,4.746914E-1,2.589267E-1,3.3661995E-2,3.3320466E-1,-3.5664886E-1,2.3481621E-1,1.4574983E0,2.11965E-1,-6.3873476E-1,2.4670587E-1,-8.664717E-1,-1.9109131E-1,-3.8930714E-1,8.85822E-1,-1.0099603E-1,-8.33809E-2,-5.0587572E-2,1.376367E-1,-8.484463E-2,2.7731726E-2,-2.814928E-2,-7.095896E-2,3.0390734E-2,-9.462011E-2,-4.2515174E-2,-1.0323476E-1,-9.979533E-2,9.458489E-3,-9.884753E-2,-4.500187E-3,1.1649548E-1,-4.7267262E-2,-3.9488103E-2,2.4019858E-2,-2.3828678E-2,1.2795177E-1,5.3733986E-2,-6.531536E-2,6.561862E-2,-6.1860528E-2,4.8018977E-2,1.6272422E-3,4.625352E-2,9.114829E-2,4.821908E-2,-4.5587715E-2,2.1243354E-2,6.1205752E-2,2.1725265E-2,-1.7091211E-2,5.3864863E-2,2.6595488E-2,2.0845829E-2,-4.1220542E-2,1.0511682E-1,5.7881097E-3,5.902895E-2,2.5813589E-1,-7.014807E-2,7.525766E-2,-1.005814E-1,-1.7088791E-2,-8.042303E-2,4.4908907E-2,-7.2021015E-2,-9.061341E-2,-5.8903504E-2,4.934339E-2,7.8167446E-2,-4.6848398E-2,-2.3039168E-2,1.3244268E-1],"categories":[],"categories_nodes":[],"categories_segments":[],"categories_sizes":[],"default_left":[0,0,0,0,0,0,0,0,0,0,0,0,0,0,0,0,0,0,0,0,0,0,0,0,0,0,0,0,0,0,0,0,0,0,0,0,0,0,0,0,0,0,0,0,0,0,0,0,0,0,0,0,0,0,0,0,0,0,0,0,0,0,0,0,0,0,0,0,0,0,0,0,0,0,0,0,0,0,0,0,0,0,0,0,0,0,0,0,0,0,0,0,0,0,0,0,0,0,0,0,0,0,0,0,0,0,0,0,0,0,0,0,0,0,0,0,0,0,0],"id":9,"left_children":[1,3,5,7,9,11,13,15,17,19,21,23,25,27,29,-1,31,33,35,37,39,41,43,45,47,49,51,53,55,57,59,-1,61,63,65,67,69,71,73,75,77,79,81,83,85,87,89,91,93,95,97,99,101,103,105,107,109,111,113,115,117,-1,-1,-1,-1,-1,-1,-1,-1,-1,-1,-1,-1,-1,-1,-1,-1,-1,-1,-1,-1,-1,-1,-1,-1,-1,-1,-1,-1,-1,-1,-1,-1,-1,-1,-1,-1,-1,-1,-1,-1,-1,-1,-1,-1,-1,-1,-1,-1,-1,-1,-1,-1,-1,-1,-1,-1,-1,-1],"loss_changes":[2.7116028E3,5.4578174E2,3.485459E2,5.5769043E1,5.8062244E2,1.670415E2,4.9058914E1,3.20813E0,1.5704147E1,6.3443604E0,1.8850217E2,1.04835205E1,8.905557E1,1.4038865E1,1.45239105E1,0E0,5.3869324E0,5.160451E0,7.7463303E0,1.4752808E0,1.1885215E1,5.436508E1,2.6468018E1,1.2635986E1,1.917746E1,6.571744E1,2.0962255E1,9.339992E0,9.746917E0,6.0999603E0,7.310378E0,0E0,2.6142273E0,6.5360003E0,1.3071158E0,5.332306E0,7.806441E0,1.1987305E-1,9.77755E0,7.572336E-1,4.4310474E0,2.0371845E1,1.4250446E1,1.7576263E1,2.2823593E1,1.2463806E1,2.1059982E1,8.55365E0,1.0326733E1,4.001008E1,3.2399597E1,1.0740292E1,1.04889345E1,9.311855E0,7.946356E0,3.6598806E0,6.3622885E0,9.292908E-1,4.5801E0,6.0014057E0,2.7129493E0,0E0,0E0,0E0,0E0,0E0,0E0,0E0,0E0,0E0,0E0,0E0,0E0,0E0,0E0,0E0,0E0,0E0,0E0,0E0,0E0,0E0,0E0,0E0,0E0,0E0,0E0,0E0,0E0,0E0,0E0,0E0,0E0,0E0,0E0,0E0,0E0,0E0,0E0,0E0,0E0,0E0,0E0,0E0,0E0,0E0,0E0,0E0,0E0,0E0,0E0,0E0,0E0,0E0,0E0,0E0,0E0,0E0,0E0],"parents":[2147483647,0,0,1,1,2,2,3,3,4,4,5,5,6,6,7,7,8,8,9,9,10,10,11,11,12,12,13,13,14,14,16,16,17,17,18,18,19,19,20,20,21,21,22,22,23,23,24,24,25,25,26,26,27,27,28,28,29,29,30,30,32,32,33,33,34,34,35,35,36,36,37,37,38,38,39,39,40,40,41,41,42,42,43,43,44,44,45,45,46,46,47,47,48,48,49,49,50,50,51,51,52,52,53,53,54,54,55,55,56,56,57,57,58,58,59,59,60,60],"right_children":[2,4,6,8,10,12,14,16,18,20,22,24,26,28,30,-1,32,34,36,38,40,42,44,46,48,50,52,54,56,58,60,-1,62,64,66,68,70,72,74,76,78,80,82,84,86,88,90,92,94,96,98,100,102,104,106,108,110,112,114,116,118,-1,-1,-1,-1,-1,-1,-1,-1,-1,-1,-1,-1,-1,-1,-1,-1,-1,-1,-1,-1,-1,-1,-1,-1,-1,-1,-1,-1,-1,-1,-1,-1,-1,-1,-1,-1,-1,-1,-1,-1,-1,-1,-1,-1,-1,-1,-1,-1,-1,-1,-1,-1,-1,-1,-1,-1,-1,-1],"split_conditions":[7.970247E-2,4.9597528E-2,1E0,5E0,2.6324773E0,0E0,-4.050767E-1,3.2146797E-1,1E0,7.9177774E-2,3.2146797E-1,6.449376E-2,1E0,-8.6799777E-1,1.4935382E-1,-1.0535385E-1,-7.692308E-2,-1.8181819E-1,2.4483757E-1,7.722085E-2,2.5154927E0,1E0,9.061385E-2,1.9557667E-1,6.256244E-1,1.0154825E-1,1.3125921E0,2.6706514E-1,2.0077178E-1,1.3128965E-1,3.0732223E-1,7.3789544E-2,3.8776785E-2,-5.0413674E-1,5.22159E-1,-1.7079912E-1,1.3287358E0,-7.886222E-1,2.5370357E0,5.555556E-1,4.6175197E-2,2.7824414E0,8.9995426E-1,-3.2117322E-1,2.367898E-1,3.2263997E0,-2.624243E-16,5E0,2.4515507E0,5E0,-4.97822E-2,-1.8417988E0,-1.7769608E-1,7.1428573E-1,-1.2420846E0,-8.2126606E-1,-8.636512E-1,-3.8510028E-1,1.2636751E-1,-1.3586074E0,7.5520836E-2,-1.0099603E-1,-8.33809E-2,-5.0587572E-2,1.376367E-1,-8.484463E-2,2.7731726E-2,-2.814928E-2,-7.095896E-2,3.0390734E-2,-9.462011E-2,-4.2515174E-2,-1.0323476E-1,-9.979533E-2,9.458489E-3,-9.884753E-2,-4.500187E-3,1.1649548E-1,-4.7267262E-2,-3.9488103E-2,2.4019858E-2,-2.3828678E-2,1.2795177E-1,5.3733986E-2,-6.531536E-2,6.561862E-2,-6.1860528E-2,4.8018977E-2,1.6272422E-3,4.625352E-2,9.114829E-2,4.821908E-2,-4.5587715E-2,2.1243354E-2,6.1205752E-2,2.1725265E-2,-1.7091211E-2,5.3864863E-2,2.6595488E-2,2.0845829E-2,-4.1220542E-2,1.0511682E-1,5.7881097E-3,5.902895E-2,2.5813589E-1,-7.014807E-2,7.525766E-2,-1.005814E-1,-1.7088791E-2,-8.042303E-2,4.4908907E-2,-7.2021015E-2,-9.061341E-2,-5.8903504E-2,4.934339E-2,7.8167446E-2,-4.6848398E-2,-2.3039168E-2,1.3244268E-1],"split_indices":[14,14,111,134,135,127,26,127,115,14,127,102,112,0,14,0,59,55,132,14,135,115,24,14,4,14,4,13,14,24,14,0,14,2,5,132,42,132,135,61,7,135,9,26,4,4,89,66,4,135,58,4,43,89,34,2,5,132,14,0,61,0,0,0,0,0,0,0,0,0,0,0,0,0,0,0,0,0,0,0,0,0,0,0,0,0,0,0,0,0,0,0,0,0,0,0,0,0,0,0,0,0,0,0,0,0,0,0,0,0,0,0,0,0,0,0,0,0,0],"split_type":[0,0,0,0,0,0,0,0,0,0,0,0,0,0,0,0,0,0,0,0,0,0,0,0,0,0,0,0,0,0,0,0,0,0,0,0,0,0,0,0,0,0,0,0,0,0,0,0,0,0,0,0,0,0,0,0,0,0,0,0,0,0,0,0,0,0,0,0,0,0,0,0,0,0,0,0,0,0,0,0,0,0,0,0,0,0,0,0,0,0,0,0,0,0,0,0,0,0,0,0,0,0,0,0,0,0,0,0,0,0,0,0,0,0,0,0,0,0,0],"sum_hessian":[1.4889452E4,5.368195E3,9.521258E3,2.235753E3,3.132442E3,9.098453E3,4.228042E2,1.9150723E3,3.2068082E2,8.754578E2,2.2569841E3,5.2703135E3,3.82814E3,7.266724E1,3.5013696E2,1.4098705E3,5.0520175E2,1.1048889E1,3.0963193E2,8.5659485E2,1.8862938E1,1.7015271E3,5.55457E2,3.4412346E3,1.8290791E3,3.4177407E3,4.103992E2,2.414033E1,4.852691E1,2.864387E2,6.3698254E1,1.2088556E0,5.039929E2,8.201182E0,2.8477066E0,2.86917E2,2.2714909E1,7.9890735E2,5.7687485E1,1.2866709E1,5.9962287E0,1.3216731E3,3.7985397E2,5.0026575E2,5.519122E1,3.0071555E3,4.3407907E2,1.1931779E3,6.3590125E2,1.0633021E3,2.3544385E3,3.3836072E2,7.20385E1,1.0117756E1,1.4022573E1,2.1311827E1,2.7215084E1,2.7169196E2,1.4746735E1,5.97801E1,3.9181523E0,3.333841E2,1.7060878E2,1.882554E0,6.3186283E0,1.8388469E0,1.0088596E0,3.4920795E1,2.5199622E2,1.6762247E1,5.952661E0,2.2190113E0,7.9668835E2,4.805084E1,9.636648E0,1.1850738E1,1.0159715E0,4.2406273E0,1.7556014E0,5.1724327E1,1.2699489E3,3.745441E2,5.309863E0,1.2012362E1,4.882534E2,3.1352118E1,2.3839102E1,2.9480105E3,5.9144993E1,2.4943782E2,1.8464125E2,1.184117E3,9.060925E0,5.633343E2,7.2566956E1,5.6035846E2,5.029437E2,5.789062E2,1.7755323E3,3.0040817E1,3.083199E2,1.1952141E1,6.0086357E1,6.5718927E0,3.545863E0,5.1028914E0,8.9196825E0,1.1297653E1,1.0014173E1,3.9144278E0,2.3300655E1,6.2045883E1,2.0964607E2,9.413667E0,5.333068E0,3.2241535E0,5.655595E1,1.2392015E0,2.6789508E0],"tree_param":{"num_deleted":"0","num_feature":"138","num_nodes":"119","size_leaf_vector":"1"}},{"base_weights":[-1.7806446E-2,-6.21521E-1,2.335971E-1,-9.3983656E-1,-3.2701197E-1,2.7247015E-1,-6.131427E-1,-1.0062741E0,-5.374353E-1,-1.0273017E-1,-6.3168414E-2,2.9734257E-1,-2.3750533E-1,-8.070435E-1,-9.173354E-2,-1.0174851E0,7.292362E-1,-7.1863925E-1,-2.861166E-1,1.9839375E-1,-4.1487986E-1,3.2724702E-1,-6.333281E-2,-4.301629E-1,-3.6964986E-2,-1.8871236E-1,-8.3936036E-1,4.4975257E-1,-3.081641E-1,-1.0458936E-1,-9.366607E-1,-7.5594485E-2,9.881251E-1,6.1101258E-2,-7.332719E-1,-3.2297438E-1,9.3755454E-1,2.5557753E-2,2.885593E-1,-4.4032833E-1,7.868865E-1,-3.5408676E-2,3.5685205E-1,-1.3471794E-1,3.2188606E-1,-5.1870966E-1,-1.0036106E-2,-1.723733E-1,5.820812E-1,2.4259332E-1,-7.972288E-1,-8.5930854E-1,-2.6518213E-2,1.7639366E0,2.2184435E-1,-5.746142E-1,6.0624637E-2,6.598132E-2,-9.4251275E-2,1.16819225E-1,-2.6242478E-2,2.7868325E-2,-7.513266E-2,-6.080631E-2,-1.6076257E-2,2.1125248E-1,-3.4789912E-2,4.39005E-2,-5.920011E-3,3.4760613E-2,-1.03849275E-2,1.8022174E-1,-4.534626E-2,2.7810235E-2,2.3632772E-1,-6.770381E-2,2.1526676E-2,3.789895E-2,1.6008794E-2,1.6154948E-3,-2.677527E-2,-4.910084E-2,5.0181895E-2,-3.5731137E-2,-7.14648E-2,-4.340747E-2,4.6528034E-2,1.2145155E-1,-2.2629501E-2,1.109898E-2,1.259572E-1,-6.408023E-2,7.6163076E-2,-9.0622455E-2,-4.5244484E-3,-6.634272E-2,-9.056173E-2,1.1183182E-1,-5.953945E-2,-1.50528075E-2,2.3174179E-1,-3.0125703E-3,1.5777259E-1,-6.555232E-2,1.5960732E-1,-1.865842E-2,1.128596E-1],"categories":[],"categories_nodes":[],"categories_segments":[],"categories_sizes":[],"default_left":[0,0,0,0,0,0,0,0,0,0,0,0,0,0,0,0,0,0,0,0,0,0,0,0,0,0,0,0,0,0,0,0,0,0,0,0,0,0,0,0,0,0,0,0,0,0,0,0,0,0,0,0,0,0,0,0,0,0,0,0,0,0,0,0,0,0,0,0,0,0,0,0,0,0,0,0,0,0,0,0,0,0,0,0,0,0,0,0,0,0,0,0,0,0,0,0,0,0,0,0,0,0,0,0,0,0,0],"id":10,"left_children":[1,3,5,7,9,11,13,15,17,-1,19,21,23,25,27,29,31,33,35,37,39,41,43,45,47,49,51,53,55,-1,57,-1,59,-1,61,63,65,67,69,71,73,75,77,79,81,83,85,87,89,91,93,95,97,99,101,103,105,-1,-1,-1,-1,-1,-1,-1,-1,-1,-1,-1,-1,-1,-1,-1,-1,-1,-1,-1,-1,-1,-1,-1,-1,-1,-1,-1,-1,-1,-1,-1,-1,-1,-1,-1,-1,-1,-1,-1,-1,-1,-1,-1,-1,-1,-1,-1,-1,-1,-1],"loss_changes":[2.232409E3,4.0508142E2,3.41971E2,5.5003418E1,4.1523083E2,1.2601587E2,4.604013E1,3.541504E1,1.329966E1,0E0,1.5036838E2,1.0213983E2,1.7845383E1,6.4827576E0,1.4760781E1,3.086914E0,5.368736E0,3.7878036E0,5.9812956E0,1.460355E1,2.1665192E1,9.3882996E1,2.0000454E1,8.762695E0,1.9179556E1,4.8644347E0,5.093811E0,1.0401817E1,8.852373E0,0E0,5.014496E0,0E0,2.7091417E0,0E0,3.3197708E0,5.588789E0,6.682239E0,1.1328249E1,1.4310093E1,2.0942139E1,1.1224126E1,1.06426315E2,3.5149414E1,1.2307747E1,1.6885221E1,5.9000626E0,8.676705E0,1.4299034E1,1.2971186E1,5.6151385E0,5.8318186E-1,2.1926575E0,6.2604957E0,5.839678E0,1.0930071E1,1.021232E1,1.0386415E1,0E0,0E0,0E0,0E0,0E0,0E0,0E0,0E0,0E0,0E0,0E0,0E0,0E0,0E0,0E0,0E0,0E0,0E0,0E0,0E0,0E0,0E0,0E0,0E0,0E0,0E0,0E0,0E0,0E0,0E0,0E0,0E0,0E0,0E0,0E0,0E0,0E0,0E0,0E0,0E0,0E0,0E0,0E0,0E0,0E0,0E0,0E0,0E0,0E0,0E0],"parents":[2147483647,0,0,1,1,2,2,3,3,4,4,5,5,6,6,7,7,8,8,10,10,11,11,12,12,13,13,14,14,15,15,16,16,17,17,18,18,19,19,20,20,21,21,22,22,23,23,24,24,25,25,26,26,27,27,28,28,30,30,32,32,34,34,35,35,36,36,37,37,38,38,39,39,40,40,41,41,42,42,43,43,44,44,45,45,46,46,47,47,48,48,49,49,50,50,51,51,52,52,53,53,54,54,55,55,56,56],"right_children":[2,4,6,8,10,12,14,16,18,-1,20,22,24,26,28,30,32,34,36,38,40,42,44,46,48,50,52,54,56,-1,58,-1,60,-1,62,64,66,68,70,72,74,76,78,80,82,84,86,88,90,92,94,96,98,100,102,104,106,-1,-1,-1,-1,-1,-1,-1,-1,-1,-1,-1,-1,-1,-1,-1,-1,-1,-1,-1,-1,-1,-1,-1,-1,-1,-1,-1,-1,-1,-1,-1,-1,-1,-1,-1,-1,-1,-1,-1,-1,-1,-1,-1,-1,-1,-1,-1,-1,-1,-1],"split_conditions":[7.1767066E-4,5.004463E-4,1E0,1E0,2.826149E0,1E0,1.4239412E-3,1E0,3.8776782E-4,-1.0273017E-1,5E0,1E0,1.04566E-3,-4.050767E-1,-1.5599428E0,5E0,-1.0101526E0,-2.875693E-1,4.6323198E-1,7.716744E-2,5.857161E-1,8.0720725E-4,1.6453484E-3,8.706607E-1,1.3125921E0,1.654292E-4,1.5608393E-1,7.3649264E-3,2.0603172E-3,-1.0458936E-1,-2.0270723E-1,-7.5594485E-2,2.5E-1,6.1101258E-2,-2.7361178E-1,-6.198339E-1,1.2026669E-1,-1.6609213E0,4.5769766E-2,-3.7767217E-1,9.803652E-2,2.5725703E0,1E0,-7.252668E-2,-6.094668E-1,-1.9410497E-1,8.788657E-4,-2.508755E0,5E-2,1.08623E-3,-6.525356E-1,-3.8510028E-1,-1.0101526E0,1.0461346E-4,4.225247E-3,1.2627149E-1,4.5454547E-1,6.598132E-2,-9.4251275E-2,1.16819225E-1,-2.6242478E-2,2.7868325E-2,-7.513266E-2,-6.080631E-2,-1.6076257E-2,2.1125248E-1,-3.4789912E-2,4.39005E-2,-5.920011E-3,3.4760613E-2,-1.03849275E-2,1.8022174E-1,-4.534626E-2,2.7810235E-2,2.3632772E-1,-6.770381E-2,2.1526676E-2,3.789895E-2,1.6008794E-2,1.6154948E-3,-2.677527E-2,-4.910084E-2,5.0181895E-2,-3.5731137E-2,-7.14648E-2,-4.340747E-2,4.6528034E-2,1.2145155E-1,-2.2629501E-2,1.109898E-2,1.259572E-1,-6.408023E-2,7.6163076E-2,-9.0622455E-2,-4.5244484E-3,-6.634272E-2,-9.056173E-2,1.1183182E-1,-5.953945E-2,-1.50528075E-2,2.3174179E-1,-3.0125703E-3,1.5777259E-1,-6.555232E-2,1.5960732E-1,-1.865842E-2,1.128596E-1],"split_indices":[56,56,111,115,135,112,56,116,56,0,135,115,56,26,38,135,89,92,52,13,9,56,56,38,4,9,24,15,56,0,25,0,55,0,27,90,26,0,102,26,25,135,113,52,3,28,56,4,62,56,3,27,89,61,56,57,61,0,0,0,0,0,0,0,0,0,0,0,0,0,0,0,0,0,0,0,0,0,0,0,0,0,0,0,0,0,0,0,0,0,0,0,0,0,0,0,0,0,0,0,0,0,0,0,0,0,0],"split_type":[0,0,0,0,0,0,0,0,0,0,0,0,0,0,0,0,0,0,0,0,0,0,0,0,0,0,0,0,0,0,0,0,0,0,0,0,0,0,0,0,0,0,0,0,0,0,0,0,0,0,0,0,0,0,0,0,0,0,0,0,0,0,0,0,0,0,0,0,0,0,0,0,0,0,0,0,0,0,0,0,0,0,0,0,0,0,0,0,0,0,0,0,0,0,0,0,0,0,0,0,0,0,0,0,0,0,0],"sum_hessian":[1.4706621E4,4.3232935E3,1.0383328E4,2.0766199E3,2.2466736E3,9.928211E3,4.5511688E2,1.7810612E3,2.9555872E2,6.1403015E2,1.6326434E3,9.46691E3,4.6130106E2,3.3134796E2,1.237689E2,1.7700409E3,1.1020301E1,1.7065488E2,1.2490383E2,9.365685E2,6.96075E2,8.742168E3,7.247415E2,2.3469058E2,2.2661047E2,1.6797352E1,3.1455063E2,3.5035576E1,8.8733315E1,1.3008668E3,4.6917404E2,1.3508502E0,9.669451E0,1.4139504E0,1.6924092E2,1.2196619E2,2.93764E0,3.2152637E2,6.150421E2,6.822611E2,1.3813873E1,6.5978143E2,8.082387E3,6.1198456E2,1.1275693E2,1.9364328E2,4.10473E1,1.8653084E2,4.0079647E1,1.0181922E1,6.61543E0,3.0696024E2,7.590374E0,4.181895E0,3.0853682E1,5.1190228E1,3.754309E1,1.3053838E0,4.6786868E2,8.509955E0,1.1594951E0,2.7135272E0,1.665274E2,4.3233807E1,7.873238E1,1.1986263E0,1.7390137E0,5.3989086E1,2.6753726E2,5.3469867E2,8.034346E1,3.1794925E0,6.7908167E2,1.1332648E1,2.4812243E0,1.8487473E2,4.7490668E2,7.2641855E3,8.182016E2,2.8717825E2,3.248063E2,2.0121937E1,9.2634995E1,1.0772863E2,8.591466E1,2.1739687E1,1.9307611E1,6.1753216E0,1.8035551E2,2.4327448E1,1.57522E1,3.6814833E0,6.500439E0,5.5988045E0,1.0166253E0,6.1623764E1,2.4533649E2,2.1990511E0,5.391323E0,1.1011399E0,3.080755E0,2.6843082E1,4.010599E0,5.0023685E1,1.1665412E0,3.115644E1,6.3866506E0],"tree_param":{"num_deleted":"0","num_feature":"138","num_nodes":"107","size_leaf_vector":"1"}},{"base_weights":[-1.6292078E-2,-5.3418756E-1,2.373874E-1,-1.0094508E0,-3.148067E-1,-5.074804E-1,2.679532E-1,-3.822921E-1,-1.0160656E0,-8.529527E-1,-3.1854887E-2,-7.764353E-1,3.2195892E-2,1.2034416E-1,3.365063E-1,-9.2840545E-2,1.3281347E-1,-1.0200708E0,-3.068698E-1,-9.57545E-1,-5.4001015E-1,1.08038336E-1,-4.9358085E-1,-1.7511223E-1,-8.1400186E-1,5.9857374E-1,-1.17789164E-1,2.5808105E-1,-4.220486E-2,3.5852277E-1,2.1007544E-1,8.6052096E-1,-6.011653E-1,-1.0213423E0,3.1805366E-2,4.66696E-1,-9.190718E-2,-9.694888E-1,4.0007374E-1,-6.9058365E-1,-3.4191722E-1,3.5554156E-1,3.0697377E-2,-6.7499644E-1,-2.0670228E-1,-4.4545346E-1,9.555975E-1,-9.341222E-1,-7.133529E-1,-3.521253E-2,1.2273387E0,-2.0955661E-1,8.7802005E-1,3.5137662E-1,2.1022927E-2,-3.1749687E-1,7.160382E-2,1.1414287E-1,3.7197754E-1,1.0774473E-1,3.911696E-1,-6.6838354E-2,1.4839876E-1,-9.300616E-2,4.1564163E-2,-1.0253634E-1,-7.599033E-2,-6.5961115E-2,1.2344865E-1,-9.738382E-2,3.1855773E-2,-5.662755E-2,8.088611E-2,5.0600078E-2,-7.054671E-2,-3.871634E-2,1.0808156E-1,2.5645524E-2,9.095489E-2,1.1660246E-2,-2.6589945E-2,-5.332082E-2,-8.698701E-2,-4.156679E-2,2.597799E-2,5.269475E-2,-7.918535E-2,2.1022534E-1,-5.978465E-2,1.2745089E-2,-9.5119305E-2,-7.463782E-2,1.5032823E-2,-4.6535924E-2,8.247007E-2,2.4926446E-2,2.0059907E-1,-2.762017E-2,1.1615802E-1,2.4443577E-1,1.2053772E-2,-1.5473867E-2,3.894771E-2,3.9980665E-2,-9.432986E-3,-3.6840227E-2,5.773708E-2,-2.1392612E-3,3.311065E-2,5.1912356E-2,2.143215E-3,3.4452904E-2,4.9364816E-2,2.1848425E-2,-2.2628669E-2,4.3732956E-2,-4.265697E-2],"categories":[],"categories_nodes":[],"categories_segments":[],"categories_sizes":[],"default_left":[0,0,0,0,0,0,0,0,0,0,0,0,0,0,0,0,0,0,0,0,0,0,0,0,0,0,0,0,0,0,0,0,0,0,0,0,0,0,0,0,0,0,0,0,0,0,0,0,0,0,0,0,0,0,0,0,0,0,0,0,0,0,0,0,0,0,0,0,0,0,0,0,0,0,0,0,0,0,0,0,0,0,0,0,0,0,0,0,0,0,0,0,0,0,0,0,0,0,0,0,0,0,0,0,0,0,0,0,0,0,0,0,0,0,0,0,0],"id":11,"left_children":[1,3,5,7,9,11,13,15,17,19,21,23,25,27,29,-1,31,33,35,37,39,41,43,45,47,49,51,53,55,57,59,61,63,65,-1,67,-1,69,71,73,75,77,79,81,83,85,87,89,91,93,95,97,99,101,103,105,107,109,111,113,115,-1,-1,-1,-1,-1,-1,-1,-1,-1,-1,-1,-1,-1,-1,-1,-1,-1,-1,-1,-1,-1,-1,-1,-1,-1,-1,-1,-1,-1,-1,-1,-1,-1,-1,-1,-1,-1,-1,-1,-1,-1,-1,-1,-1,-1,-1,-1,-1,-1,-1,-1,-1,-1,-1,-1,-1],"loss_changes":[1.9109863E3,4.98302E2,2.2242151E2,5.875244E0,4.9841394E2,5.5935074E1,9.4867065E1,5.0073156E0,3.9291992E0,3.6403442E1,1.3869624E2,5.665573E0,1.1035367E1,6.664097E1,1.7750793E1,0E0,5.756758E0,2.8509521E0,5.0783167E0,1.40755005E1,8.260361E0,3.1538115E1,2.5845352E1,5.436454E0,2.2560425E0,1.0878224E1,9.586167E0,3.562452E1,4.2817772E1,1.7886963E1,1.7603806E1,6.0792637E0,2.2166748E0,7.803955E-1,0E0,5.1384754E0,0E0,4.999817E0,3.645732E0,3.2217026E0,8.464851E0,2.1302223E1,3.205423E1,7.9752045E0,1.910293E1,5.1031857E0,7.457321E0,2.0597458E0,3.9843063E0,5.751866E0,9.915804E0,9.003125E0,1.023428E1,2.2352524E1,1.9964552E1,1.8420635E1,2.3348686E1,1.07267885E1,1.7088928E1,2.260612E1,1.314946E1,0E0,0E0,0E0,0E0,0E0,0E0,0E0,0E0,0E0,0E0,0E0,0E0,0E0,0E0,0E0,0E0,0E0,0E0,0E0,0E0,0E0,0E0,0E0,0E0,0E0,0E0,0E0,0E0,0E0,0E0,0E0,0E0,0E0,0E0,0E0,0E0,0E0,0E0,0E0,0E0,0E0,0E0,0E0,0E0,0E0,0E0,0E0,0E0,0E0,0E0,0E0,0E0,0E0,0E0,0E0,0E0],"parents":[2147483647,0,0,1,1,2,2,3,3,4,4,5,5,6,6,7,7,8,8,9,9,10,10,11,11,12,12,13,13,14,14,16,16,17,17,18,18,19,19,20,20,21,21,22,22,23,23,24,24,25,25,26,26,27,27,28,28,29,29,30,30,31,31,32,32,33,33,35,35,37,37,38,38,39,39,40,40,41,41,42,42,43,43,44,44,45,45,46,46,47,47,48,48,49,49,50,50,51,51,52,52,53,53,54,54,55,55,56,56,57,57,58,58,59,59,60,60],"right_children":[2,4,6,8,10,12,14,16,18,20,22,24,26,28,30,-1,32,34,36,38,40,42,44,46,48,50,52,54,56,58,60,62,64,66,-1,68,-1,70,72,74,76,78,80,82,84,86,88,90,92,94,96,98,100,102,104,106,108,110,112,114,116,-1,-1,-1,-1,-1,-1,-1,-1,-1,-1,-1,-1,-1,-1,-1,-1,-1,-1,-1,-1,-1,-1,-1,-1,-1,-1,-1,-1,-1,-1,-1,-1,-1,-1,-1,-1,-1,-1,-1,-1,-1,-1,-1,-1,-1,-1,-1,-1,-1,-1,-1,-1,-1,-1,-1,-1],"split_conditions":[7.9177774E-2,2.6873057E0,-3.3333334E-1,-1.6712023E-1,5.0044633E-2,1.4239413E-1,4.0221915E-2,7.3593065E-2,1.8533966E-1,1E0,3.2146797E-1,-4.050767E-1,-2.1536076E-1,5E0,2.2055574E-1,-9.2840545E-2,-1.9452757E0,5.358574E-1,1.913731E0,6.2413316E-2,3.8776785E-2,-2.5677297E-1,3.3824807E-3,-7.4428874E-1,9.598368E-2,4E-1,6.363636E-1,7.1428573E-1,9.598368E-2,5.532922E-4,4.9615037E-1,3.7612867E0,-1.8108979E-1,7.82005E-2,3.1805366E-2,7.539198E-2,-9.190718E-2,5.1472555E-3,8.747477E-17,-3.549617E-1,4.6323198E-1,1.3927542E0,1E0,1E0,3.9528433E-2,-3.68147E-1,-5.136408E-1,-8.928535E-1,7.2278494E-1,1E0,-1.0863897E0,1.2627149E-1,-2.4027947E-2,4.276616E-1,-5.566239E-1,3.3992583E-1,1E0,-1.0839401E0,7.40401E-1,-1.3899992E-13,1.4285715E0,-6.6838354E-2,1.4839876E-1,-9.300616E-2,4.1564163E-2,-1.0253634E-1,-7.599033E-2,-6.5961115E-2,1.2344865E-1,-9.738382E-2,3.1855773E-2,-5.662755E-2,8.088611E-2,5.0600078E-2,-7.054671E-2,-3.871634E-2,1.0808156E-1,2.5645524E-2,9.095489E-2,1.1660246E-2,-2.6589945E-2,-5.332082E-2,-8.698701E-2,-4.156679E-2,2.597799E-2,5.269475E-2,-7.918535E-2,2.1022534E-1,-5.978465E-2,1.2745089E-2,-9.5119305E-2,-7.463782E-2,1.5032823E-2,-4.6535924E-2,8.247007E-2,2.4926446E-2,2.0059907E-1,-2.762017E-2,1.1615802E-1,2.4443577E-1,1.2053772E-2,-1.5473867E-2,3.894771E-2,3.9980665E-2,-9.432986E-3,-3.6840227E-2,5.773708E-2,-2.1392612E-3,3.311065E-2,5.1912356E-2,2.143215E-3,3.4452904E-2,4.9364816E-2,2.1848425E-2,-2.2628669E-2,4.3732956E-2,-4.265697E-2],"split_indices":[14,135,127,130,14,14,102,14,130,115,127,26,130,135,6,0,0,51,0,102,14,52,15,2,14,62,61,89,14,12,93,37,130,14,0,14,0,15,89,52,52,90,115,106,102,4,1,52,62,96,2,57,28,92,132,43,106,93,1,127,91,0,0,0,0,0,0,0,0,0,0,0,0,0,0,0,0,0,0,0,0,0,0,0,0,0,0,0,0,0,0,0,0,0,0,0,0,0,0,0,0,0,0,0,0,0,0,0,0,0,0,0,0,0,0,0,0],"split_type":[0,0,0,0,0,0,0,0,0,0,0,0,0,0,0,0,0,0,0,0,0,0,0,0,0,0,0,0,0,0,0,0,0,0,0,0,0,0,0,0,0,0,0,0,0,0,0,0,0,0,0,0,0,0,0,0,0,0,0,0,0,0,0,0,0,0,0,0,0,0,0,0,0,0,0,0,0,0,0,0,0,0,0,0,0,0,0,0,0,0,0,0,0,0,0,0,0,0,0,0,0,0,0,0,0,0,0,0,0,0,0,0,0,0,0,0,0],"sum_hessian":[1.4543585E4,4.7812964E3,9.762289E3,1.5088802E3,3.2724165E3,3.841918E2,9.378097E3,1.6361912E1,1.4925183E3,1.1269866E3,2.14543E3,2.561148E2,1.28077E2,2.9750195E3,6.403077E3,7.552459E0,8.809453E0,1.4837007E3,8.817569E0,8.431332E2,2.8385336E2,1.6471455E3,4.9828433E2,1.5392375E1,2.4072244E2,2.6189304E1,1.0188769E2,1.6101022E3,1.3649174E3,5.4518633E3,9.5121423E2,4.3370523E0,4.472401E0,1.4825288E3,1.1719714E0,4.00041E0,4.817159E0,8.360637E2,7.0694714E0,1.5985724E2,1.2399612E2,3.9130643E2,1.2558391E3,3.0442188E2,1.9386246E2,1.2911425E1,2.4809496E0,1.05970314E2,1.3475214E2,1.3512694E1,1.267661E1,9.401356E1,7.8741302E0,1.1550453E3,4.550569E2,3.9870337E2,9.66214E2,2.8499316E2,5.16687E3,6.087969E2,3.424173E2,1.2354237E0,3.1016283E0,3.443786E0,1.0286152E0,1.4571935E3,2.5335314E1,1.6787181E0,2.321692E0,8.334931E2,2.5705726E0,1.9870187E0,5.082453E0,1.5585213E0,1.5829872E2,1.2087974E2,3.1163785E0,3.3317902E2,5.812742E1,9.7426416E2,2.8157498E2,1.7837448E2,1.260474E2,1.3396178E2,5.990067E1,3.254449E0,9.656976E0,1.2241055E0,1.2568442E0,1.5747739E0,1.0439554E2,1.2992009E2,4.832038E0,9.312977E0,4.1997175E0,6.203918E0,6.4726925E0,9.041732E1,3.5962389E0,1.8407792E0,6.0333514E0,8.065021E1,1.0743951E3,1.0565426E2,3.4940262E2,3.7780014E2,2.0903212E1,7.119826E2,2.542314E2,5.2232185E1,2.3276099E2,4.218926E3,9.4794415E2,4.574778E2,1.5131909E2,3.2456158E2,1.7855738E1],"tree_param":{"num_deleted":"0","num_feature":"138","num_nodes":"117","size_leaf_vector":"1"}},{"base_weights":[-6.951703E-3,-8.599687E-1,1.2690529E-1,-9.3566424E-1,-4.5659673E-1,-2.3025793E-1,2.2680423E-1,-9.9748135E-1,-3.972356E-1,4.8539197E-1,-5.0683254E-1,-9.276261E-1,-1.7009757E-2,2.5554255E-1,-5.307733E-1,-1.0349964E-1,-8.9263934E-1,-1.0043758E-1,-1.4292087E-1,8.304743E-1,-2.2780195E-1,-5.2064615E-1,1.3488719E-1,-9.825339E-1,4.093215E-2,1.0620397E-1,-4.5780218E-1,3.4160072E-1,1.3448194E-1,-6.459151E-1,3.4637776E-1,-9.1000676E-1,1.0016139E-1,7.581294E-2,-6.762379E-1,-1.4603853E-1,1.1239421E0,-6.8813056E-1,8.791829E-2,-7.6172495E-1,-4.2207715E-1,-1.0059036E0,-7.1276325E-1,8.140485E-1,-4.470352E-1,1.6342022E-1,-1.1529629E-1,-5.148864E-1,2.4561928E-1,5.199286E-1,3.3284193E-1,8.9490704E-2,4.0585053E-1,-1.2292159E-1,-7.3189086E-1,-1.9967194E-1,6.977099E-1,-9.169842E-2,2.6989473E-2,-8.367001E-2,1.1494662E-1,8.800333E-2,-1.1611428E-2,-8.190726E-2,5.06148E-2,-8.223212E-2,7.6248065E-2,-2.5725579E-2,1.3382696E-1,-1.012825E-1,1.970047E-2,-8.175274E-2,5.581033E-3,-2.7306143E-2,-6.0353864E-2,-1.585457E-2,-1.0076219E-1,-9.766259E-2,2.7485365E-2,1.4830309E-1,-2.3426455E-2,-5.835535E-2,1.0698085E-1,1.2081924E-2,4.2782113E-2,9.612669E-3,-2.694256E-2,-5.537302E-2,7.011942E-3,-7.908154E-2,6.609618E-2,7.662609E-2,3.3458155E-2,3.3044703E-2,1.0774662E-1,3.0617042E-2,4.5592147E-3,6.0468923E-2,2.72086E-2,3.618256E-2,-4.9968317E-2,-7.6438576E-2,2.7311001E-2,5.7086684E-2,-5.829196E-2,1.4288835E-1,2.1666847E-2],"categories":[],"categories_nodes":[],"categories_segments":[],"categories_sizes":[],"default_left":[0,0,0,0,0,0,0,0,0,0,0,0,0,0,0,0,0,0,0,0,0,0,0,0,0,0,0,0,0,0,0,0,0,0,0,0,0,0,0,0,0,0,0,0,0,0,0,0,0,0,0,0,0,0,0,0,0,0,0,0,0,0,0,0,0,0,0,0,0,0,0,0,0,0,0,0,0,0,0,0,0,0,0,0,0,0,0,0,0,0,0,0,0,0,0,0,0,0,0,0,0,0,0,0,0,0,0],"id":12,"left_children":[1,3,5,7,9,11,13,15,17,19,21,23,25,27,29,-1,31,-1,33,35,37,39,-1,41,43,45,47,49,51,53,55,57,59,61,63,65,67,69,-1,71,73,75,77,79,81,83,85,87,89,91,93,95,97,99,101,103,105,-1,-1,-1,-1,-1,-1,-1,-1,-1,-1,-1,-1,-1,-1,-1,-1,-1,-1,-1,-1,-1,-1,-1,-1,-1,-1,-1,-1,-1,-1,-1,-1,-1,-1,-1,-1,-1,-1,-1,-1,-1,-1,-1,-1,-1,-1,-1,-1,-1,-1],"loss_changes":[1.6511052E3,5.9459595E1,4.4601764E2,5.453894E1,1.5003632E1,4.063203E2,2.1279071E2,4.8967285E0,2.6358467E1,4.2007933E0,8.304237E0,3.4068176E1,1.13750946E2,9.8003174E1,3.6311028E1,0E0,6.9407043E0,0E0,1.4298871E1,3.3738308E0,3.713334E0,6.690651E0,0E0,3.100769E0,1.367612E1,2.0764883E1,1.849868E1,8.417908E0,4.7726715E1,1.4127853E1,8.218276E0,3.4625244E0,8.561413E0,1.3609714E1,6.4309177E0,2.760962E0,2.9277267E0,1.5989432E0,0E0,3.895752E0,5.5595207E0,6.480713E-1,1.3743237E1,1.0171646E1,5.237643E0,1.4606289E1,1.0995552E1,9.662842E0,1.5598146E1,1.1419197E1,8.998291E0,3.1917383E1,1.462561E1,8.55341E0,9.070557E0,5.4311495E0,8.781542E0,0E0,0E0,0E0,0E0,0E0,0E0,0E0,0E0,0E0,0E0,0E0,0E0,0E0,0E0,0E0,0E0,0E0,0E0,0E0,0E0,0E0,0E0,0E0,0E0,0E0,0E0,0E0,0E0,0E0,0E0,0E0,0E0,0E0,0E0,0E0,0E0,0E0,0E0,0E0,0E0,0E0,0E0,0E0,0E0,0E0,0E0,0E0,0E0,0E0,0E0],"parents":[2147483647,0,0,1,1,2,2,3,3,4,4,5,5,6,6,7,7,8,8,9,9,10,10,11,11,12,12,13,13,14,14,16,16,18,18,19,19,20,20,21,21,23,23,24,24,25,25,26,26,27,27,28,28,29,29,30,30,31,31,32,32,33,33,34,34,35,35,36,36,37,37,39,39,40,40,41,41,42,42,43,43,44,44,45,45,46,46,47,47,48,48,49,49,50,50,51,51,52,52,53,53,54,54,55,55,56,56],"right_children":[2,4,6,8,10,12,14,16,18,20,22,24,26,28,30,-1,32,-1,34,36,38,40,-1,42,44,46,48,50,52,54,56,58,60,62,64,66,68,70,-1,72,74,76,78,80,82,84,86,88,90,92,94,96,98,100,102,104,106,-1,-1,-1,-1,-1,-1,-1,-1,-1,-1,-1,-1,-1,-1,-1,-1,-1,-1,-1,-1,-1,-1,-1,-1,-1,-1,-1,-1,-1,-1,-1,-1,-1,-1,-1,-1,-1,-1,-1,-1,-1,-1,-1,-1,-1,-1,-1,-1,-1,-1],"split_conditions":[5.208559E-4,5E0,8.027762E-4,5.004463E-4,1E0,2.6060345E0,1E0,3.2146797E-1,-1.3899992E-13,-1.8181819E-1,5.6551963E-1,7.970247E-4,3.2146797E-1,0E0,2.3283714E-3,-1.0349964E-1,4.1564954E-3,-1.0043758E-1,5.7731597E-15,3.7713247E-4,3.9079398E-1,3.0633152E-4,1.3488719E-1,7.766801E-4,-3.498991E-16,1E0,5.523654E-3,-1.6E0,1.9557667E-3,-4.050767E-1,7.1428575E-2,3.2715376E-2,4.5754825E-4,-1.2186469E-1,3.3017218E-1,-7.153949E-2,-3.1788704E-1,-6.3584644E-1,8.791829E-2,2E0,6.445081E-2,-1.9034337E0,2.5204628E0,6.6729654E-3,2.5725703E0,1.379894E0,-4.1315507E-2,9.81062E-2,1E0,-5.6705414E-3,2E0,-4.131012E-2,-8.744371E-1,-8.26453E-1,9.2046213E-1,-3.2290404E0,-4.7274798E-1,-9.169842E-2,2.6989473E-2,-8.367001E-2,1.1494662E-1,8.800333E-2,-1.1611428E-2,-8.190726E-2,5.06148E-2,-8.223212E-2,7.6248065E-2,-2.5725579E-2,1.3382696E-1,-1.012825E-1,1.970047E-2,-8.175274E-2,5.581033E-3,-2.7306143E-2,-6.0353864E-2,-1.585457E-2,-1.0076219E-1,-9.766259E-2,2.7485365E-2,1.4830309E-1,-2.3426455E-2,-5.835535E-2,1.0698085E-1,1.2081924E-2,4.2782113E-2,9.612669E-3,-2.694256E-2,-5.537302E-2,7.011942E-3,-7.908154E-2,6.609618E-2,7.662609E-2,3.3458155E-2,3.3044703E-2,1.0774662E-1,3.0617042E-2,4.5592147E-3,6.0468923E-2,2.72086E-2,3.618256E-2,-4.9968317E-2,-7.6438576E-2,2.7311001E-2,5.7086684E-2,-5.829196E-2,1.4288835E-1,2.1666847E-2],"split_indices":[56,134,56,56,115,135,111,127,127,55,52,56,127,127,56,0,15,0,127,56,16,56,0,56,92,115,15,60,56,26,61,57,56,51,27,51,91,0,0,33,2,36,135,130,135,88,52,130,106,57,134,57,93,0,3,38,0,0,0,0,0,0,0,0,0,0,0,0,0,0,0,0,0,0,0,0,0,0,0,0,0,0,0,0,0,0,0,0,0,0,0,0,0,0,0,0,0,0,0,0,0,0,0,0,0,0,0],"split_type":[0,0,0,0,0,0,0,0,0,0,0,0,0,0,0,0,0,0,0,0,0,0,0,0,0,0,0,0,0,0,0,0,0,0,0,0,0,0,0,0,0,0,0,0,0,0,0,0,0,0,0,0,0,0,0,0,0,0,0,0,0,0,0,0,0,0,0,0,0,0,0,0,0,0,0,0,0,0,0,0,0,0,0,0,0,0,0,0,0,0,0,0,0,0,0,0,0,0,0,0,0,0,0,0,0,0,0],"sum_hessian":[1.4458301E4,1.9603501E3,1.249795E4,1.6494921E3,3.1085806E2,2.7313606E3,9.76659E3,1.478852E3,1.7063992E2,1.5300025E1,2.9555804E2,6.3884564E2,2.0925151E3,9.410278E3,3.5631134E2,1.0825991E3,3.9625296E2,4.9504837E1,1.21135086E2,1.0200176E1,5.0998487E0,2.9408832E2,1.4697175E0,6.0455865E2,3.4286983E1,1.6359739E3,4.565411E2,5.499228E3,3.9110503E3,3.1519937E2,4.1111965E1,3.895223E2,6.730665E0,8.6511314E1,3.462377E1,2.4731503E0,7.7270265E0,3.8692386E0,1.2306104E0,8.339475E1,2.1069356E2,5.538508E2,5.0707813E1,1.3008533E1,2.1278454E1,1.3003419E3,3.3563205E2,4.2252066E2,3.402046E1,2.5472368E2,5.2445044E3,3.3559795E3,5.550708E2,4.484363E1,2.7035574E2,1.6264666E1,2.48473E1,3.874539E2,2.068397E0,3.6628976E0,3.0677676E0,1.5977323E1,7.0534E1,3.1166111E1,3.4576602E0,1.472173E0,1.0009772E0,1.0110682E0,6.715958E0,2.7252676E0,1.143971E0,7.806621E1,5.3285456E0,1.1706494E2,9.362862E1,1.3096124E0,5.5254126E2,4.0025333E1,1.0682481E1,7.687842E0,5.32069E0,2.008597E1,1.1924837E0,1.1211553E3,1.7918655E2,1.4167258E2,1.9395947E2,3.9626266E2,2.6257984E1,9.474367E0,2.4546091E1,1.0802315E2,1.4670053E2,5.22913E3,1.5374516E1,5.643617E2,2.791618E3,2.2181944E2,3.3325134E2,1.9628696E1,2.5214937E1,2.6211996E2,8.235769E0,5.2399435E0,1.1024722E1,9.078207E0,1.57690935E1],"tree_param":{"num_deleted":"0","num_feature":"138","num_nodes":"107","size_leaf_vector":"1"}},{"base_weights":[-2.163134E-2,-8.921288E-1,8.882673E-2,-9.87117E-1,-4.2074314E-1,-2.2890028E-1,1.8155408E-1,-1.02795176E-1,-8.7523097E-1,5.654223E-1,-4.6749908E-1,-9.4465786E-1,-3.7364222E-2,-4.521548E-1,2.0419171E-1,6.874545E-1,-8.8756436E-1,-3.8857636E-1,8.244094E-1,-6.11895E-1,-2.8572428E-1,-1.002322E0,-2.271105E-1,6.153092E-2,-4.1170597E-1,-6.15501E-1,2.9660612E-1,2.7841076E-1,9.938367E-2,1.9077511E-1,-6.2747255E-2,-6.98592E-1,-9.414855E-1,2.3365607E-2,-7.623557E-2,1.2920276E0,-1.4518225E-1,-6.3350475E-1,6.2399816E-2,-3.2842997E-1,8.2518107E-1,-9.44578E-3,-1.0040163E0,-3.9618304E-1,8.6250603E-1,1.9402975E-1,-2.4687765E-2,-5.989751E-1,-1.2877563E-1,-8.058768E-1,-3.5525253E-1,4.2862737E-1,-8.387052E-1,4.2311463E-1,2.6635703E-1,7.294314E-2,4.8572978E-1,-7.3856324E-2,6.012646E-2,-9.482148E-2,4.5211386E-2,-3.594451E-2,1.6675316E-1,6.2130388E-2,-8.154847E-2,4.0473826E-2,-6.593438E-2,-6.3614115E-2,-1.6455857E-2,-2.5161568E-2,2.2200687E-1,-1.2889217E-2,-1.0057254E-1,-2.3099275E-3,-9.6342646E-2,-2.613926E-2,1.1668583E-1,5.1029522E-2,7.931097E-3,2.5778508E-2,-1.0818719E-2,-4.392833E-2,-8.15242E-2,-5.4763205E-2,1.287317E-2,-8.216389E-2,2.9077202E-2,2.165065E-2,-5.341796E-2,-2.2716785E-3,6.673273E-2,-9.5324986E-2,-9.5588295E-3,1.1534803E-1,3.8433436E-2,2.6343876E-2,7.8168444E-2,2.957794E-2,2.3910878E-3,1.0563244E-1,4.0100567E-2],"categories":[],"categories_nodes":[],"categories_segments":[],"categories_sizes":[],"default_left":[0,0,0,0,0,0,0,0,0,0,0,0,0,0,0,0,0,0,0,0,0,0,0,0,0,0,0,0,0,0,0,0,0,0,0,0,0,0,0,0,0,0,0,0,0,0,0,0,0,0,0,0,0,0,0,0,0,0,0,0,0,0,0,0,0,0,0,0,0,0,0,0,0,0,0,0,0,0,0,0,0,0,0,0,0,0,0,0,0,0,0,0,0,0,0,0,0,0,0,0,0],"id":13,"left_children":[1,3,5,7,9,11,13,-1,15,17,19,21,23,25,27,29,31,33,35,37,39,41,43,45,47,49,51,53,55,-1,-1,57,59,-1,-1,61,63,65,-1,67,69,-1,71,73,75,77,79,81,83,85,87,89,91,93,95,97,99,-1,-1,-1,-1,-1,-1,-1,-1,-1,-1,-1,-1,-1,-1,-1,-1,